{"learner":{"attributes":{"scikit_learn":"{\"_estimator_type\": \"classifier\"}"},"feature_names":["v012","v106","v025","v190","v101","b19","b4","bord"],"feature_types":["int","int","int","int","int","int","int","int"],"gradient_booster":{"model":{"cats":{"enc":[],"feature_segments":[],"sorted_idx":[]},"gbtree_model_param":{"num_parallel_tree":"1","num_trees":"200"},"iteration_indptr":[0,1,2,3,4,5,6,7,8,9,10,11,12,13,14,15,16,17,18,19,20,21,22,23,24,25,26,27,28,29,30,31,32,33,34,35,36,37,38,39,40,41,42,43,44,45,46,47,48,49,50,51,52,53,54,55,56,57,58,59,60,61,62,63,64,65,66,67,68,69,70,71,72,73,74,75,76,77,78,79,80,81,82,83,84,85,86,87,88,89,90,91,92,93,94,95,96,97,98,99,100,101,102,103,104,105,106,107,108,109,110,111,112,113,114,115,116,117,118,119,120,121,122,123,124,125,126,127,128,129,130,131,132,133,134,135,136,137,138,139,140,141,142,143,144,145,146,147,148,149,150,151,152,153,154,155,156,157,158,159,160,161,162,163,164,165,166,167,168,169,170,171,172,173,174,175,176,177,178,179,180,181,182,183,184,185,186,187,188,189,190,191,192,193,194,195,196,197,198,199,200],"tree_info":[0,0,0,0,0,0,0,0,0,0,0,0,0,0,0,0,0,0,0,0,0,0,0,0,0,0,0,0,0,0,0,0,0,0,0,0,0,0,0,0,0,0,0,0,0,0,0,0,0,0,0,0,0,0,0,0,0,0,0,0,0,0,0,0,0,0,0,0,0,0,0,0,0,0,0,0,0,0,0,0,0,0,0,0,0,0,0,0,0,0,0,0,0,0,0,0,0,0,0,0,0,0,0,0,0,0,0,0,0,0,0,0,0,0,0,0,0,0,0,0,0,0,0,0,0,0,0,0,0,0,0,0,0,0,0,0,0,0,0,0,0,0,0,0,0,0,0,0,0,0,0,0,0,0,0,0,0,0,0,0,0,0,0,0,0,0,0,0,0,0,0,0,0,0,0,0,0,0,0,0,0,0,0,0,0,0,0,0,0,0,0,0,0,0,0,0,0,0,0,0],"trees":[{"base_weights":[-3.7272312E-7,-3.695279E-1,1.7663096E-1,-1.3815278E0,-2.6286975E-1,-4.5518184E-1,2.487174E-1,-1.6363637E0,-8.709607E-1,-4.4352958E-1,7.0741996E-2,-9.653312E-1,-1.405975E-1,6.641457E-2,4.5057586E-1,-1.9911975E0,-1.2949909E0,-6.028976E-1,-1.2401508E0,-2.5573328E-1,-1.1397136E0,3.6355868E-1,-6.624181E-2,-1.3969164E0,-4.098028E-1,1.3875486E-1,-4.048338E-1,4.6237022E-1,-1.4905567E-1,6.8074065E-1,3.8732687E-1,-8.6979546E-2,-1.2740578E-1,9.985526E-3,-6.80029E-2,-1.3175934E-2,-5.4590434E-2,-6.535547E-2,2.0384742E-2,-2.9990125E-2,-1.0050033E-2,-7.338146E-2,-1.9402018E-2,9.353154E-3,3.4258872E-2,-9.726292E-3,1.5852293E-2,-9.541887E-2,-5.5647876E-2,-2.461826E-2,1.4180644E-2,-4.720286E-3,1.6595256E-2,-2.5357706E-2,1.33712515E-2,2.8985882E-2,1.1763013E-2,1.8806754E-3,-1.9866657E-2,3.530713E-2,4.39667E-3,2.4622697E-2,1.4764236E-2],"categories":[],"categories_nodes":[],"categories_segments":[],"categories_sizes":[],"default_left":[0,0,0,0,0,0,0,0,0,0,0,0,0,0,0,0,0,0,0,0,0,0,0,0,0,0,0,0,0,0,0,0,0,0,0,0,0,0,0,0,0,0,0,0,0,0,0,0,0,0,0,0,0,0,0,0,0,0,0,0,0,0,0],"id":0,"left_children":[1,3,5,7,9,11,13,15,17,19,21,23,25,27,29,31,33,35,37,39,41,43,45,47,49,51,53,55,57,59,61,-1,-1,-1,-1,-1,-1,-1,-1,-1,-1,-1,-1,-1,-1,-1,-1,-1,-1,-1,-1,-1,-1,-1,-1,-1,-1,-1,-1,-1,-1,-1,-1],"loss_changes":[7.839533E2,4.1891174E2,3.702356E2,4.673169E1,2.1189825E2,1.3348238E2,2.6841815E2,2.718982E1,1.16594925E1,2.9786636E2,4.9591625E1,7.5529144E1,3.815795E1,3.2719864E2,5.0129395E1,1.21918335E1,1.2731369E1,1.2086628E1,6.247307E0,3.372644E1,1.18777466E2,2.2237404E1,4.1499302E1,2.3759216E1,8.165707E0,1.1364727E1,1.8399734E1,3.588147E1,1.151297E2,1.11545105E1,2.6151733E1,0E0,0E0,0E0,0E0,0E0,0E0,0E0,0E0,0E0,0E0,0E0,0E0,0E0,0E0,0E0,0E0,0E0,0E0,0E0,0E0,0E0,0E0,0E0,0E0,0E0,0E0,0E0,0E0,0E0,0E0,0E0,0E0],"parents":[2147483647,0,0,1,1,2,2,3,3,4,4,5,5,6,6,7,7,8,8,9,9,10,10,11,11,12,12,13,13,14,14,15,15,16,16,17,17,18,18,19,19,20,20,21,21,22,22,23,23,24,24,25,25,26,26,27,27,28,28,29,29,30,30],"right_children":[2,4,6,8,10,12,14,16,18,20,22,24,26,28,30,32,34,36,38,40,42,44,46,48,50,52,54,56,58,60,62,-1,-1,-1,-1,-1,-1,-1,-1,-1,-1,-1,-1,-1,-1,-1,-1,-1,-1,-1,-1,-1,-1,-1,-1,-1,-1,-1,-1,-1,-1,-1,-1],"split_conditions":[2E0,9E0,9E0,1.9E1,1.9E1,3E0,1.9E1,2E0,2.7E1,1.2E1,2.2E1,1.9E1,2E0,9E0,2.2E1,1.1E1,2E0,2.4E1,7E0,1.3E1,1.8E1,2.1E1,2.8E1,7E0,3E1,1.7E1,3.3E1,7E0,1.2E1,4E0,2E0,-8.6979546E-2,-1.2740578E-1,9.985526E-3,-6.80029E-2,-1.3175934E-2,-5.4590434E-2,-6.535547E-2,2.0384742E-2,-2.9990125E-2,-1.0050033E-2,-7.338146E-2,-1.9402018E-2,9.353154E-3,3.4258872E-2,-9.726292E-3,1.5852293E-2,-9.541887E-2,-5.5647876E-2,-2.461826E-2,1.4180644E-2,-4.720286E-3,1.6595256E-2,-2.5357706E-2,1.33712515E-2,2.8985882E-2,1.1763013E-2,1.8806754E-3,-1.9866657E-2,3.530713E-2,4.39667E-3,2.4622697E-2,1.4764236E-2],"split_indices":[1,5,5,4,4,3,4,3,0,4,4,4,7,4,4,4,4,4,7,5,4,4,4,5,4,4,4,4,4,7,7,0,0,0,0,0,0,0,0,0,0,0,0,0,0,0,0,0,0,0,0,0,0,0,0,0,0,0,0,0,0,0,0],"split_type":[0,0,0,0,0,0,0,0,0,0,0,0,0,0,0,0,0,0,0,0,0,0,0,0,0,0,0,0,0,0,0,0,0,0,0,0,0,0,0,0,0,0,0,0,0,0,0,0,0,0,0,0,0,0,0,0,0,0,0,0,0,0,0],"sum_hessian":[1.2008902E4,3.8834043E3,8.1254985E3,3.6912244E2,3.5142817E3,8.3158936E2,7.293909E3,2.4475467E2,1.2436777E2,2.2795266E3,1.2347551E3,3.1641028E2,5.151791E2,3.8333003E3,3.4606086E3,1.1764148E2,1.271132E2,7.35774E1,5.079037E1,1.7963318E3,4.831949E2,3.9300766E2,8.4174744E2,1.7721721E2,1.3919307E2,2.5065733E2,2.6452173E2,1.3504747E3,2.4828254E3,7.43873E2,2.7167356E3,8.387275E1,3.3768734E1,5.216308E0,1.2189689E2,4.433862E1,2.9238781E1,4.9005844E1,1.7845265E0,2.4516649E2,1.5511654E3,3.3576553E2,1.4742934E2,2.5477548E2,1.3823216E2,6.31036E2,2.107114E2,6.122299E1,1.15994225E2,1.2464231E2,1.4550755E1,1.1379788E2,1.3685945E2,2.297921E2,3.472963E1,8.8938055E2,4.610942E2,1.4177377E3,1.0650878E3,7.1312427E2,3.0748764E1,1.2661902E3,1.4505455E3],"tree_param":{"num_deleted":"0","num_feature":"8","num_nodes":"63","size_leaf_vector":"1"}},{"base_weights":[2.0787808E-4,-3.4646833E-1,1.6896881E-1,-1.2537704E0,-2.473124E-1,-4.256344E-1,2.3842242E-1,-1.4725901E0,-8.0429316E-1,-4.1488352E-1,6.748296E-2,-8.8781255E-1,-1.3280998E-1,6.3347206E-2,4.3480986E-1,-1.7723161E0,-1.1779181E0,-1.1999445E0,-5.731749E-1,-2.4082953E-1,-1.0415652E0,3.4987828E-1,-6.273668E-2,-1.2669435E0,-3.839166E-1,1.3252935E-1,-3.7927926E-1,4.4637948E-1,-1.4084622E-1,6.621965E-1,3.729418E-1,-7.80054E-2,-1.1154497E-1,9.622053E-3,-6.1733346E-2,-4.402328E-2,-8.141478E-2,-1.1080645E-2,-3.6354102E-2,-2.79195E-2,-9.482118E-3,-6.634372E-2,-1.8196104E-2,8.944677E-3,3.3335593E-2,-9.179207E-3,1.5228619E-2,-8.514344E-2,-5.0937183E-2,-2.3008483E-2,1.36417E-2,-4.4719013E-3,1.5952194E-2,-2.3681732E-2,1.2836148E-2,2.8096398E-2,1.126713E-2,1.7890142E-3,-1.8618815E-2,3.4375057E-2,4.1960804E-3,1.1314766E-2,2.1956297E-2],"categories":[],"categories_nodes":[],"categories_segments":[],"categories_sizes":[],"default_left":[0,0,0,0,0,0,0,0,0,0,0,0,0,0,0,0,0,0,0,0,0,0,0,0,0,0,0,0,0,0,0,0,0,0,0,0,0,0,0,0,0,0,0,0,0,0,0,0,0,0,0,0,0,0,0,0,0,0,0,0,0,0,0],"id":1,"left_children":[1,3,5,7,9,11,13,15,17,19,21,23,25,27,29,31,33,35,37,39,41,43,45,47,49,51,53,55,57,59,61,-1,-1,-1,-1,-1,-1,-1,-1,-1,-1,-1,-1,-1,-1,-1,-1,-1,-1,-1,-1,-1,-1,-1,-1,-1,-1,-1,-1,-1,-1,-1,-1],"loss_changes":[7.027269E2,3.534896E2,3.3372833E2,3.6898438E1,1.8710622E2,1.14283066E2,2.4870801E2,2.0806458E1,1.1106773E1,2.5221588E2,4.5359165E1,6.2112762E1,3.3967796E1,2.992948E2,4.7717407E1,8.832275E0,1.0634262E1,4.950035E0,4.348007E0,2.9360718E1,9.6730286E1,2.0967537E1,3.754792E1,1.844928E1,7.2429047E0,1.0399128E1,1.6272507E1,3.385742E1,1.0209708E2,1.0594482E1,2.5936249E1,0E0,0E0,0E0,0E0,0E0,0E0,0E0,0E0,0E0,0E0,0E0,0E0,0E0,0E0,0E0,0E0,0E0,0E0,0E0,0E0,0E0,0E0,0E0,0E0,0E0,0E0,0E0,0E0,0E0,0E0,0E0,0E0],"parents":[2147483647,0,0,1,1,2,2,3,3,4,4,5,5,6,6,7,7,8,8,9,9,10,10,11,11,12,12,13,13,14,14,15,15,16,16,17,17,18,18,19,19,20,20,21,21,22,22,23,23,24,24,25,25,26,26,27,27,28,28,29,29,30,30],"right_children":[2,4,6,8,10,12,14,16,18,20,22,24,26,28,30,32,34,36,38,40,42,44,46,48,50,52,54,56,58,60,62,-1,-1,-1,-1,-1,-1,-1,-1,-1,-1,-1,-1,-1,-1,-1,-1,-1,-1,-1,-1,-1,-1,-1,-1,-1,-1,-1,-1,-1,-1,-1,-1],"split_conditions":[2E0,9E0,9E0,1.9E1,1.9E1,3E0,1.9E1,2E0,7E0,1.2E1,2.2E1,1.9E1,2E0,9E0,2.2E1,1.1E1,2E0,2.8E1,2.2E1,1.3E1,1.8E1,2.1E1,2.8E1,7E0,3E1,1.7E1,3.3E1,7E0,1.2E1,4E0,2E0,-7.80054E-2,-1.1154497E-1,9.622053E-3,-6.1733346E-2,-4.402328E-2,-8.141478E-2,-1.1080645E-2,-3.6354102E-2,-2.79195E-2,-9.482118E-3,-6.634372E-2,-1.8196104E-2,8.944677E-3,3.3335593E-2,-9.179207E-3,1.5228619E-2,-8.514344E-2,-5.0937183E-2,-2.3008483E-2,1.36417E-2,-4.4719013E-3,1.5952194E-2,-2.3681732E-2,1.2836148E-2,2.8096398E-2,1.126713E-2,1.7890142E-3,-1.8618815E-2,3.4375057E-2,4.1960804E-3,1.1314766E-2,2.1956297E-2],"split_indices":[1,5,5,4,4,3,4,3,5,4,4,4,7,4,4,4,4,0,4,5,4,4,4,5,4,4,4,4,4,7,2,0,0,0,0,0,0,0,0,0,0,0,0,0,0,0,0,0,0,0,0,0,0,0,0,0,0,0,0,0,0,0,0],"split_type":[0,0,0,0,0,0,0,0,0,0,0,0,0,0,0,0,0,0,0,0,0,0,0,0,0,0,0,0,0,0,0,0,0,0,0,0,0,0,0,0,0,0,0,0,0,0,0,0,0,0,0,0,0,0,0,0,0,0,0,0,0,0,0],"sum_hessian":[1.2009317E4,3.9316646E3,8.077653E3,3.8619916E2,3.5454653E3,8.443042E2,7.2333486E3,2.5821545E2,1.2798367E2,2.3135852E3,1.2318801E3,3.266716E2,5.1763257E2,3.8248757E3,3.4084727E3,1.2552401E2,1.3269145E2,4.5647625E1,8.233605E1,1.8117701E3,5.0181506E2,3.8824417E2,8.43636E2,1.8554979E2,1.4112183E2,2.4949652E2,2.6813605E2,1.329595E3,2.4952808E3,7.269556E2,2.681517E3,8.8823296E1,3.6700714E1,5.181379E0,1.2751008E2,2.7896751E1,1.7750872E1,2.5812904E1,5.6523148E1,2.5012274E2,1.5616473E3,3.5246014E2,1.4935495E2,2.5317729E2,1.3506686E2,6.3516284E2,2.0847316E2,6.5190926E1,1.2035886E2,1.2670936E2,1.4412462E1,1.14158806E2,1.3533772E2,2.337177E2,3.4418358E1,8.721371E2,4.5745786E2,1.4159475E3,1.0793334E3,6.962976E2,3.0658041E1,8.352481E2,1.8462689E3],"tree_param":{"num_deleted":"0","num_feature":"8","num_nodes":"63","size_leaf_vector":"1"}},{"base_weights":[3.711028E-4,-3.2526362E-1,1.6161232E-1,-1.0371325E0,-2.1734384E-1,-3.203533E-1,2.4049832E-1,-1.239524E0,-6.2411356E-1,-3.704782E-1,7.506812E-2,-6.165689E-1,2.9246483E-3,7.7548936E-2,4.2664564E-1,-1.5208173E0,-9.6046287E-1,-1.0996917E0,-4.3743968E-1,-2.1242638E-1,-9.2775154E-1,3.4941703E-1,-4.9661554E-2,3.8174283E-2,-9.3596345E-1,1.0185028E-1,-5.641516E-1,4.4129968E-1,-1.13643125E-1,6.5013534E-1,3.6644322E-1,-6.502182E-2,-1.00296356E-1,1.4047191E-2,-5.0585557E-2,-4.071478E-2,-7.37145E-2,-7.4534747E-3,-2.8238272E-2,-1.4584379E-2,-1.9652662E-3,-5.909596E-2,-1.5519181E-2,9.436162E-3,3.244047E-2,-8.153116E-3,1.5125039E-2,1.0278896E-2,-1.7687654E-2,-7.034852E-2,-3.7569698E-2,-1.9878484E-2,9.12638E-3,-3.6928136E-2,2.5166368E-2,3.6713306E-2,1.7990652E-2,2.8931305E-3,-1.6803844E-2,4.2275492E-2,2.8844362E-2,1.5698481E-2,2.6514137E-2],"categories":[],"categories_nodes":[],"categories_segments":[],"categories_sizes":[],"default_left":[0,0,0,0,0,0,0,0,0,0,0,0,0,0,0,0,0,0,0,0,0,0,0,0,0,0,0,0,0,0,0,0,0,0,0,0,0,0,0,0,0,0,0,0,0,0,0,0,0,0,0,0,0,0,0,0,0,0,0,0,0,0,0],"id":2,"left_children":[1,3,5,7,9,11,13,15,17,19,21,23,25,27,29,31,33,35,37,39,41,43,45,47,49,51,53,55,57,59,61,-1,-1,-1,-1,-1,-1,-1,-1,-1,-1,-1,-1,-1,-1,-1,-1,-1,-1,-1,-1,-1,-1,-1,-1,-1,-1,-1,-1,-1,-1,-1,-1],"loss_changes":[6.3054834E2,3.0531622E2,3.054566E2,4.2969666E1,1.5472928E2,1.0822608E2,2.0934805E2,2.6028198E1,1.4976303E1,1.9952625E2,4.0678856E1,1.2336951E2,3.0428616E1,2.5611905E2,4.3110474E1,1.585257E1,1.164064E1,3.9757767E0,4.567648E0,2.4246544E1,7.820447E1,1.775095E1,3.270656E1,1.2822825E1,3.340674E1,1.8680227E1,1.537215E1,3.0024399E1,9.211978E1,9.278198E0,2.1674225E1,0E0,0E0,0E0,0E0,0E0,0E0,0E0,0E0,0E0,0E0,0E0,0E0,0E0,0E0,0E0,0E0,0E0,0E0,0E0,0E0,0E0,0E0,0E0,0E0,0E0,0E0,0E0,0E0,0E0,0E0,0E0,0E0],"parents":[2147483647,0,0,1,1,2,2,3,3,4,4,5,5,6,6,7,7,8,8,9,9,10,10,11,11,12,12,13,13,14,14,15,15,16,16,17,17,18,18,19,19,20,20,21,21,22,22,23,23,24,24,25,25,26,26,27,27,28,28,29,29,30,30],"right_children":[2,4,6,8,10,12,14,16,18,20,22,24,26,28,30,32,34,36,38,40,42,44,46,48,50,52,54,56,58,60,62,-1,-1,-1,-1,-1,-1,-1,-1,-1,-1,-1,-1,-1,-1,-1,-1,-1,-1,-1,-1,-1,-1,-1,-1,-1,-1,-1,-1,-1,-1,-1,-1],"split_conditions":[2E0,1E1,1E1,1.9E1,1.9E1,1.9E1,1.9E1,2E0,7E0,1.2E1,2.2E1,9E0,3E0,9E0,2.2E1,1.1E1,2E0,2.8E1,2.2E1,1E0,1.8E1,2.1E1,2.8E1,8E0,7E0,2E0,3.3E1,3E0,1.2E1,2E1,3.3E1,-6.502182E-2,-1.00296356E-1,1.4047191E-2,-5.0585557E-2,-4.071478E-2,-7.37145E-2,-7.4534747E-3,-2.8238272E-2,-1.4584379E-2,-1.9652662E-3,-5.909596E-2,-1.5519181E-2,9.436162E-3,3.244047E-2,-8.153116E-3,1.5125039E-2,1.0278896E-2,-1.7687654E-2,-7.034852E-2,-3.7569698E-2,-1.9878484E-2,9.12638E-3,-3.6928136E-2,2.5166368E-2,3.6713306E-2,1.7990652E-2,2.8931305E-3,-1.6803844E-2,4.2275492E-2,2.8844362E-2,1.5698481E-2,2.6514137E-2],"split_indices":[1,5,5,4,4,4,4,3,5,4,4,4,7,4,4,4,4,0,4,1,4,4,4,4,5,3,4,4,4,4,4,0,0,0,0,0,0,0,0,0,0,0,0,0,0,0,0,0,0,0,0,0,0,0,0,0,0,0,0,0,0,0,0],"split_type":[0,0,0,0,0,0,0,0,0,0,0,0,0,0,0,0,0,0,0,0,0,0,0,0,0,0,0,0,0,0,0,0,0,0,0,0,0,0,0,0,0,0,0,0,0,0,0,0,0,0,0,0,0,0,0,0,0,0,0,0,0,0,0],"sum_hessian":[1.2007131E4,3.9761265E3,8.0310044E3,5.222975E2,3.453829E3,1.1291622E3,6.9018423E3,3.4918518E2,1.731123E2,2.266572E3,1.187257E3,5.887712E2,5.4039105E2,3.6809946E3,3.2208477E3,1.7168112E2,1.7750406E2,4.741778E1,1.2569452E2,1.7668467E3,4.9972537E2,3.705072E2,8.167498E2,1.9333148E2,3.9543967E2,4.6082178E2,7.9569305E1,1.2677466E3,2.413248E3,6.8141785E2,2.53943E3,1.2058238E2,5.109874E1,6.859583E0,1.7064447E2,2.8714663E1,1.8703121E1,3.916455E1,8.652997E1,1.2114949E3,5.5535175E2,3.5334167E2,1.463837E2,2.4216145E2,1.2834575E2,6.18214E2,1.9853581E2,1.3580196E2,5.7529526E1,1.0946655E2,2.859731E2,6.354274E1,3.9727902E2,6.865943E1,1.0909868E1,2.7413748E2,9.936091E2,1.3630327E3,1.0502153E3,1.8293439E2,4.984835E2,1.9256198E3,6.138102E2],"tree_param":{"num_deleted":"0","num_feature":"8","num_nodes":"63","size_leaf_vector":"1"}},{"base_weights":[5.187709E-4,-3.0565897E-1,1.5456007E-1,-9.539374E-1,-2.0489056E-1,-3.0101892E-1,2.3052286E-1,-1.1329159E0,-5.818798E-1,-3.4760392E-1,7.161119E-2,-6.685186E-1,-6.666602E-2,7.3975466E-2,4.1149798E-1,-1.3791724E0,-8.847659E-1,-1.0119048E0,-4.0984118E-1,-2.0034964E-1,-8.5552293E-1,3.3618596E-1,-4.7057934E-2,-9.902602E-1,-2.3533124E-1,1.545238E-1,-2.7079022E-1,4.2585713E-1,-1.0752227E-1,6.321548E-1,3.5264745E-1,-5.930785E-2,-8.982164E-2,1.3548404E-2,-4.653099E-2,-3.7751928E-2,-6.716054E-2,-4.2683445E-2,-1.67227E-2,-1.3737104E-2,-1.4718813E-3,-5.4074377E-2,-1.4595518E-2,9.025111E-3,3.1545654E-2,-7.703181E-3,1.452475E-2,-3.702804E-2,-6.857147E-2,-2.3274295E-2,9.079339E-4,-4.5901304E-3,1.6892971E-2,-1.7931929E-2,1.6543338E-2,3.580172E-2,1.7309394E-2,2.754075E-3,-1.5784359E-2,2.7159635E-2,3.978171E-2,1.0752625E-2,2.0766383E-2],"categories":[],"categories_nodes":[],"categories_segments":[],"categories_sizes":[],"default_left":[0,0,0,0,0,0,0,0,0,0,0,0,0,0,0,0,0,0,0,0,0,0,0,0,0,0,0,0,0,0,0,0,0,0,0,0,0,0,0,0,0,0,0,0,0,0,0,0,0,0,0,0,0,0,0,0,0,0,0,0,0,0,0],"id":3,"left_children":[1,3,5,7,9,11,13,15,17,19,21,23,25,27,29,31,33,35,37,39,41,43,45,47,49,51,53,55,57,59,61,-1,-1,-1,-1,-1,-1,-1,-1,-1,-1,-1,-1,-1,-1,-1,-1,-1,-1,-1,-1,-1,-1,-1,-1,-1,-1,-1,-1,-1,-1,-1,-1],"loss_changes":[5.6621265E2,2.6230338E2,2.7647208E2,3.531961E1,1.373075E2,9.829616E1,1.9392618E2,2.100827E1,1.2720444E1,1.7146475E2,3.722678E1,6.1719757E1,3.157184E1,2.3455946E2,4.1007812E1,1.2429077E1,1.0001678E1,3.2454262E0,4.0137825E0,2.2628174E1,6.533234E1,1.673053E1,2.9629786E1,2.3231049E1,1.1137461E1,1.5195621E1,1.9333496E1,2.8642914E1,8.2041565E1,9.271973E0,2.1547882E1,0E0,0E0,0E0,0E0,0E0,0E0,0E0,0E0,0E0,0E0,0E0,0E0,0E0,0E0,0E0,0E0,0E0,0E0,0E0,0E0,0E0,0E0,0E0,0E0,0E0,0E0,0E0,0E0,0E0,0E0,0E0,0E0],"parents":[2147483647,0,0,1,1,2,2,3,3,4,4,5,5,6,6,7,7,8,8,9,9,10,10,11,11,12,12,13,13,14,14,15,15,16,16,17,17,18,18,19,19,20,20,21,21,22,22,23,23,24,24,25,25,26,26,27,27,28,28,29,29,30,30],"right_children":[2,4,6,8,10,12,14,16,18,20,22,24,26,28,30,32,34,36,38,40,42,44,46,48,50,52,54,56,58,60,62,-1,-1,-1,-1,-1,-1,-1,-1,-1,-1,-1,-1,-1,-1,-1,-1,-1,-1,-1,-1,-1,-1,-1,-1,-1,-1,-1,-1,-1,-1,-1,-1],"split_conditions":[2E0,1E1,1E1,1.9E1,1.9E1,3E0,1.9E1,2E0,7E0,1.2E1,2.2E1,1.9E1,2E0,9E0,2.2E1,1.1E1,2E0,2.8E1,2E0,1E1,1.8E1,2.1E1,2.8E1,1.3E1,8E0,1.4E1,3.3E1,3E0,1.2E1,2.1E1,2E0,-5.930785E-2,-8.982164E-2,1.3548404E-2,-4.653099E-2,-3.7751928E-2,-6.716054E-2,-4.2683445E-2,-1.67227E-2,-1.3737104E-2,-1.4718813E-3,-5.4074377E-2,-1.4595518E-2,9.025111E-3,3.1545654E-2,-7.703181E-3,1.452475E-2,-3.702804E-2,-6.857147E-2,-2.3274295E-2,9.079339E-4,-4.5901304E-3,1.6892971E-2,-1.7931929E-2,1.6543338E-2,3.580172E-2,1.7309394E-2,2.754075E-3,-1.5784359E-2,2.7159635E-2,3.978171E-2,1.0752625E-2,2.0766383E-2],"split_indices":[1,5,5,4,4,3,4,3,5,4,4,4,7,4,4,4,4,0,2,4,4,4,4,4,5,4,4,4,4,4,2,0,0,0,0,0,0,0,0,0,0,0,0,0,0,0,0,0,0,0,0,0,0,0,0,0,0,0,0,0,0,0,0],"split_type":[0,0,0,0,0,0,0,0,0,0,0,0,0,0,0,0,0,0,0,0,0,0,0,0,0,0,0,0,0,0,0,0,0,0,0,0,0,0,0,0,0,0,0,0,0,0,0,0,0,0,0,0,0,0,0,0,0,0,0,0,0,0,0],"sum_hessian":[1.2003182E4,4.0172915E3,7.9858896E3,5.393025E2,3.477989E3,1.1408423E3,6.8450474E3,3.6275443E2,1.7654808E2,2.293808E3,1.184181E3,4.435065E2,6.9733575E2,3.6709797E3,3.1740676E3,1.7978415E2,1.8297028E2,4.9053326E1,1.2749476E2,1.7793414E3,5.144666E2,3.6610684E2,8.180742E2,2.537515E2,1.8975502E2,3.3479425E2,3.6254147E2,1.2486986E3,2.422281E3,6.662519E2,2.5078157E3,1.25550156E2,5.4234E1,6.795002E0,1.7617526E2,2.9477768E1,1.9575558E1,1.7012583E1,1.1048218E2,1.2393049E3,5.4003644E2,3.6657843E2,1.4788818E2,2.406177E2,1.2548912E2,6.2157574E2,1.9649849E2,1.550941E2,9.8657394E1,9.90169E1,9.073811E1,1.4306883E2,1.9172543E2,3.167033E2,4.583816E1,2.6726367E2,9.81435E2,1.3603818E3,1.0618992E3,4.3425946E2,2.3199245E2,7.8625903E2,1.7215568E3],"tree_param":{"num_deleted":"0","num_feature":"8","num_nodes":"63","size_leaf_vector":"1"}},{"base_weights":[6.3459703E-4,-1.7499831E-1,2.4381855E-1,-4.0386426E-1,9.225991E-2,-1.37166E-1,3.1745338E-1,-9.098219E-1,-2.6954415E-1,3.9483538E-1,-3.8118903E-2,-9.0780073E-1,-7.493773E-2,-1.3438886E-1,3.723331E-1,-1.4340386E0,-7.795547E-1,-1.2443171E-1,-5.3686404E-1,-1.879849E-1,5.168525E-1,-5.576447E-1,4.6317343E-2,-9.889636E-1,1.92953E-1,1.5558793E-1,-1.8067254E-1,-2.777886E-1,1.460715E-1,5.9669685E-1,3.0897897E-1,-3.6524437E-2,-7.813426E-2,-3.0062143E-2,-5.4740407E-2,-1.2134701E-2,4.5223804E-3,-4.033878E-2,-1.2824847E-3,3.352699E-3,-3.1653382E-2,3.6867917E-2,2.1097101E-2,-1.5115107E-2,-3.6808655E-2,6.2413174E-3,-9.719618E-3,-2.5751544E-2,-6.3168794E-2,2.9148439E-2,-2.0137437E-2,-5.855934E-4,2.401824E-2,-1.248165E-2,1.6844442E-2,-2.871328E-2,-5.81753E-3,-1.094301E-2,1.7008135E-2,2.476753E-2,3.941257E-2,1.0543066E-2,2.2021784E-2],"categories":[],"categories_nodes":[],"categories_segments":[],"categories_sizes":[],"default_left":[0,0,0,0,0,0,0,0,0,0,0,0,0,0,0,0,0,0,0,0,0,0,0,0,0,0,0,0,0,0,0,0,0,0,0,0,0,0,0,0,0,0,0,0,0,0,0,0,0,0,0,0,0,0,0,0,0,0,0,0,0,0,0],"id":4,"left_children":[1,3,5,7,9,11,13,15,17,19,21,23,25,27,29,31,33,35,37,39,41,43,45,47,49,51,53,55,57,59,61,-1,-1,-1,-1,-1,-1,-1,-1,-1,-1,-1,-1,-1,-1,-1,-1,-1,-1,-1,-1,-1,-1,-1,-1,-1,-1,-1,-1,-1,-1,-1,-1],"loss_changes":[5.1250757E2,4.2620697E2,1.4121005E2,2.5484149E2,1.2684209E2,3.9050682E1,1.0462567E2,5.2624695E1,1.1504564E2,6.895145E1,9.8625404E1,5.6279373E0,1.8452251E1,1.8439476E1,5.327289E1,1.2928284E1,3.4899323E1,4.8932182E1,1.4400409E2,1.9151995E1,1.644989E1,1.4105743E1,3.658012E1,6.7418556E0,1.400156E0,1.2949172E1,1.859566E1,1.4437986E1,1.1083512E1,1.566507E1,3.7760254E1,0E0,0E0,0E0,0E0,0E0,0E0,0E0,0E0,0E0,0E0,0E0,0E0,0E0,0E0,0E0,0E0,0E0,0E0,0E0,0E0,0E0,0E0,0E0,0E0,0E0,0E0,0E0,0E0,0E0,0E0,0E0,0E0],"parents":[2147483647,0,0,1,1,2,2,3,3,4,4,5,5,6,6,7,7,8,8,9,9,10,10,11,11,12,12,13,13,14,14,15,15,16,16,17,17,18,18,19,19,20,20,21,21,22,22,23,23,24,24,25,25,26,26,27,27,28,28,29,29,30,30],"right_children":[2,4,6,8,10,12,14,16,18,20,22,24,26,28,30,32,34,36,38,40,42,44,46,48,50,52,54,56,58,60,62,-1,-1,-1,-1,-1,-1,-1,-1,-1,-1,-1,-1,-1,-1,-1,-1,-1,-1,-1,-1,-1,-1,-1,-1,-1,-1,-1,-1,-1,-1,-1,-1],"split_conditions":[1.9E1,3E0,1E0,1.2E1,7E0,8E0,9E0,7E0,1.2E1,2E0,1E1,3.5E1,2.2E1,2.8E1,2.2E1,9E0,1.2E1,1E1,1.8E1,6E0,3E0,2E0,1.2E1,2.2E1,3E0,2.1E1,3.1E1,7E0,2E0,2.1E1,2.8E1,-3.6524437E-2,-7.813426E-2,-3.0062143E-2,-5.4740407E-2,-1.2134701E-2,4.5223804E-3,-4.033878E-2,-1.2824847E-3,3.352699E-3,-3.1653382E-2,3.6867917E-2,2.1097101E-2,-1.5115107E-2,-3.6808655E-2,6.2413174E-3,-9.719618E-3,-2.5751544E-2,-6.3168794E-2,2.9148439E-2,-2.0137437E-2,-5.855934E-4,2.401824E-2,-1.248165E-2,1.6844442E-2,-2.871328E-2,-5.81753E-3,-1.094301E-2,1.7008135E-2,2.476753E-2,3.941257E-2,1.0543066E-2,2.2021784E-2],"split_indices":[4,3,1,5,4,5,5,5,4,1,5,4,4,4,4,4,4,4,4,4,4,7,4,4,7,4,4,5,2,4,4,0,0,0,0,0,0,0,0,0,0,0,0,0,0,0,0,0,0,0,0,0,0,0,0,0,0,0,0,0,0,0,0],"split_type":[0,0,0,0,0,0,0,0,0,0,0,0,0,0,0,0,0,0,0,0,0,0,0,0,0,0,0,0,0,0,0,0,0,0,0,0,0,0,0,0,0,0,0,0,0,0,0,0,0,0,0,0,0,0,0,0,0,0,0,0,0,0,0],"sum_hessian":[1.1997398E4,6.966393E3,5.031005E3,3.7524663E3,3.213927E3,8.147334E2,4.2162715E3,7.859967E2,2.9664695E3,9.6722345E2,2.2467034E3,5.9858433E1,7.54875E2,4.564799E2,3.7597917E3,1.5445122E2,6.3154553E2,1.9236807E3,1.042789E3,1.6734618E2,7.9987726E2,3.1331436E2,1.9333892E3,5.5842506E1,4.0159287E0,2.3721704E2,5.1765796E2,3.0205057E2,1.5442932E2,8.2603516E2,2.9337566E3,2.4908487E1,1.2954272E2,4.05242E2,2.2630351E2,1.2407076E3,6.82973E2,6.8208356E2,3.6070532E2,1.069256E2,6.042058E1,2.3865059E2,5.612267E2,1.300302E2,1.8328416E2,1.4582522E3,4.7513687E2,2.1531927E1,3.4310577E1,2.439876E0,1.5760524E0,1.5720248E2,8.0014565E1,4.57251E2,6.040695E1,1.0558644E2,1.9646413E2,5.3573124E1,1.0085619E2,5.425649E2,2.8347025E2,1.6813911E3,1.2523655E3],"tree_param":{"num_deleted":"0","num_feature":"8","num_nodes":"63","size_leaf_vector":"1"}},{"base_weights":[7.4833556E-4,-2.7697843E-1,1.4382821E-1,-9.2083275E-1,-1.9951788E-1,-2.658761E-1,2.1435642E-1,-1.0588658E0,-6.193077E-1,-3.27476E-1,5.4418806E-2,-5.810284E-1,-5.8035776E-2,7.196961E-2,3.83171E-1,-1.2414137E0,-8.70218E-1,-4.1645554E-1,-8.888553E-1,-1.938278E-1,-7.715676E-1,2.992071E-1,-5.281939E-2,-8.361799E-1,-2.1930958E-1,2.7390542E-2,-5.280342E-1,4.0062085E-1,-9.183843E-2,5.9747654E-1,3.2715756E-1,-7.617947E-2,-5.3610485E-2,8.795755E-3,-4.5409847E-2,-6.5715834E-3,-4.087359E-2,-4.708088E-2,2.2792695E-2,-1.3448658E-2,-1.4700713E-3,-4.7752842E-2,-1.4591393E-2,7.3985094E-3,2.9878525E-2,-7.5599747E-3,1.314989E-2,-3.1371117E-2,-5.730879E-2,-7.9567395E-3,-5.4608583E-2,-8.139732E-3,1.0447921E-2,-3.082393E-2,2.8726334E-2,3.4240913E-2,1.6221536E-2,-1.9467091E-2,-2.5234534E-5,4.030638E-2,2.5968833E-2,2.1376118E-2,1.1999132E-2],"categories":[],"categories_nodes":[],"categories_segments":[],"categories_sizes":[],"default_left":[0,0,0,0,0,0,0,0,0,0,0,0,0,0,0,0,0,0,0,0,0,0,0,0,0,0,0,0,0,0,0,0,0,0,0,0,0,0,0,0,0,0,0,0,0,0,0,0,0,0,0,0,0,0,0,0,0,0,0,0,0,0,0],"id":5,"left_children":[1,3,5,7,9,11,13,15,17,19,21,23,25,27,29,31,33,35,37,39,41,43,45,47,49,51,53,55,57,59,61,-1,-1,-1,-1,-1,-1,-1,-1,-1,-1,-1,-1,-1,-1,-1,-1,-1,-1,-1,-1,-1,-1,-1,-1,-1,-1,-1,-1,-1,-1,-1,-1],"loss_changes":[4.7656766E2,2.031889E2,2.2877304E2,1.7558533E1,1.1833086E2,7.61376E1,1.6230194E2,9.209259E0,7.2758293E0,1.435589E2,3.206438E1,4.2458908E1,2.8194546E1,1.973257E2,3.6893005E1,5.5046387E0,6.130768E0,9.227476E0,4.626995E0,2.3005043E1,4.899707E1,1.670044E1,2.6443264E1,1.6790466E1,9.935125E0,2.0575682E1,1.0885717E1,2.6176514E1,6.6475784E1,9.994385E0,2.1347809E1,0E0,0E0,0E0,0E0,0E0,0E0,0E0,0E0,0E0,0E0,0E0,0E0,0E0,0E0,0E0,0E0,0E0,0E0,0E0,0E0,0E0,0E0,0E0,0E0,0E0,0E0,0E0,0E0,0E0,0E0,0E0,0E0],"parents":[2147483647,0,0,1,1,2,2,3,3,4,4,5,5,6,6,7,7,8,8,9,9,10,10,11,11,12,12,13,13,14,14,15,15,16,16,17,17,18,18,19,19,20,20,21,21,22,22,23,23,24,24,25,25,26,26,27,27,28,28,29,29,30,30],"right_children":[2,4,6,8,10,12,14,16,18,20,22,24,26,28,30,32,34,36,38,40,42,44,46,48,50,52,54,56,58,60,62,-1,-1,-1,-1,-1,-1,-1,-1,-1,-1,-1,-1,-1,-1,-1,-1,-1,-1,-1,-1,-1,-1,-1,-1,-1,-1,-1,-1,-1,-1,-1,-1],"split_conditions":[2E0,9E0,1E1,1.9E1,1.9E1,3E0,1.9E1,2E0,2.7E1,1.2E1,2.2E1,1.9E1,3E0,9E0,2.2E1,7E0,2E0,2.4E1,7E0,1E0,1.8E1,2.1E1,2.8E1,1.3E1,4E0,1.9E1,3.3E1,3E0,2E0,2E1,2E0,-7.617947E-2,-5.3610485E-2,8.795755E-3,-4.5409847E-2,-6.5715834E-3,-4.087359E-2,-4.708088E-2,2.2792695E-2,-1.3448658E-2,-1.4700713E-3,-4.7752842E-2,-1.4591393E-2,7.3985094E-3,2.9878525E-2,-7.5599747E-3,1.314989E-2,-3.1371117E-2,-5.730879E-2,-7.9567395E-3,-5.4608583E-2,-8.139732E-3,1.0447921E-2,-3.082393E-2,2.8726334E-2,3.4240913E-2,1.6221536E-2,-1.9467091E-2,-2.5234534E-5,4.030638E-2,2.5968833E-2,2.1376118E-2,1.1999132E-2],"split_indices":[1,5,5,4,4,3,4,3,0,4,4,4,7,4,4,5,4,4,7,1,4,4,4,4,7,4,4,4,3,4,7,0,0,0,0,0,0,0,0,0,0,0,0,0,0,0,0,0,0,0,0,0,0,0,0,0,0,0,0,0,0,0,0],"split_type":[0,0,0,0,0,0,0,0,0,0,0,0,0,0,0,0,0,0,0,0,0,0,0,0,0,0,0,0,0,0,0,0,0,0,0,0,0,0,0,0,0,0,0,0,0,0,0,0,0,0,0,0,0,0,0,0,0,0,0,0,0,0,0],"sum_hessian":[1.199101E4,4.0767854E3,7.9142246E3,4.3662848E2,3.640157E3,1.161897E3,6.7523276E3,2.9779245E2,1.3883603E2,2.4202893E3,1.2198677E3,4.6103107E2,7.008659E2,3.6636472E3,3.0886804E3,1.4850693E2,1.4928552E2,8.067091E1,5.816512E1,1.8615094E3,5.587799E2,3.7106424E2,8.488034E2,2.6956906E2,1.9146199E2,5.9386707E2,1.069988E2,1.2181678E3,2.4454792E3,6.380098E2,2.4506707E3,5.2668705E1,9.583823E1,5.1025805E0,1.4418294E2,4.79313E1,3.2739613E1,5.625751E1,1.9076103E0,1.2771818E3,5.8432764E2,4.0347092E2,1.5530899E2,2.4723808E2,1.2382616E2,6.4759314E2,2.0121025E2,1.628957E2,1.0667337E2,1.8022002E2,1.1241987E1,2.9010107E2,3.0376602E2,9.9461174E1,7.5376296E0,2.55846E2,9.6232184E2,5.736508E2,1.8718285E3,1.7123041E2,4.6677942E2,1.1373411E3,1.3133295E3],"tree_param":{"num_deleted":"0","num_feature":"8","num_nodes":"63","size_leaf_vector":"1"}},{"base_weights":[8.258888E-4,-2.6087007E-1,1.3747661E-1,-7.236453E-1,-1.649825E-1,-2.0830575E-1,2.1427134E-1,-1.0733707E0,-6.133527E-1,-2.8290364E-1,7.139328E-2,-4.9337843E-1,-1.9807355E-2,7.79911E-2,3.781876E-1,-1.5163262E0,-9.985687E-1,-7.505254E-1,-3.2013607E-1,-1.633233E-1,-6.7524964E-1,3.1557837E-1,-3.4473024E-2,-7.3630136E-1,-1.455648E-1,6.8958774E-2,-5.103002E-1,2.2180592E-1,-2.602794E-1,5.835512E-1,3.2489002E-1,-8.756023E-2,-4.435171E-2,-5.1530726E-2,-1.0420547E-2,-3.0998388E-2,-5.755358E-2,-3.8591396E-2,-1.1991692E-2,-1.030303E-2,5.3185313E-3,-4.2147987E-2,-1.1554809E-2,8.133389E-3,3.0978052E-2,-4.8320754E-3,2.314642E-2,1.091366E-2,-4.00497E-2,-2.0383589E-2,2.8829859E-3,-1.1392009E-2,7.61307E-3,-6.41798E-2,-1.8898655E-2,2.4566961E-2,5.2056042E-3,-2.2263732E-2,5.8301073E-3,3.954531E-2,2.535949E-2,2.1111624E-2,1.2047375E-2],"categories":[],"categories_nodes":[],"categories_segments":[],"categories_sizes":[],"default_left":[0,0,0,0,0,0,0,0,0,0,0,0,0,0,0,0,0,0,0,0,0,0,0,0,0,0,0,0,0,0,0,0,0,0,0,0,0,0,0,0,0,0,0,0,0,0,0,0,0,0,0,0,0,0,0,0,0,0,0,0,0,0,0],"id":6,"left_children":[1,3,5,7,9,11,13,15,17,19,21,23,25,27,29,31,33,35,37,39,41,43,45,47,49,51,53,55,57,59,61,-1,-1,-1,-1,-1,-1,-1,-1,-1,-1,-1,-1,-1,-1,-1,-1,-1,-1,-1,-1,-1,-1,-1,-1,-1,-1,-1,-1,-1,-1,-1,-1],"loss_changes":[4.2859186E2,1.8231989E2,2.0912103E2,2.6549255E1,9.4985756E1,7.6905624E1,1.4390201E2,4.0451965E0,2.1422333E1,1.0654309E2,2.9345354E1,4.8027267E1,3.759516E1,1.7127217E2,3.1822937E1,1.7444344E0,3.4940796E0,1.8435791E1,6.1044483E0,2.0118122E1,3.9335358E1,1.5855743E1,2.4550058E1,2.0873322E1,1.2568621E1,1.8116821E1,1.305442E1,7.830513E1,7.328513E1,9.121307E0,1.8891006E1,0E0,0E0,0E0,0E0,0E0,0E0,0E0,0E0,0E0,0E0,0E0,0E0,0E0,0E0,0E0,0E0,0E0,0E0,0E0,0E0,0E0,0E0,0E0,0E0,0E0,0E0,0E0,0E0,0E0,0E0,0E0,0E0],"parents":[2147483647,0,0,1,1,2,2,3,3,4,4,5,5,6,6,7,7,8,8,9,9,10,10,11,11,12,12,13,13,14,14,15,15,16,16,17,17,18,18,19,19,20,20,21,21,22,22,23,23,24,24,25,25,26,26,27,27,28,28,29,29,30,30],"right_children":[2,4,6,8,10,12,14,16,18,20,22,24,26,28,30,32,34,36,38,40,42,44,46,48,50,52,54,56,58,60,62,-1,-1,-1,-1,-1,-1,-1,-1,-1,-1,-1,-1,-1,-1,-1,-1,-1,-1,-1,-1,-1,-1,-1,-1,-1,-1,-1,-1,-1,-1,-1,-1],"split_conditions":[2E0,1.1E1,1.1E1,7E0,1.9E1,3E0,1.9E1,2.2E1,1.9E1,1.2E1,2.2E1,1.9E1,3E0,1.2E1,2.2E1,1.9E1,2.8E1,1.2E1,2E0,4E0,1.8E1,2.1E1,3.3E1,6E0,8E0,7E0,2.5E1,7E0,1.8E1,2E1,2E0,-8.756023E-2,-4.435171E-2,-5.1530726E-2,-1.0420547E-2,-3.0998388E-2,-5.755358E-2,-3.8591396E-2,-1.1991692E-2,-1.030303E-2,5.3185313E-3,-4.2147987E-2,-1.1554809E-2,8.133389E-3,3.0978052E-2,-4.8320754E-3,2.314642E-2,1.091366E-2,-4.00497E-2,-2.0383589E-2,2.8829859E-3,-1.1392009E-2,7.61307E-3,-6.41798E-2,-1.8898655E-2,2.4566961E-2,5.2056042E-3,-2.2263732E-2,5.8301073E-3,3.954531E-2,2.535949E-2,2.1111624E-2,1.2047375E-2],"split_indices":[1,5,5,5,4,3,4,0,4,4,4,4,7,4,4,4,4,4,2,3,4,4,4,4,5,5,0,4,4,4,7,0,0,0,0,0,0,0,0,0,0,0,0,0,0,0,0,0,0,0,0,0,0,0,0,0,0,0,0,0,0,0,0],"split_type":[0,0,0,0,0,0,0,0,0,0,0,0,0,0,0,0,0,0,0,0,0,0,0,0,0,0,0,0,0,0,0,0,0,0,0,0,0,0,0,0,0,0,0,0,0,0,0,0,0,0,0,0,0,0,0,0,0,0,0,0,0,0,0],"sum_hessian":[1.1982915E4,4.110364E3,7.8725513E3,7.043694E2,3.4059941E3,1.4303639E3,6.442187E3,1.6678407E2,5.3758527E2,2.272241E3,1.1337532E3,5.6869275E2,8.616712E2,3.5184324E3,2.9237546E3,2.1311625E1,1.4547244E2,3.651848E2,1.724005E2,1.742556E3,5.29685E2,3.4228275E2,7.9147046E2,3.34177E2,2.3451572E2,7.303557E2,1.313155E2,2.4690615E3,1.0493708E3,6.003948E2,2.3233599E3,1.4220949E1,7.090675E0,1.3951013E2,5.962305E0,2.773354E2,8.78494E1,2.4723244E1,1.4767725E2,1.5043964E3,2.3815959E2,3.8384808E2,1.4583693E2,2.2875075E2,1.13532005E2,7.042539E2,8.721654E1,2.1059444E1,3.1311755E2,1.0198083E2,1.3253488E2,1.5968364E2,5.7067206E2,1.7916218E1,1.13399284E2,7.494819E2,1.7195797E3,7.037488E2,3.4562207E2,1.5907597E2,4.413188E2,1.0739468E3,1.2494132E3],"tree_param":{"num_deleted":"0","num_feature":"8","num_nodes":"63","size_leaf_vector":"1"}},{"base_weights":[8.864749E-4,-2.9653028E-1,1.1431302E-1,-4.8609447E-1,2.362676E-2,-3.078857E-1,1.6719268E-1,-9.216149E-1,-3.6537385E-1,-5.3962135E-1,9.9378206E-2,-4.8485336E-1,-6.34937E-2,-7.13983E-2,2.4412906E-1,-7.3571825E-1,-1.2381525E0,-2.1136571E-1,-6.299785E-1,-4.0796027E-1,-8.790525E-1,3.108358E-1,-5.4765E-2,1.5150596E-1,-5.973639E-1,-3.77171E-1,7.061229E-2,-4.0303253E-2,-6.596277E-1,1.3624752E-1,3.6987847E-1,-5.0813682E-2,-2.7999023E-2,-4.3923162E-2,-6.961697E-2,-1.8806856E-2,3.368648E-4,-4.4735815E-2,-7.1854177E-3,-2.6603281E-2,-5.7612257E-3,-4.6237502E-2,1.3089299E-2,2.3089748E-2,2.3573635E-3,-8.168301E-3,5.0071166E-3,2.2423178E-2,-5.390043E-3,-3.6033507E-2,-1.734569E-2,5.8677327E-3,-3.7391108E-2,-2.8872115E-3,1.8885624E-2,-3.9040954E-3,1.7057119E-2,-4.6453416E-2,-1.7923065E-2,2.4347931E-2,1.1089826E-3,9.86245E-3,2.273238E-2],"categories":[],"categories_nodes":[],"categories_segments":[],"categories_sizes":[],"default_left":[0,0,0,0,0,0,0,0,0,0,0,0,0,0,0,0,0,0,0,0,0,0,0,0,0,0,0,0,0,0,0,0,0,0,0,0,0,0,0,0,0,0,0,0,0,0,0,0,0,0,0,0,0,0,0,0,0,0,0,0,0,0,0],"id":7,"left_children":[1,3,5,7,9,11,13,15,17,19,21,23,25,27,29,31,33,35,37,39,41,43,45,47,49,51,53,55,57,59,61,-1,-1,-1,-1,-1,-1,-1,-1,-1,-1,-1,-1,-1,-1,-1,-1,-1,-1,-1,-1,-1,-1,-1,-1,-1,-1,-1,-1,-1,-1,-1,-1],"loss_changes":[4.0400262E2,2.0067203E2,1.9360387E2,1.0885068E2,5.2557777E1,4.171914E1,1.4145567E2,2.557193E1,6.619711E1,6.167652E0,3.5399467E1,4.016678E1,1.7129852E1,3.4352367E1,7.89935E1,1.3532074E1,7.930649E0,3.7030834E1,7.6895935E1,3.8291664E0,2.3247051E0,1.8202492E1,1.059305E1,6.5854745E0,1.44453125E1,2.2435986E1,1.1281911E1,2.5767393E1,7.3193665E0,1.2551201E2,3.92735E1,0E0,0E0,0E0,0E0,0E0,0E0,0E0,0E0,0E0,0E0,0E0,0E0,0E0,0E0,0E0,0E0,0E0,0E0,0E0,0E0,0E0,0E0,0E0,0E0,0E0,0E0,0E0,0E0,0E0,0E0,0E0,0E0],"parents":[2147483647,0,0,1,1,2,2,3,3,4,4,5,5,6,6,7,7,8,8,9,9,10,10,11,11,12,12,13,13,14,14,15,15,16,16,17,17,18,18,19,19,20,20,21,21,22,22,23,23,24,24,25,25,26,26,27,27,28,28,29,29,30,30],"right_children":[2,4,6,8,10,12,14,16,18,20,22,24,26,28,30,32,34,36,38,40,42,44,46,48,50,52,54,56,58,60,62,-1,-1,-1,-1,-1,-1,-1,-1,-1,-1,-1,-1,-1,-1,-1,-1,-1,-1,-1,-1,-1,-1,-1,-1,-1,-1,-1,-1,-1,-1,-1,-1],"split_conditions":[2E0,1.9E1,9E0,1.2E1,9E0,1.9E1,2E0,1.2E1,1.2E1,2.8E1,2.2E1,6E0,2E0,6E0,1.9E1,8E0,2E0,1E1,1.8E1,8E0,7E0,3E0,2E0,3E0,4E0,2E0,4E0,2.8E1,2.4E1,7E0,2E0,-5.0813682E-2,-2.7999023E-2,-4.3923162E-2,-6.961697E-2,-1.8806856E-2,3.368648E-4,-4.4735815E-2,-7.1854177E-3,-2.6603281E-2,-5.7612257E-3,-4.6237502E-2,1.3089299E-2,2.3089748E-2,2.3573635E-3,-8.168301E-3,5.0071166E-3,2.2423178E-2,-5.390043E-3,-3.6033507E-2,-1.734569E-2,5.8677327E-3,-3.7391108E-2,-2.8872115E-3,1.8885624E-2,-3.9040954E-3,1.7057119E-2,-4.6453416E-2,-1.7923065E-2,2.4347931E-2,1.1089826E-3,9.86245E-3,2.273238E-2],"split_indices":[3,4,5,5,5,4,1,4,4,0,4,4,2,7,4,5,7,4,4,5,7,7,1,4,3,7,3,4,5,4,2,0,0,0,0,0,0,0,0,0,0,0,0,0,0,0,0,0,0,0,0,0,0,0,0,0,0,0,0,0,0,0,0],"split_type":[0,0,0,0,0,0,0,0,0,0,0,0,0,0,0,0,0,0,0,0,0,0,0,0,0,0,0,0,0,0,0,0,0,0,0,0,0,0,0,0,0,0,0,0,0,0,0,0,0,0,0,0,0,0,0,0,0,0,0,0,0,0,0],"sum_hessian":[1.1973782E4,3.3053032E3,8.668479E3,2.0757427E3,1.2295604E3,9.6432764E2,7.7041514E3,4.4905713E2,1.6266855E3,1.450347E2,1.0845258E3,5.5874713E2,4.055805E2,1.8785535E3,5.8255977E3,2.8500388E2,1.6405325E2,1.0293629E3,5.973226E2,1.06086845E2,3.8947857E1,4.5682498E2,6.2770074E2,8.389433E1,4.7485278E2,1.2092391E2,2.846566E2,1.7852499E3,9.330357E1,3.1366885E3,2.6889092E3,1.0792494E2,1.7707895E2,5.1233208E1,1.12820045E2,5.859601E2,4.4340286E2,3.8621652E2,2.1110608E2,7.392765E1,3.215919E1,3.7629963E1,1.3178954E0,2.9003275E2,1.6679224E2,3.6897122E2,2.5872955E2,3.876792E1,4.512641E1,3.1693564E2,1.5791713E2,5.209789E1,6.882603E1,2.0132298E2,8.33336E1,1.6250947E3,1.6015524E2,4.814521E1,4.515836E1,7.690159E2,2.3676724E3,8.8663446E2,1.8022748E3],"tree_param":{"num_deleted":"0","num_feature":"8","num_nodes":"63","size_leaf_vector":"1"}},{"base_weights":[9.3542866E-4,-2.7922043E-1,1.0915015E-1,-4.5514444E-1,2.252574E-2,-1.4141059E-1,1.9257618E-1,-7.6687795E-1,-3.0812526E-1,-5.046313E-1,9.483603E-2,-3.0109912E-1,7.429864E-2,-2.2573559E-2,2.6390505E-1,-5.63783E-1,-1.1140314E0,-1.8369672E-1,-5.1852393E-1,-3.8289768E-1,-8.145028E-1,2.9875907E-1,-5.1925976E-2,2.6322326E-1,-3.9641225E-1,1.5377785E-1,-2.975991E-1,4.3089245E-3,-5.252387E-1,1.6794E-1,3.7742555E-1,-4.3179657E-2,-1.9077891E-2,-6.551392E-2,-3.8436975E-2,-1.7319966E-2,1.7399362E-3,-3.765882E-2,-3.6596078E-3,-2.48728E-2,-5.461733E-3,-4.281029E-2,1.2779641E-2,2.2313884E-2,2.243988E-3,-7.7183642E-3,4.7748717E-3,2.6155928E-2,1.9732441E-3,-3.2864053E-2,-1.3654078E-2,2.6768526E-2,3.889097E-3,-3.807832E-2,-5.0286963E-3,-9.856952E-4,2.6448999E-2,-8.929228E-2,-2.211737E-2,2.0117138E-2,1.2213275E-3,1.061152E-2,2.3025412E-2],"categories":[],"categories_nodes":[],"categories_segments":[],"categories_sizes":[],"default_left":[0,0,0,0,0,0,0,0,0,0,0,0,0,0,0,0,0,0,0,0,0,0,0,0,0,0,0,0,0,0,0,0,0,0,0,0,0,0,0,0,0,0,0,0,0,0,0,0,0,0,0,0,0,0,0,0,0,0,0,0,0,0,0],"id":8,"left_children":[1,3,5,7,9,11,13,15,17,19,21,23,25,27,29,31,33,35,37,39,41,43,45,47,49,51,53,55,57,59,61,-1,-1,-1,-1,-1,-1,-1,-1,-1,-1,-1,-1,-1,-1,-1,-1,-1,-1,-1,-1,-1,-1,-1,-1,-1,-1,-1,-1,-1,-1,-1,-1],"loss_changes":[3.6278845E2,1.7701071E2,1.8046817E2,9.629944E1,4.689482E1,7.431595E1,9.939505E1,4.6918E1,3.74198E1,5.28611E0,3.2384857E1,6.677508E1,2.7188118E1,2.1804546E1,5.2924316E1,2.3025116E1,1.5789764E1,3.2078297E1,5.553569E1,3.3450565E0,2.0471497E0,1.6937653E1,9.525879E0,1.0429842E1,3.3950424E1,2.1917892E1,1.4735205E1,1.9326551E1,7.7695656E0,8.871814E1,3.0472534E1,0E0,0E0,0E0,0E0,0E0,0E0,0E0,0E0,0E0,0E0,0E0,0E0,0E0,0E0,0E0,0E0,0E0,0E0,0E0,0E0,0E0,0E0,0E0,0E0,0E0,0E0,0E0,0E0,0E0,0E0,0E0,0E0],"parents":[2147483647,0,0,1,1,2,2,3,3,4,4,5,5,6,6,7,7,8,8,9,9,10,10,11,11,12,12,13,13,14,14,15,15,16,16,17,17,18,18,19,19,20,20,21,21,22,22,23,23,24,24,25,25,26,26,27,27,28,28,29,29,30,30],"right_children":[2,4,6,8,10,12,14,16,18,20,22,24,26,28,30,32,34,36,38,40,42,44,46,48,50,52,54,56,58,60,62,-1,-1,-1,-1,-1,-1,-1,-1,-1,-1,-1,-1,-1,-1,-1,-1,-1,-1,-1,-1,-1,-1,-1,-1,-1,-1,-1,-1,-1,-1,-1,-1],"split_conditions":[2E0,1.9E1,1.3E1,1.5E1,9E0,1.9E1,2E0,1.2E1,1.2E1,2.8E1,2.2E1,6E0,3E0,6E0,1.9E1,9E0,1.8E1,1E1,1.8E1,8E0,7E0,3E0,2E0,3E0,8E0,2.2E1,2E0,3.1E1,2.9E1,9E0,2E0,-4.3179657E-2,-1.9077891E-2,-6.551392E-2,-3.8436975E-2,-1.7319966E-2,1.7399362E-3,-3.765882E-2,-3.6596078E-3,-2.48728E-2,-5.461733E-3,-4.281029E-2,1.2779641E-2,2.2313884E-2,2.243988E-3,-7.7183642E-3,4.7748717E-3,2.6155928E-2,1.9732441E-3,-3.2864053E-2,-1.3654078E-2,2.6768526E-2,3.889097E-3,-3.807832E-2,-5.0286963E-3,-9.856952E-4,2.6448999E-2,-8.929228E-2,-2.211737E-2,2.0117138E-2,1.2213275E-3,1.061152E-2,2.3025412E-2],"split_indices":[3,4,5,5,5,4,1,4,4,0,4,4,7,7,4,5,4,4,4,5,7,7,1,4,5,4,2,4,0,4,2,0,0,0,0,0,0,0,0,0,0,0,0,0,0,0,0,0,0,0,0,0,0,0,0,0,0,0,0,0,0,0,0],"split_type":[0,0,0,0,0,0,0,0,0,0,0,0,0,0,0,0,0,0,0,0,0,0,0,0,0,0,0,0,0,0,0,0,0,0,0,0,0,0,0,0,0,0,0,0,0,0,0,0,0,0,0,0,0,0,0,0,0,0,0,0,0,0,0],"sum_hessian":[1.1964501E4,3.3333218E3,8.631179E3,2.1053516E3,1.2279702E3,2.155795E3,6.475384E3,6.7336334E2,1.4319883E3,1.474018E2,1.0805684E3,1.2385249E3,9.1727E2,1.6124437E3,4.8629404E3,4.264826E2,2.4688075E2,9.010097E2,5.3097864E2,1.0743242E2,3.9969368E1,4.517854E2,6.2878296E2,1.7870442E2,1.0598206E3,7.5623883E2,1.6103122E2,1.531529E3,8.09146E1,2.6365774E3,2.226363E3,1.5981088E2,2.6667172E2,1.5563234E2,9.1248405E1,5.16106E2,3.8490366E2,3.472931E2,1.8368556E2,7.515426E1,3.227816E1,3.8662518E1,1.3068516E0,2.8526947E2,1.6651595E2,3.7096228E2,2.578207E2,8.205717E1,9.6647255E1,3.3881995E2,7.2100055E2,1.2459158E2,6.316472E2,4.7145264E1,1.13885956E2,1.4653962E3,6.613287E1,3.7247255E0,7.718987E1,1.0005539E3,1.6360234E3,7.462106E2,1.4801525E3],"tree_param":{"num_deleted":"0","num_feature":"8","num_nodes":"63","size_leaf_vector":"1"}},{"base_weights":[9.7352837E-4,-2.6311013E-1,1.0420015E-1,-4.2667657E-1,2.1473764E-2,-1.3370875E-1,1.8428393E-1,-7.13254E-1,-2.8993782E-1,-4.7253752E-1,9.048872E-2,-4.59821E-1,-3.586906E-2,-2.1461474E-2,2.531802E-1,-5.26998E-1,-1.0274484E0,-1.7343502E-1,-4.8522002E-1,-3.5970846E-1,-7.565481E-1,2.870481E-1,-4.9239922E-2,-7.787705E-1,-3.907479E-1,-1.8703467E-1,1.4181691E-1,-5.47048E-2,3.4562486E-1,1.6055556E-1,3.6358064E-1,-3.7500348E-2,-1.5790995E-2,-4.3801934E-2,-7.253333E-2,-1.6267074E-2,1.6551212E-3,-3.5012227E-2,-3.4692604E-3,5.3869677E-3,-2.0825204E-2,-4.7354564E-2,-2.3398535E-2,2.1554567E-2,2.135907E-3,-7.2955377E-3,4.5526554E-3,3.879104E-2,-4.108266E-2,-1.454801E-2,-3.4889065E-2,1.539164E-2,-1.6432736E-2,-4.596762E-3,1.2440789E-2,-1.450329E-3,-2.4651563E-2,-5.48489E-2,1.8875208E-2,1.9395966E-2,1.1612612E-3,1.0159568E-2,2.2248855E-2],"categories":[],"categories_nodes":[],"categories_segments":[],"categories_sizes":[],"default_left":[0,0,0,0,0,0,0,0,0,0,0,0,0,0,0,0,0,0,0,0,0,0,0,0,0,0,0,0,0,0,0,0,0,0,0,0,0,0,0,0,0,0,0,0,0,0,0,0,0,0,0,0,0,0,0,0,0,0,0,0,0,0,0],"id":9,"left_children":[1,3,5,7,9,11,13,15,17,19,21,23,25,27,29,31,33,35,37,39,41,43,45,47,49,51,53,55,57,59,61,-1,-1,-1,-1,-1,-1,-1,-1,-1,-1,-1,-1,-1,-1,-1,-1,-1,-1,-1,-1,-1,-1,-1,-1,-1,-1,-1,-1,-1,-1,-1,-1],"loss_changes":[3.2594434E2,1.5642241E2,1.6380942E2,8.341095E1,4.1889E1,6.9078125E1,9.1178406E1,3.975522E1,3.281978E1,4.5541153E0,2.9614853E1,1.0703941E1,4.4797993E1,1.9719997E1,4.921454E1,2.0219421E1,1.5083771E1,2.8480059E1,4.822297E1,2.9571743E0,1.8615437E0,1.5747112E1,8.568383E0,6.5000763E0,1.24423485E1,6.3250664E1,1.9200962E1,1.6670536E1,6.5857773E0,8.185942E1,2.859842E1,0E0,0E0,0E0,0E0,0E0,0E0,0E0,0E0,0E0,0E0,0E0,0E0,0E0,0E0,0E0,0E0,0E0,0E0,0E0,0E0,0E0,0E0,0E0,0E0,0E0,0E0,0E0,0E0,0E0,0E0,0E0,0E0],"parents":[2147483647,0,0,1,1,2,2,3,3,4,4,5,5,6,6,7,7,8,8,9,9,10,10,11,11,12,12,13,13,14,14,15,15,16,16,17,17,18,18,19,19,20,20,21,21,22,22,23,23,24,24,25,25,26,26,27,27,28,28,29,29,30,30],"right_children":[2,4,6,8,10,12,14,16,18,20,22,24,26,28,30,32,34,36,38,40,42,44,46,48,50,52,54,56,58,60,62,-1,-1,-1,-1,-1,-1,-1,-1,-1,-1,-1,-1,-1,-1,-1,-1,-1,-1,-1,-1,-1,-1,-1,-1,-1,-1,-1,-1,-1,-1,-1,-1],"split_conditions":[2E0,1.9E1,1.3E1,1.5E1,9E0,2E0,2E0,1.2E1,1.2E1,2.8E1,2.2E1,7E0,1.9E1,2.8E1,1.9E1,1E1,4E0,1E1,1.8E1,2E1,1E0,3E0,2E0,2E0,4E0,7E0,2E0,6E0,2E1,9E0,2E0,-3.7500348E-2,-1.5790995E-2,-4.3801934E-2,-7.253333E-2,-1.6267074E-2,1.6551212E-3,-3.5012227E-2,-3.4692604E-3,5.3869677E-3,-2.0825204E-2,-4.7354564E-2,-2.3398535E-2,2.1554567E-2,2.135907E-3,-7.2955377E-3,4.5526554E-3,3.879104E-2,-4.108266E-2,-1.454801E-2,-3.4889065E-2,1.539164E-2,-1.6432736E-2,-4.596762E-3,1.2440789E-2,-1.450329E-3,-2.4651563E-2,-5.48489E-2,1.8875208E-2,1.9395966E-2,1.1612612E-3,1.0159568E-2,2.2248855E-2],"split_indices":[3,4,5,5,5,1,1,4,4,0,4,5,4,4,4,5,7,4,4,4,1,7,1,4,7,4,2,7,0,4,2,0,0,0,0,0,0,0,0,0,0,0,0,0,0,0,0,0,0,0,0,0,0,0,0,0,0,0,0,0,0,0,0],"split_type":[0,0,0,0,0,0,0,0,0,0,0,0,0,0,0,0,0,0,0,0,0,0,0,0,0,0,0,0,0,0,0,0,0,0,0,0,0,0,0,0,0,0,0,0,0,0,0,0,0,0,0,0,0,0,0,0,0,0,0,0,0,0,0],"sum_hessian":[1.1954663E4,3.3592295E3,8.595434E3,2.132857E3,1.2263726E3,2.1645193E3,6.4309146E3,6.8758936E2,1.4452676E3,1.4961029E2,1.0767622E3,4.9867426E2,1.665845E3,1.613424E3,4.8174907E3,4.333655E2,2.5422383E2,9.0640576E2,5.388618E2,1.0869535E2,4.091494E1,4.469597E2,6.298025E2,8.694152E1,4.1173276E2,9.000654E2,7.6577954E2,1.4802257E3,1.3319821E2,2.620977E3,2.1965137E3,2.0953749E2,2.23828E2,1.89499E2,6.472484E1,5.2194476E2,3.8446103E2,3.547433E2,1.8411855E2,1.1678689E1,9.7016655E1,2.3268911E1,1.7646029E1,2.807065E2,1.6625317E2,3.7284708E2,2.5695544E2,1.8750497E0,8.506647E1,3.122102E2,9.952255E1,2.0000565E2,7.000598E2,2.405058E2,5.2527374E2,1.3992562E3,8.096948E1,2.15748E0,1.3104073E2,9.862761E2,1.6347008E3,7.406268E2,1.4558868E3],"tree_param":{"num_deleted":"0","num_feature":"8","num_nodes":"63","size_leaf_vector":"1"}},{"base_weights":[9.962184E-4,-1.5102346E-1,1.6554841E-1,-2.8979203E-1,9.449543E-2,2.284919E-1,-8.475192E-2,-5.893721E-1,-1.8540066E-1,-3.4277424E-1,1.5400033E-1,-3.5220783E-2,2.7381858E-1,-4.6358025E-1,6.2590925E-4,-9.6631277E-1,-5.080355E-1,-8.918731E-2,-3.9848813E-1,-3.8527298E-1,1.5413004E-1,6.557476E-1,1.0942638E-1,-5.432723E-1,3.1680923E-2,3.4143116E-2,3.088853E-1,-2.843443E-1,-6.6271603E-1,-2.2294179E-1,1.12830676E-1,-7.071074E-2,-4.2751264E-2,-2.0423237E-2,-4.152165E-2,-1.1716782E-2,1.2848646E-3,-3.282588E-2,6.748179E-4,-2.3938788E-2,-8.276055E-3,-4.4562146E-2,1.6445255E-2,1.1394216E-2,3.730467E-2,-4.108289E-3,9.871419E-3,3.882056E-2,-2.9288305E-2,-7.2290073E-3,8.358788E-3,-6.515294E-2,3.3419318E-3,9.776681E-3,1.8702528E-2,-3.1486753E-2,-5.8024665E-3,-3.7294436E-2,2.0422107E-2,-2.5783746E-2,-4.055684E-3,8.685025E-3,-1.372153E-2],"categories":[],"categories_nodes":[],"categories_segments":[],"categories_sizes":[],"default_left":[0,0,0,0,0,0,0,0,0,0,0,0,0,0,0,0,0,0,0,0,0,0,0,0,0,0,0,0,0,0,0,0,0,0,0,0,0,0,0,0,0,0,0,0,0,0,0,0,0,0,0,0,0,0,0,0,0,0,0,0,0,0,0],"id":10,"left_children":[1,3,5,7,9,11,13,15,17,19,21,23,25,27,29,31,33,35,37,39,41,43,45,47,49,51,53,55,57,59,61,-1,-1,-1,-1,-1,-1,-1,-1,-1,-1,-1,-1,-1,-1,-1,-1,-1,-1,-1,-1,-1,-1,-1,-1,-1,-1,-1,-1,-1,-1,-1,-1],"loss_changes":[2.988308E2,2.1158537E2,9.039711E1,1.2396637E2,5.8415623E1,5.4804306E1,3.7306385E1,3.0927765E1,6.0314827E1,5.7397614E0,4.4099754E1,2.2900095E1,3.286725E1,7.383442E0,2.3662823E1,7.8015594E0,2.678653E1,3.384468E1,9.7318146E1,5.018116E0,4.2956877E0,6.051285E0,3.0619688E1,4.8509274E0,1.4254318E1,2.196549E1,2.513321E1,6.5186834E0,9.190727E0,1.3045405E1,1.4852848E1,0E0,0E0,0E0,0E0,0E0,0E0,0E0,0E0,0E0,0E0,0E0,0E0,0E0,0E0,0E0,0E0,0E0,0E0,0E0,0E0,0E0,0E0,0E0,0E0,0E0,0E0,0E0,0E0,0E0,0E0,0E0,0E0],"parents":[2147483647,0,0,1,1,2,2,3,3,4,4,5,5,6,6,7,7,8,8,9,9,10,10,11,11,12,12,13,13,14,14,15,15,16,16,17,17,18,18,19,19,20,20,21,21,22,22,23,23,24,24,25,25,26,26,27,27,28,28,29,29,30,30],"right_children":[2,4,6,8,10,12,14,16,18,20,22,24,26,28,30,32,34,36,38,40,42,44,46,48,50,52,54,56,58,60,62,-1,-1,-1,-1,-1,-1,-1,-1,-1,-1,-1,-1,-1,-1,-1,-1,-1,-1,-1,-1,-1,-1,-1,-1,-1,-1,-1,-1,-1,-1,-1,-1],"split_conditions":[3E0,1.9E1,3E0,1.3E1,9E0,1E1,1.1E1,7E0,1.3E1,3.1E1,2E1,2E0,2E0,2E0,2E0,2.2E1,4E0,1E0,1.8E1,8E0,2E0,1E0,1E0,2E0,1.4E1,2E1,2E0,2E0,3.3E1,4E0,5E0,-7.071074E-2,-4.2751264E-2,-2.0423237E-2,-4.152165E-2,-1.1716782E-2,1.2848646E-3,-3.282588E-2,6.748179E-4,-2.3938788E-2,-8.276055E-3,-4.4562146E-2,1.6445255E-2,1.1394216E-2,3.730467E-2,-4.108289E-3,9.871419E-3,3.882056E-2,-2.9288305E-2,-7.2290073E-3,8.358788E-3,-6.515294E-2,3.3419318E-3,9.776681E-3,1.8702528E-2,-3.1486753E-2,-5.8024665E-3,-3.7294436E-2,2.0422107E-2,-2.5783746E-2,-4.055684E-3,8.685025E-3,-1.372153E-2],"split_indices":[3,4,7,5,5,5,5,5,4,4,4,1,1,6,2,0,7,1,4,5,2,1,1,4,4,0,2,2,4,3,7,0,0,0,0,0,0,0,0,0,0,0,0,0,0,0,0,0,0,0,0,0,0,0,0,0,0,0,0,0,0,0,0],"split_type":[0,0,0,0,0,0,0,0,0,0,0,0,0,0,0,0,0,0,0,0,0,0,0,0,0,0,0,0,0,0,0,0,0,0,0,0,0,0,0,0,0,0,0,0,0,0,0,0,0,0,0,0,0,0,0,0,0,0,0,0,0,0,0],"sum_hessian":[1.1943983E4,6.208455E3,5.7355283E3,3.9664285E3,2.2420264E3,4.5830957E3,1.1524325E3,1.02377496E3,2.9426536E3,2.6798526E2,1.9740411E3,6.722336E2,3.9108623E3,2.1114323E2,9.412893E2,1.7977208E2,8.440029E2,2.0282677E3,9.143858E2,2.4707806E2,2.0907183E1,1.5994185E2,1.8140992E3,7.739273E1,5.948409E2,4.9941495E2,3.4114473E3,1.1240177E2,9.874146E1,3.1421997E2,6.2706934E2,3.3447453E1,1.4632463E2,6.465778E2,1.974251E2,8.956453E2,1.1326223E3,5.618812E2,3.525046E2,1.7250133E2,7.457674E1,2.407565E0,1.8499619E1,2.849873E1,1.3144312E2,5.7100696E2,1.2430923E3,1.8755206E0,7.551721E1,2.584996E2,3.3634125E2,1.0992259E1,4.8842267E2,1.2467639E3,2.1646833E3,3.5927048E1,7.647473E1,9.190865E1,6.8328075E0,1.01691956E2,2.1252802E2,5.4237085E2,8.469851E1],"tree_param":{"num_deleted":"0","num_feature":"8","num_nodes":"63","size_leaf_vector":"1"}},{"base_weights":[1.0102383E-3,-2.3833035E-1,9.630969E-2,-3.8174778E-1,1.7313255E-2,-1.19931504E-1,1.704436E-1,-6.304657E-1,-2.6096284E-1,-2.4898142E-1,1.2491436E-1,6.768181E-2,-2.5691882E-1,7.700631E-2,3.013808E-1,-4.617369E-1,-9.1231126E-1,-1.5732594E-1,-4.3229404E-1,-5.09872E-1,-1.3211726E-1,2.979048E-1,3.288755E-3,-4.86588E-1,1.1201276E-1,-3.8750485E-1,-5.956826E-2,1.593393E-1,-1.8327649E-1,5.6132793E-1,2.4891539E-1,-3.5194468E-2,-1.5568691E-2,-6.08594E-2,-3.7577573E-2,-1.4966808E-2,1.8910442E-3,-3.0771568E-2,-3.3242486E-3,-1.3908577E-3,-2.754967E-2,-1.4631956E-2,4.1619106E-3,1.629488E-2,-3.3970553E-2,-6.0571604E-3,4.606576E-3,-1.6016277E-2,-4.749462E-2,-7.184257E-3,1.0533779E-2,1.6752455E-2,-2.1415647E-2,-2.1961447E-2,5.4605915E-3,2.9564679E-2,5.838129E-3,-1.5708297E-2,7.7612037E-3,2.1775967E-2,3.8135312E-2,6.881818E-3,1.9066697E-2],"categories":[],"categories_nodes":[],"categories_segments":[],"categories_sizes":[],"default_left":[0,0,0,0,0,0,0,0,0,0,0,0,0,0,0,0,0,0,0,0,0,0,0,0,0,0,0,0,0,0,0,0,0,0,0,0,0,0,0,0,0,0,0,0,0,0,0,0,0,0,0,0,0,0,0,0,0,0,0,0,0,0,0],"id":11,"left_children":[1,3,5,7,9,11,13,15,17,19,21,23,25,27,29,31,33,35,37,39,41,43,45,47,49,51,53,55,57,59,61,-1,-1,-1,-1,-1,-1,-1,-1,-1,-1,-1,-1,-1,-1,-1,-1,-1,-1,-1,-1,-1,-1,-1,-1,-1,-1,-1,-1,-1,-1,-1,-1],"loss_changes":[2.7224347E2,1.2463017E2,1.3687018E2,6.5252014E1,3.5061504E1,5.6045654E1,7.7758835E1,3.3395477E1,2.5988304E1,1.0669666E1,1.833301E1,2.2679882E1,3.245456E1,7.956492E1,3.5963394E1,1.6050484E1,1.208638E1,2.5394346E1,3.6973953E1,2.137371E0,8.478828E0,1.0062574E1,5.678602E0,4.963024E0,2.1560377E1,2.250035E1,3.2280502E1,5.1795822E1,3.958542E1,1.0910629E1,3.2430756E1,0E0,0E0,0E0,0E0,0E0,0E0,0E0,0E0,0E0,0E0,0E0,0E0,0E0,0E0,0E0,0E0,0E0,0E0,0E0,0E0,0E0,0E0,0E0,0E0,0E0,0E0,0E0,0E0,0E0,0E0,0E0,0E0],"parents":[2147483647,0,0,1,1,2,2,3,3,4,4,5,5,6,6,7,7,8,8,9,9,10,10,11,11,12,12,13,13,14,14,15,15,16,16,17,17,18,18,19,19,20,20,21,21,22,22,23,23,24,24,25,25,26,26,27,27,28,28,29,29,30,30],"right_children":[2,4,6,8,10,12,14,16,18,20,22,24,26,28,30,32,34,36,38,40,42,44,46,48,50,52,54,56,58,60,62,-1,-1,-1,-1,-1,-1,-1,-1,-1,-1,-1,-1,-1,-1,-1,-1,-1,-1,-1,-1,-1,-1,-1,-1,-1,-1,-1,-1,-1,-1,-1,-1],"split_conditions":[2E0,1.9E1,1.3E1,1.5E1,1.4E1,2E0,1.9E1,1.2E1,1.2E1,8E0,2.2E1,1E0,1.9E1,1.2E1,2.2E1,9E0,1.6E1,1E1,1.8E1,2E1,2E0,3.9E1,1E0,2.3E1,3E0,3E0,2E0,3E0,1.8E1,2.1E1,2.8E1,-3.5194468E-2,-1.5568691E-2,-6.08594E-2,-3.7577573E-2,-1.4966808E-2,1.8910442E-3,-3.0771568E-2,-3.3242486E-3,-1.3908577E-3,-2.754967E-2,-1.4631956E-2,4.1619106E-3,1.629488E-2,-3.3970553E-2,-6.0571604E-3,4.606576E-3,-1.6016277E-2,-4.749462E-2,-7.184257E-3,1.0533779E-2,1.6752455E-2,-2.1415647E-2,-2.1961447E-2,5.4605915E-3,2.9564679E-2,5.838129E-3,-1.5708297E-2,7.7612037E-3,2.1775967E-2,3.8135312E-2,6.881818E-3,1.9066697E-2],"split_indices":[3,4,5,5,5,7,4,4,4,5,4,1,4,4,4,5,4,4,4,4,1,0,1,4,3,4,2,4,4,4,4,0,0,0,0,0,0,0,0,0,0,0,0,0,0,0,0,0,0,0,0,0,0,0,0,0,0,0,0,0,0,0,0],"split_type":[0,0,0,0,0,0,0,0,0,0,0,0,0,0,0,0,0,0,0,0,0,0,0,0,0,0,0,0,0,0,0,0,0,0,0,0,0,0,0,0,0,0,0,0,0,0,0,0,0,0,0,0,0,0,0,0,0,0,0,0,0,0,0],"sum_hessian":[1.19337705E4,3.3980955E3,8.535675E3,2.1765474E3,1.2215481E3,2.1790334E3,6.3566416E3,7.101013E2,1.466446E3,3.5116348E2,8.703846E2,9.1980493E2,1.2592286E3,3.7104436E3,2.646198E3,4.4583646E2,2.6426486E2,9.149301E2,5.515159E2,1.0759737E2,2.4356613E2,3.5872037E2,5.116642E2,6.737973E1,8.524252E2,7.5721747E2,5.0201117E2,2.8190925E3,8.9135114E2,4.4276395E2,2.203434E3,1.693788E2,2.7645767E2,8.896796E1,1.7529689E2,5.292534E2,3.8567673E2,3.6706662E2,1.8444928E2,8.588863E0,9.900851E1,1.3934337E2,1.04222755E2,3.493798E2,9.340576E0,2.129899E2,2.9867432E2,5.0830112E1,1.654962E1,2.3720929E2,6.152159E2,4.0094162E1,7.171233E2,1.5399849E2,3.480127E2,2.517833E2,2.5673093E3,6.4284955E2,2.4850156E2,2.744607E2,1.6830327E2,1.1983937E3,1.0050404E3],"tree_param":{"num_deleted":"0","num_feature":"8","num_nodes":"63","size_leaf_vector":"1"}},{"base_weights":[1.0293511E-3,-1.9575265E-1,1.09744795E-1,-4.1873235E-1,-9.356061E-2,-3.200586E-1,1.4883861E-1,-5.975644E-1,-3.1302306E-1,-1.8640402E-1,1.0077326E-1,-5.352737E-1,-1.608622E-1,4.1703913E-2,2.8400117E-1,-7.5660807E-1,-4.9897894E-1,-2.2083582E-1,-5.451469E-1,-1.0730704E-1,-5.042063E-1,-1.3723176E-2,2.7526006E-1,-6.795756E-1,-3.1044286E-1,6.680529E-2,-3.5075963E-1,4.1961524E-1,-5.1240537E-2,4.8401192E-1,2.3347415E-1,-5.644632E-2,-3.473323E-2,-3.061361E-2,-1.4823504E-2,-1.8198414E-2,-7.4706686E-4,3.0012643E-2,-2.8390763E-2,-1.0666631E-2,-1.1529586E-3,-3.2288194E-2,-9.55032E-3,-2.0538611E-2,1.6156512E-3,4.116601E-2,1.113967E-2,-5.505964E-2,-2.9171204E-2,1.5639393E-2,-1.891066E-2,-6.047552E-3,1.2784525E-2,-2.1051964E-2,9.962537E-3,2.9645905E-2,1.6855469E-2,2.671573E-3,-1.0723838E-2,2.5835553E-2,-9.843401E-3,8.799582E-3,2.083749E-2],"categories":[],"categories_nodes":[],"categories_segments":[],"categories_sizes":[],"default_left":[0,0,0,0,0,0,0,0,0,0,0,0,0,0,0,0,0,0,0,0,0,0,0,0,0,0,0,0,0,0,0,0,0,0,0,0,0,0,0,0,0,0,0,0,0,0,0,0,0,0,0,0,0,0,0,0,0,0,0,0,0,0,0],"id":12,"left_children":[1,3,5,7,9,11,13,15,17,19,21,23,25,27,29,31,33,35,37,39,41,43,45,47,49,51,53,55,57,59,61,-1,-1,-1,-1,-1,-1,-1,-1,-1,-1,-1,-1,-1,-1,-1,-1,-1,-1,-1,-1,-1,-1,-1,-1,-1,-1,-1,-1,-1,-1,-1,-1],"loss_changes":[2.5511143E2,9.665929E1,1.291127E2,2.5019089E1,5.254564E1,2.186631E1,1.0195326E2,7.3720703E0,1.7856941E1,4.94766E1,1.8820187E1,8.613792E0,1.600806E1,1.3803319E2,3.134996E1,3.5330353E0,6.8862E0,1.7764574E1,6.5235596E0,1.4099443E1,1.7274391E1,1.0425476E1,1.0548264E1,6.039627E0,4.6871643E0,6.0237885E0,7.8822765E0,1.0891602E1,5.3909653E1,1.406012E1,2.613144E1,0E0,0E0,0E0,0E0,0E0,0E0,0E0,0E0,0E0,0E0,0E0,0E0,0E0,0E0,0E0,0E0,0E0,0E0,0E0,0E0,0E0,0E0,0E0,0E0,0E0,0E0,0E0,0E0,0E0,0E0,0E0,0E0],"parents":[2147483647,0,0,1,1,2,2,3,3,4,4,5,5,6,6,7,7,8,8,9,9,10,10,11,11,12,12,13,13,14,14,15,15,16,16,17,17,18,18,19,19,20,20,21,21,22,22,23,23,24,24,25,25,26,26,27,27,28,28,29,29,30,30],"right_children":[2,4,6,8,10,12,14,16,18,20,22,24,26,28,30,32,34,36,38,40,42,44,46,48,50,52,54,56,58,60,62,-1,-1,-1,-1,-1,-1,-1,-1,-1,-1,-1,-1,-1,-1,-1,-1,-1,-1,-1,-1,-1,-1,-1,-1,-1,-1,-1,-1,-1,-1,-1,-1],"split_conditions":[2E0,1.5E1,8E0,9E0,1.9E1,3E0,1.9E1,7E0,4E0,1.3E1,1E0,1.9E1,2E0,7E0,2.2E1,2.2E1,1.8E1,2.6E1,3E0,2E0,1.8E1,2E0,2E1,2.1E1,2E1,1.7E1,3.3E1,3E0,1.2E1,4E0,3.3E1,-5.644632E-2,-3.473323E-2,-3.061361E-2,-1.4823504E-2,-1.8198414E-2,-7.4706686E-4,3.0012643E-2,-2.8390763E-2,-1.0666631E-2,-1.1529586E-3,-3.2288194E-2,-9.55032E-3,-2.0538611E-2,1.6156512E-3,4.116601E-2,1.113967E-2,-5.505964E-2,-2.9171204E-2,1.5639393E-2,-1.891066E-2,-6.047552E-3,1.2784525E-2,-2.1051964E-2,9.962537E-3,2.9645905E-2,1.6855469E-2,2.671573E-3,-1.0723838E-2,2.5835553E-2,-9.843401E-3,8.799582E-3,2.083749E-2],"split_indices":[1,5,5,5,4,3,4,5,7,4,1,4,7,4,4,0,4,0,4,3,4,2,4,0,4,4,4,4,4,7,4,0,0,0,0,0,0,0,0,0,0,0,0,0,0,0,0,0,0,0,0,0,0,0,0,0,0,0,0,0,0,0,0],"split_type":[0,0,0,0,0,0,0,0,0,0,0,0,0,0,0,0,0,0,0,0,0,0,0,0,0,0,0,0,0,0,0,0,0,0,0,0,0,0,0,0,0,0,0,0,0,0,0,0,0,0,0,0,0,0,0,0,0,0,0,0,0,0,0],"sum_hessian":[1.1922856E4,4.2426265E3,7.6802295E3,1.332361E3,2.9102656E3,6.39732E2,7.0404976E3,4.932537E2,8.3910724E2,1.9694146E3,9.40851E2,2.7100388E2,3.6872812E2,3.9281853E3,3.1123125E3,1.8619641E2,3.0705728E2,6.01983E2,2.3712427E2,1.5780063E3,3.9140817E2,5.68638E2,3.72213E2,1.6383069E2,1.071732E2,1.6798251E2,2.0074559E2,7.747093E2,3.1534758E3,6.25943E2,2.4863694E3,2.4102232E1,1.6209418E2,1.9560368E2,1.11453606E2,3.546629E2,2.4732008E2,4.1073165E0,2.3301695E2,6.980196E2,8.7998676E2,2.6883878E2,1.22569405E2,5.8257854E1,5.1038016E2,3.1235775E1,3.4097723E2,2.8482851E1,1.3534784E2,1.0156492E1,9.701671E1,8.442336E1,8.355915E1,1.7820877E2,2.2536812E1,2.478714E2,5.268379E2,1.9218197E3,1.2316562E3,5.9748975E2,2.8453243E1,1.8942253E3,5.921441E2],"tree_param":{"num_deleted":"0","num_feature":"8","num_nodes":"63","size_leaf_vector":"1"}},{"base_weights":[1.0407238E-3,-1.3180028E-1,1.482076E-1,-2.4787529E-1,8.0209956E-2,2.0723185E-1,-8.213136E-2,-4.6337575E-1,-1.4234875E-1,-2.9110906E-1,1.3293731E-1,-3.119104E-2,2.4916947E-1,-4.0166414E-1,-7.550973E-3,-3.5654804E-1,-6.9199294E-1,-6.3071646E-2,-3.1254154E-1,-3.2927433E-1,1.6351709E-1,6.204492E-1,9.11234E-2,-4.6185333E-1,2.7753875E-2,2.887626E-2,2.820771E-1,-4.5701554E-1,1.3692184E-1,-2.1807508E-1,9.9496566E-2,-3.3872824E-2,-1.4965867E-2,-4.4949483E-2,-1.9089153E-2,-9.843236E-3,2.2436492E-3,-2.6080644E-2,2.0608956E-3,-1.2280416E-2,-2.557435E-2,-4.033344E-2,1.652201E-2,1.0680801E-2,3.551766E-2,-3.8313947E-3,8.510231E-3,3.858333E-2,-2.502203E-2,-6.5556127E-3,7.6140584E-3,-5.9413876E-2,3.001346E-3,8.589214E-3,1.7299492E-2,-3.6281165E-2,-1.6181683E-2,3.8159322E-2,-8.135248E-3,-2.430032E-2,-4.293631E-3,7.843267E-3,-1.2861966E-2],"categories":[],"categories_nodes":[],"categories_segments":[],"categories_sizes":[],"default_left":[0,0,0,0,0,0,0,0,0,0,0,0,0,0,0,0,0,0,0,0,0,0,0,0,0,0,0,0,0,0,0,0,0,0,0,0,0,0,0,0,0,0,0,0,0,0,0,0,0,0,0,0,0,0,0,0,0,0,0,0,0,0,0],"id":13,"left_children":[1,3,5,7,9,11,13,15,17,19,21,23,25,27,29,31,33,35,37,39,41,43,45,47,49,51,53,55,57,59,61,-1,-1,-1,-1,-1,-1,-1,-1,-1,-1,-1,-1,-1,-1,-1,-1,-1,-1,-1,-1,-1,-1,-1,-1,-1,-1,-1,-1,-1,-1,-1,-1],"loss_changes":[2.3290855E2,1.5411142E2,7.685973E1,9.19556E1,4.3426388E1,4.4996933E1,2.7488674E1,3.222818E1,3.6649876E1,4.840395E0,3.9514446E1,1.7120827E1,2.7731308E1,6.5700264E0,2.1122921E1,1.6478935E1,2.6780258E1,2.6804714E1,6.38805E1,3.7593174E0,3.8347707E0,5.4506836E0,2.3746273E1,4.250807E0,1.1766012E1,1.8969336E1,2.340747E1,6.8652306E0,4.0858383E0,1.1148984E1,1.2757559E1,0E0,0E0,0E0,0E0,0E0,0E0,0E0,0E0,0E0,0E0,0E0,0E0,0E0,0E0,0E0,0E0,0E0,0E0,0E0,0E0,0E0,0E0,0E0,0E0,0E0,0E0,0E0,0E0,0E0,0E0,0E0,0E0],"parents":[2147483647,0,0,1,1,2,2,3,3,4,4,5,5,6,6,7,7,8,8,9,9,10,10,11,11,12,12,13,13,14,14,15,15,16,16,17,17,18,18,19,19,20,20,21,21,22,22,23,23,24,24,25,25,26,26,27,27,28,28,29,29,30,30],"right_children":[2,4,6,8,10,12,14,16,18,20,22,24,26,28,30,32,34,36,38,40,42,44,46,48,50,52,54,56,58,60,62,-1,-1,-1,-1,-1,-1,-1,-1,-1,-1,-1,-1,-1,-1,-1,-1,-1,-1,-1,-1,-1,-1,-1,-1,-1,-1,-1,-1,-1,-1,-1,-1],"split_conditions":[3E0,1.9E1,3E0,1.5E1,9E0,1E1,1.1E1,1.3E1,1.3E1,3.1E1,2E1,2E0,2E0,3E0,2E0,7E0,1.8E1,1E0,1.8E1,3E0,2E0,1E0,1E0,2E0,1.4E1,2E1,2E0,2E0,2.9E1,4E0,5E0,-3.3872824E-2,-1.4965867E-2,-4.4949483E-2,-1.9089153E-2,-9.843236E-3,2.2436492E-3,-2.6080644E-2,2.0608956E-3,-1.2280416E-2,-2.557435E-2,-4.033344E-2,1.652201E-2,1.0680801E-2,3.551766E-2,-3.8313947E-3,8.510231E-3,3.858333E-2,-2.502203E-2,-6.5556127E-3,7.6140584E-3,-5.9413876E-2,3.001346E-3,8.589214E-3,1.7299492E-2,-3.6281165E-2,-1.6181683E-2,3.8159322E-2,-8.135248E-3,-2.430032E-2,-4.293631E-3,7.843267E-3,-1.2861966E-2],"split_indices":[3,4,7,5,5,5,5,4,4,4,4,1,1,1,2,5,4,1,4,7,2,1,1,4,4,0,2,2,0,3,7,0,0,0,0,0,0,0,0,0,0,0,0,0,0,0,0,0,0,0,0,0,0,0,0,0,0,0,0,0,0,0,0],"split_type":[0,0,0,0,0,0,0,0,0,0,0,0,0,0,0,0,0,0,0,0,0,0,0,0,0,0,0,0,0,0,0,0,0,0,0,0,0,0,0,0,0,0,0,0,0,0,0,0,0,0,0,0,0,0,0,0,0,0,0,0,0,0,0],"sum_hessian":[1.1911605E4,6.260571E3,5.6510347E3,4.0455012E3,2.2150696E3,4.4984175E3,1.1526171E3,1.328704E3,2.7167974E3,2.7486707E2,1.9402026E3,6.729323E2,3.8254854E3,2.172867E2,9.353304E2,9.073017E2,4.2140225E2,1.8543823E3,8.62415E2,2.5383377E2,2.1033298E1,1.5217249E2,1.7880302E3,8.019292E1,5.927394E2,4.97429E2,3.3280564E3,1.9717422E2,2.0112473E1,3.1493298E2,6.203974E2,1.3567839E2,7.716233E2,2.5161E2,1.6979225E2,8.2768097E2,1.0267014E3,5.4176074E2,3.2065427E2,1.7556711E2,7.826666E1,2.5249984E0,1.8508299E1,2.815258E1,1.24019905E2,5.7286633E2,1.2151638E3,1.8562474E0,7.833667E1,2.604353E2,3.3230408E2,1.1486073E1,4.859429E2,1.2223542E3,2.1057021E3,6.394998E1,1.3322424E2,6.007914E0,1.4104559E1,1.0316829E2,2.117647E2,5.349321E2,8.546528E1],"tree_param":{"num_deleted":"0","num_feature":"8","num_nodes":"63","size_leaf_vector":"1"}},{"base_weights":[1.0412692E-3,5.5767458E-2,-3.3017895E-1,-3.6233762E-1,9.430133E-2,-5.553249E-1,-2.3649664E-1,-4.739051E-1,-9.251516E-2,-2.4919775E-3,2.2903046E-1,-1.819135E-1,-6.0266304E-1,-3.0593282E-1,-3.7453216E-2,-5.2548146E-1,3.8411142E-3,-4.4123307E-3,-5.985218E-1,2.213635E-1,-1.0049141E-1,-2.9586283E-2,2.719529E-1,-3.5213777E-1,2.5002986E-1,-6.6235447E-1,-4.381173E-1,-1.6491185E-1,-6.5077233E-1,5.2331284E-2,-3.5856587E-1,-3.297667E-2,-1.8752312E-2,1.1006482E-2,-8.930578E-3,4.006592E-2,-2.339743E-3,-5.310576E-2,-3.8645839E-4,2.603686E-3,1.8073201E-2,-1.209393E-2,-1.2854156E-3,-1.0326754E-2,7.123136E-3,2.4412405E-2,1.0753184E-2,1.269847E-3,-3.1599484E-2,1.8877156E-2,-2.0880064E-2,-2.549459E-2,-4.4904556E-2,-3.214491E-2,-9.147574E-3,-1.3575042E-2,1.7950301E-3,-5.734166E-2,-2.4726396E-2,1.012557E-2,-5.9740236E-3,-2.8446842E-2,2.0948134E-2],"categories":[],"categories_nodes":[],"categories_segments":[],"categories_sizes":[],"default_left":[0,0,0,0,0,0,0,0,0,0,0,0,0,0,0,0,0,0,0,0,0,0,0,0,0,0,0,0,0,0,0,0,0,0,0,0,0,0,0,0,0,0,0,0,0,0,0,0,0,0,0,0,0,0,0,0,0,0,0,0,0,0,0],"id":14,"left_children":[1,3,5,7,9,11,13,15,17,19,21,23,25,27,29,31,33,35,37,39,41,43,45,47,49,51,53,55,57,59,61,-1,-1,-1,-1,-1,-1,-1,-1,-1,-1,-1,-1,-1,-1,-1,-1,-1,-1,-1,-1,-1,-1,-1,-1,-1,-1,-1,-1,-1,-1,-1,-1],"loss_changes":[2.1574901E2,1.6460541E2,3.546675E1,2.5910797E1,1.21978714E2,8.643311E0,1.6484596E1,1.5025955E1,1.1296578E1,1.19452354E2,4.341603E1,4.289657E0,4.021927E0,4.291712E1,8.951409E0,1.085054E1,2.4229913E0,7.4436216E0,1.0284085E1,3.9303406E1,4.0036392E1,1.7002953E1,4.116469E1,4.3906617E0,1.5826392E0,1.1050613E1,6.1434555E0,1.3479151E1,1.9309906E1,6.294279E0,1.1332866E1,0E0,0E0,0E0,0E0,0E0,0E0,0E0,0E0,0E0,0E0,0E0,0E0,0E0,0E0,0E0,0E0,0E0,0E0,0E0,0E0,0E0,0E0,0E0,0E0,0E0,0E0,0E0,0E0,0E0,0E0,0E0,0E0],"parents":[2147483647,0,0,1,1,2,2,3,3,4,4,5,5,6,6,7,7,8,8,9,9,10,10,11,11,12,12,13,13,14,14,15,15,16,16,17,17,18,18,19,19,20,20,21,21,22,22,23,23,24,24,25,25,26,26,27,27,28,28,29,29,30,30],"right_children":[2,4,6,8,10,12,14,16,18,20,22,24,26,28,30,32,34,36,38,40,42,44,46,48,50,52,54,56,58,60,62,-1,-1,-1,-1,-1,-1,-1,-1,-1,-1,-1,-1,-1,-1,-1,-1,-1,-1,-1,-1,-1,-1,-1,-1,-1,-1,-1,-1,-1,-1,-1,-1],"split_conditions":[4E0,8E0,1.4E1,4E0,1.9E1,9E0,1.9E1,2.8E1,3E0,9E0,1E0,1.2E1,2E1,1.3E1,2.7E1,7E0,7E0,3E0,1.1E1,4E0,2E0,2.6E1,2.2E1,8E0,6E0,1.2E1,3.1E1,1E1,1.5E1,2E0,3.3E1,-3.297667E-2,-1.8752312E-2,1.1006482E-2,-8.930578E-3,4.006592E-2,-2.339743E-3,-5.310576E-2,-3.8645839E-4,2.603686E-3,1.8073201E-2,-1.209393E-2,-1.2854156E-3,-1.0326754E-2,7.123136E-3,2.4412405E-2,1.0753184E-2,1.269847E-3,-3.1599484E-2,1.8877156E-2,-2.0880064E-2,-2.549459E-2,-4.4904556E-2,-3.214491E-2,-9.147574E-3,-1.3575042E-2,1.7950301E-3,-5.734166E-2,-2.4726396E-2,1.012557E-2,-5.9740236E-3,-2.8446842E-2,2.0948134E-2],"split_indices":[7,5,5,3,4,4,4,4,7,4,1,5,4,4,4,5,5,4,4,3,3,0,4,5,7,4,0,4,4,6,4,0,0,0,0,0,0,0,0,0,0,0,0,0,0,0,0,0,0,0,0,0,0,0,0,0,0,0,0,0,0,0,0],"split_type":[0,0,0,0,0,0,0,0,0,0,0,0,0,0,0,0,0,0,0,0,0,0,0,0,0,0,0,0,0,0,0,0,0,0,0,0,0,0,0,0,0,0,0,0,0,0,0,0,0,0,0,0,0,0,0,0,0,0,0,0,0,0,0],"sum_hessian":[1.1900443E4,1.0213705E4,1.6867379E3,8.611833E2,9.352522E3,4.9417163E2,1.1925663E3,6.087274E2,2.5245586E2,5.443055E3,3.909467E3,5.6143612E1,4.38028E2,8.837379E2,3.0882843E2,5.493238E2,5.9403637E1,2.1587732E2,3.6578537E1,1.6569359E3,3.7861191E3,5.565353E2,3.352932E3,4.0405136E1,1.5738476E1,3.1920587E2,1.1882212E2,6.282822E2,2.5545567E2,2.4200093E2,6.6827484E1,2.8868988E2,2.606339E2,2.7086931E1,3.2316708E1,9.893126E0,2.0598419E2,2.0048643E1,1.6529894E1,7.509277E2,9.0600824E2,1.3090175E3,2.4771018E3,2.7426202E2,2.8227322E2,6.966515E2,2.6562803E3,1.7587685E1,2.281745E1,1.35794E1,2.1590748E0,1.9576067E2,1.2344522E2,6.507626E1,5.374586E1,4.1020047E2,2.1808179E2,5.9669823E1,1.9578586E2,1.2903401E2,1.1296692E2,5.2807873E1,1.4019614E1],"tree_param":{"num_deleted":"0","num_feature":"8","num_nodes":"63","size_leaf_vector":"1"}},{"base_weights":[1.0371348E-3,-2.0031148E-1,8.353717E-2,-3.113935E-1,6.1047813E-3,-1.0085457E-1,1.48472E-1,-5.0248796E-1,-2.0415418E-1,-2.1501023E-1,9.882944E-2,6.387844E-2,-2.1832511E-1,-1.906348E-2,2.0690826E-1,-3.6153212E-1,-7.3527807E-1,-1.314701E-1,-3.903205E-1,-4.008892E-1,-1.2763937E-1,2.585702E-1,-1.0464128E-2,-4.046665E-1,1.0311456E-1,-2.5687698E-1,2.194308E-1,-3.916695E-2,4.6908763E-1,2.4799004E-1,1.2983018E-2,-2.654386E-2,-1.1037375E-2,-5.1785734E-2,-2.8644595E-2,-4.879446E-2,-5.9135593E-3,-1.1215843E-2,-3.604684E-2,-1.55711565E-2,-3.1118412E-2,-1.2578453E-2,2.366549E-3,1.4088119E-2,-4.053776E-2,1.872293E-3,-1.1929753E-2,-1.2630239E-2,-4.11907E-2,-5.4334467E-3,9.390808E-3,-2.5698949E-2,-1.00482525E-2,2.931957E-2,-9.380015E-4,2.2100465E-2,-2.8893163E-3,1.3251677E-2,3.447799E-2,8.553542E-3,1.6064795E-2,-1.2015114E-2,5.15861E-3],"categories":[],"categories_nodes":[],"categories_segments":[],"categories_sizes":[],"default_left":[0,0,0,0,0,0,0,0,0,0,0,0,0,0,0,0,0,0,0,0,0,0,0,0,0,0,0,0,0,0,0,0,0,0,0,0,0,0,0,0,0,0,0,0,0,0,0,0,0,0,0,0,0,0,0,0,0,0,0,0,0,0,0],"id":15,"left_children":[1,3,5,7,9,11,13,15,17,19,21,23,25,27,29,31,33,35,37,39,41,43,45,47,49,51,53,55,57,59,61,-1,-1,-1,-1,-1,-1,-1,-1,-1,-1,-1,-1,-1,-1,-1,-1,-1,-1,-1,-1,-1,-1,-1,-1,-1,-1,-1,-1,-1,-1,-1,-1],"loss_changes":[1.9753685E2,7.925215E1,1.0101604E2,4.594655E1,2.4834337E1,4.253884E1,6.108365E1,2.6216125E1,1.9447712E1,5.7609425E0,1.490101E1,1.687252E1,2.1708752E1,1.5860291E1,3.6848022E1,1.1914177E1,1.4208939E1,1.1452419E1,2.2018173E1,2.0643578E0,5.322669E0,8.826775E0,5.5573354E0,4.313671E0,1.5188651E1,1.6853828E1,9.1348915E0,1.3924527E1,2.693285E0,2.1467316E1,1.8520367E1,0E0,0E0,0E0,0E0,0E0,0E0,0E0,0E0,0E0,0E0,0E0,0E0,0E0,0E0,0E0,0E0,0E0,0E0,0E0,0E0,0E0,0E0,0E0,0E0,0E0,0E0,0E0,0E0,0E0,0E0,0E0,0E0],"parents":[2147483647,0,0,1,1,2,2,3,3,4,4,5,5,6,6,7,7,8,8,9,9,10,10,11,11,12,12,13,13,14,14,15,15,16,16,17,17,18,18,19,19,20,20,21,21,22,22,23,23,24,24,25,25,26,26,27,27,28,28,29,29,30,30],"right_children":[2,4,6,8,10,12,14,16,18,20,22,24,26,28,30,32,34,36,38,40,42,44,46,48,50,52,54,56,58,60,62,-1,-1,-1,-1,-1,-1,-1,-1,-1,-1,-1,-1,-1,-1,-1,-1,-1,-1,-1,-1,-1,-1,-1,-1,-1,-1,-1,-1,-1,-1,-1,-1],"split_conditions":[2E0,1.9E1,1.3E1,1.6E1,1.4E1,2E0,2E0,1.2E1,4E0,8E0,2.2E1,1E0,3.3E1,3.1E1,3E0,1E1,1.6E1,1.9E1,1.3E1,2.8E1,2E0,4E1,3.2E1,2.3E1,3E0,7E0,3.4E1,3E0,2E0,1.8E1,2E0,-2.654386E-2,-1.1037375E-2,-5.1785734E-2,-2.8644595E-2,-4.879446E-2,-5.9135593E-3,-1.1215843E-2,-3.604684E-2,-1.55711565E-2,-3.1118412E-2,-1.2578453E-2,2.366549E-3,1.4088119E-2,-4.053776E-2,1.872293E-3,-1.1929753E-2,-1.2630239E-2,-4.11907E-2,-5.4334467E-3,9.390808E-3,-2.5698949E-2,-1.00482525E-2,2.931957E-2,-9.380015E-4,2.2100465E-2,-2.8893163E-3,1.3251677E-2,3.447799E-2,8.553542E-3,1.6064795E-2,-1.2015114E-2,5.15861E-3],"split_indices":[3,4,5,5,5,7,1,4,7,5,4,1,4,4,7,5,4,0,4,0,1,0,5,4,3,5,4,4,6,4,2,0,0,0,0,0,0,0,0,0,0,0,0,0,0,0,0,0,0,0,0,0,0,0,0,0,0,0,0,0,0,0,0],"split_type":[0,0,0,0,0,0,0,0,0,0,0,0,0,0,0,0,0,0,0,0,0,0,0,0,0,0,0,0,0,0,0,0,0,0,0,0,0,0,0,0,0,0,0,0,0,0,0,0,0,0,0,0,0,0,0,0,0,0,0,0,0,0,0],"sum_hessian":[1.1889732E4,3.4553115E3,8.434421E3,2.246083E3,1.2092285E3,2.196524E3,6.237897E3,8.060542E2,1.4400287E3,3.5687973E2,8.5234875E2,9.145188E2,1.2820051E3,1.6132932E3,4.6246035E3,5.0364636E2,3.0240787E2,1.036902E3,4.0312674E2,1.129639E2,2.4391583E2,3.457067E2,5.066421E2,6.9944984E1,8.445738E2,1.1786207E3,1.0338441E2,1.5503645E3,6.2928715E1,3.8159421E3,8.086613E2,2.2737451E2,2.7627185E2,1.0421599E2,1.9819186E2,1.4835603E1,1.0220664E3,2.694922E2,1.3363455E2,8.217539E1,3.078851E1,1.4252737E2,1.0138846E2,3.390888E2,6.61787E0,4.1939948E2,8.724261E1,5.250093E1,1.7444052E1,2.4120197E2,6.033718E2,2.09067E2,9.695537E2,4.011726E1,6.3267143E1,5.6910114E1,1.4934543E3,3.382485E1,2.9103868E1,1.8637054E3,1.9522368E3,2.1190045E2,5.9676086E2],"tree_param":{"num_deleted":"0","num_feature":"8","num_nodes":"63","size_leaf_vector":"1"}},{"base_weights":[1.017689E-3,8.2542196E-2,-1.8532388E-1,-2.1961077E-1,1.2481785E-1,-3.8116404E-1,-1.0401977E-1,-3.4263346E-1,5.6647006E-2,-1.3293058E-1,1.6996494E-1,-4.0162426E-1,3.4196448E-1,-1.9095565E-1,8.816223E-2,-4.843624E-1,-1.4279284E-1,6.7859644E-1,2.2207163E-2,-7.334703E-1,-1.0780652E-1,8.313933E-2,2.79671E-1,-6.4493054E-1,-3.5524786E-1,1.9068421E-1,7.5234836E-1,-9.641073E-2,-4.6888727E-1,5.4758877E-2,4.1298357E-1,-1.7438937E-2,-3.1349078E-2,1.7490698E-2,-9.438668E-3,4.399435E-2,-1.9027166E-2,-9.374408E-3,7.5646676E-3,-2.7877375E-2,-7.610949E-2,-6.7209066E-3,1.1433382E-2,1.938939E-2,4.3366654E-4,2.473245E-2,1.1188646E-2,-5.87686E-2,-2.7663806E-2,-1.1215087E-2,-2.4703333E-2,-3.482121E-2,1.7403066E-2,4.8537564E-2,-6.779721E-4,-8.459298E-3,2.6776025E-3,-3.312525E-2,-1.7994002E-2,2.8096253E-2,1.4932377E-3,9.508962E-4,2.7945397E-2],"categories":[],"categories_nodes":[],"categories_segments":[],"categories_sizes":[],"default_left":[0,0,0,0,0,0,0,0,0,0,0,0,0,0,0,0,0,0,0,0,0,0,0,0,0,0,0,0,0,0,0,0,0,0,0,0,0,0,0,0,0,0,0,0,0,0,0,0,0,0,0,0,0,0,0,0,0,0,0,0,0,0,0],"id":16,"left_children":[1,3,5,7,9,11,13,15,17,19,21,23,25,27,29,31,33,35,37,39,41,43,45,47,49,51,53,55,57,59,61,-1,-1,-1,-1,-1,-1,-1,-1,-1,-1,-1,-1,-1,-1,-1,-1,-1,-1,-1,-1,-1,-1,-1,-1,-1,-1,-1,-1,-1,-1,-1,-1],"loss_changes":[1.8049416E2,1.0560553E2,5.753749E1,3.4510162E1,8.440431E1,1.5827057E1,4.2731514E1,1.9822441E1,6.701021E0,1.6237032E1,5.8757477E1,1.1412567E1,1.7015734E0,4.6218933E1,8.62476E0,7.7186584E0,6.698717E0,3.8349528E0,8.098321E0,5.1526947E0,9.335356E0,7.817583E1,3.2645676E1,7.3203583E0,1.5681679E1,3.460949E0,1.2953467E0,1.4360328E1,9.18821E0,9.121788E0,4.252968E0,0E0,0E0,0E0,0E0,0E0,0E0,0E0,0E0,0E0,0E0,0E0,0E0,0E0,0E0,0E0,0E0,0E0,0E0,0E0,0E0,0E0,0E0,0E0,0E0,0E0,0E0,0E0,0E0,0E0,0E0,0E0,0E0],"parents":[2147483647,0,0,1,1,2,2,3,3,4,4,5,5,6,6,7,7,8,8,9,9,10,10,11,11,12,12,13,13,14,14,15,15,16,16,17,17,18,18,19,19,20,20,21,21,22,22,23,23,24,24,25,25,26,26,27,27,28,28,29,29,30,30],"right_children":[2,4,6,8,10,12,14,16,18,20,22,24,26,28,30,32,34,36,38,40,42,44,46,48,50,52,54,56,58,60,62,-1,-1,-1,-1,-1,-1,-1,-1,-1,-1,-1,-1,-1,-1,-1,-1,-1,-1,-1,-1,-1,-1,-1,-1,-1,-1,-1,-1,-1,-1,-1,-1],"split_conditions":[3E0,9E0,1.4E1,4E0,1E0,3.3E1,1.9E1,1.9E1,3E0,2E1,1.9E1,7E0,1.2E1,1.3E1,3.3E1,2E0,2E1,3.2E1,7E0,3E0,3.3E1,7E0,2.2E1,2.5E1,4E0,2.5E1,3.1E1,1E1,1.6E1,2E1,2E0,-1.7438937E-2,-3.1349078E-2,1.7490698E-2,-9.438668E-3,4.399435E-2,-1.9027166E-2,-9.374408E-3,7.5646676E-3,-2.7877375E-2,-7.610949E-2,-6.7209066E-3,1.1433382E-2,1.938939E-2,4.3366654E-4,2.473245E-2,1.1188646E-2,-5.87686E-2,-2.7663806E-2,-1.1215087E-2,-2.4703333E-2,-3.482121E-2,1.7403066E-2,4.8537564E-2,-6.779721E-4,-8.459298E-3,2.6776025E-3,-3.312525E-2,-1.7994002E-2,2.8096253E-2,1.4932377E-3,9.508962E-4,2.7945397E-2],"split_indices":[7,5,5,3,1,4,4,4,4,0,4,5,5,4,4,7,4,0,5,3,0,4,4,0,7,0,0,4,4,4,2,0,0,0,0,0,0,0,0,0,0,0,0,0,0,0,0,0,0,0,0,0,0,0,0,0,0,0,0,0,0,0,0],"split_type":[0,0,0,0,0,0,0,0,0,0,0,0,0,0,0,0,0,0,0,0,0,0,0,0,0,0,0,0,0,0,0,0,0,0,0,0,0,0,0,0,0,0,0,0,0,0,0,0,0,0,0,0,0,0,0,0,0,0,0,0,0,0,0],"sum_hessian":[1.1879326E4,8.264265E3,3.6150618E3,1.01385266E3,7.250412E3,1.0594465E3,2.5556152E3,7.013073E2,3.1254535E2,1.0803962E3,6.1700156E3,1.0307277E3,2.8718838E1,1.759631E3,7.9598425E2,4.094778E2,2.9182947E2,1.541746E1,2.971279E2,4.2252075E1,1.0381442E3,3.44515E3,2.724866E3,1.6294695E2,8.6778076E2,2.2053778E1,6.6650596E0,1.3139927E3,4.456383E2,7.228208E2,7.316347E1,2.116829E2,1.977949E2,2.4350077E1,2.674794E2,1.309751E1,2.3199506E0,1.13042496E2,1.840854E2,3.5942135E1,6.3099422E0,9.626121E2,7.55321E1,6.75873E2,2.7692769E3,5.606848E2,2.1641812E3,2.2265198E1,1.4068175E2,4.4789893E2,4.1988184E2,2.8068485E0,1.924693E1,4.9780803E0,1.6869789E0,8.845854E2,4.294073E2,1.5869247E2,2.8694583E2,3.2810116E1,6.900107E2,2.0080528E1,5.308294E1],"tree_param":{"num_deleted":"0","num_feature":"8","num_nodes":"63","size_leaf_vector":"1"}},{"base_weights":[1.0138814E-3,-1.11243E-1,1.28556E-1,-2.226523E-1,3.9410155E-2,1.7925172E-1,-6.25306E-2,-1.2829225E-1,-5.4372084E-1,-1.9673574E-1,1.1164051E-1,-2.72382E-2,2.1665406E-1,-2.5686762E-1,3.736526E-2,-2.6160434E-1,-2.7450174E-2,-7.6907897E-1,-4.489782E-1,-6.635037E-1,-1.6480006E-1,1.5986608E-1,-1.740289E-1,-1.0141973E-1,2.439231E-1,1.0783643E-1,2.7862254E-1,-3.337314E-1,-1.9040866E-3,-2.1585433E-1,1.1245559E-1,-3.6075857E-2,-1.1898302E-2,-6.8932804E-3,6.6297986E-3,5.31112E-3,-4.10935E-2,-3.458572E-2,-1.9456226E-2,-1.668645E-3,-5.876533E-2,-1.6656848E-2,-2.541238E-3,1.3080525E-2,3.6305122E-3,-3.2732658E-2,-4.3472066E-3,1.4346306E-2,-9.588739E-3,-9.446161E-4,2.1139847E-2,9.416506E-3,6.3303753E-4,-1.2767477E-3,1.5070046E-2,-1.8423947E-2,8.72169E-3,-1.3420922E-2,2.5879843E-2,-9.7103295E-4,-2.1721572E-2,3.77664E-2,4.0446967E-3],"categories":[],"categories_nodes":[],"categories_segments":[],"categories_sizes":[],"default_left":[0,0,0,0,0,0,0,0,0,0,0,0,0,0,0,0,0,0,0,0,0,0,0,0,0,0,0,0,0,0,0,0,0,0,0,0,0,0,0,0,0,0,0,0,0,0,0,0,0,0,0,0,0,0,0,0,0,0,0,0,0,0,0],"id":17,"left_children":[1,3,5,7,9,11,13,15,17,19,21,23,25,27,29,31,33,35,37,39,41,43,45,47,49,51,53,55,57,59,61,-1,-1,-1,-1,-1,-1,-1,-1,-1,-1,-1,-1,-1,-1,-1,-1,-1,-1,-1,-1,-1,-1,-1,-1,-1,-1,-1,-1,-1,-1,-1,-1],"loss_changes":[1.699599E2,1.0597955E2,5.3843987E1,1.098976E2,4.5819347E1,3.3927322E1,2.264412E1,3.7723373E1,1.725119E1,9.270729E0,2.8362345E1,1.3591402E1,2.5046082E1,7.759403E0,1.4683329E1,1.2967567E1,2.8275408E1,1.1294037E1,8.19558E0,1.28498E1,1.13085785E1,1.5607525E1,1.2396528E1,1.866204E1,6.832506E0,1.0347158E1,1.6419022E1,5.436447E0,1.2977506E1,7.5771303E0,1.2017109E1,0E0,0E0,0E0,0E0,0E0,0E0,0E0,0E0,0E0,0E0,0E0,0E0,0E0,0E0,0E0,0E0,0E0,0E0,0E0,0E0,0E0,0E0,0E0,0E0,0E0,0E0,0E0,0E0,0E0,0E0,0E0,0E0],"parents":[2147483647,0,0,1,1,2,2,3,3,4,4,5,5,6,6,7,7,8,8,9,9,10,10,11,11,12,12,13,13,14,14,15,15,16,16,17,17,18,18,19,19,20,20,21,21,22,22,23,23,24,24,25,25,26,26,27,27,28,28,29,29,30,30],"right_children":[2,4,6,8,10,12,14,16,18,20,22,24,26,28,30,32,34,36,38,40,42,44,46,48,50,52,54,56,58,60,62,-1,-1,-1,-1,-1,-1,-1,-1,-1,-1,-1,-1,-1,-1,-1,-1,-1,-1,-1,-1,-1,-1,-1,-1,-1,-1,-1,-1,-1,-1,-1,-1],"split_conditions":[3E0,1.8E1,3E0,1.3E1,1.2E1,1E1,2E0,1.8E1,1.4E1,2E0,4E0,2.8E1,2E0,2.9E1,1.2E1,2E0,1E1,2E0,1.4E1,2.3E1,8E0,2.2E1,1.9E1,7E0,2E0,2E0,1E0,3.3E1,5E0,2E0,3E0,-3.6075857E-2,-1.1898302E-2,-6.8932804E-3,6.6297986E-3,5.31112E-3,-4.10935E-2,-3.458572E-2,-1.9456226E-2,-1.668645E-3,-5.876533E-2,-1.6656848E-2,-2.541238E-3,1.3080525E-2,3.6305122E-3,-3.2732658E-2,-4.3472066E-3,1.4346306E-2,-9.588739E-3,-9.446161E-4,2.1139847E-2,9.416506E-3,6.3303753E-4,-1.2767477E-3,1.5070046E-2,-1.8423947E-2,8.72169E-3,-1.3420922E-2,2.5879843E-2,-9.7103295E-4,-2.1721572E-2,3.77664E-2,4.0446967E-3],"split_indices":[3,4,7,4,5,5,2,5,5,2,7,4,2,5,5,2,4,2,4,4,5,4,4,4,2,7,1,4,3,6,4,0,0,0,0,0,0,0,0,0,0,0,0,0,0,0,0,0,0,0,0,0,0,0,0,0,0,0,0,0,0,0,0],"split_type":[0,0,0,0,0,0,0,0,0,0,0,0,0,0,0,0,0,0,0,0,0,0,0,0,0,0,0,0,0,0,0,0,0,0,0,0,0,0,0,0,0,0,0,0,0,0,0,0,0,0,0,0,0,0,0,0,0,0,0,0,0,0,0],"sum_hessian":[1.1868799E4,6.312737E3,5.5560615E3,3.6287598E3,2.6839768E3,4.391143E3,1.1649188E3,2.8056086E3,8.231513E2,6.2825885E2,2.055718E3,6.734497E2,3.7176934E3,3.949715E2,7.6994727E2,1.2075918E3,1.5980167E3,2.415277E2,5.816236E2,3.896562E1,5.892932E2,1.7591805E3,2.9653748E2,5.292805E2,1.4416917E2,1.3499316E3,2.3677615E3,3.032437E2,9.1727776E1,1.756719E2,5.942754E2,5.758965E1,1.1500022E3,9.457114E2,6.5230536E2,1.3680804E1,2.278469E2,1.1295962E2,4.6866397E2,1.7941402E1,2.1024216E1,2.3713364E2,3.5215958E2,8.112392E2,9.479414E2,4.4488167E1,2.5204932E2,9.949134E1,4.2978918E2,5.874735E1,8.542182E1,7.308475E2,6.190842E2,1.649592E2,2.2028022E3,2.840928E2,1.9150908E1,6.094506E1,3.0782717E1,9.309602E1,8.257588E1,2.6737309E1,5.675381E2],"tree_param":{"num_deleted":"0","num_feature":"8","num_nodes":"63","size_leaf_vector":"1"}},{"base_weights":[1.0064713E-3,-1.7867756E-1,7.5838126E-2,-2.732918E-1,9.881256E-4,-8.607304E-2,1.3394217E-1,-4.3492788E-1,-1.8127212E-1,-1.8901241E-1,8.2735784E-2,6.0744416E-2,-1.8889277E-1,-1.5368631E-2,1.8701887E-1,-3.0904686E-1,-6.4139116E-1,-1.16859935E-1,-3.441613E-1,-5.208719E-2,-2.9028228E-1,4.9861065E-1,4.7369026E-2,-3.596559E-1,9.690124E-2,-2.8842542E-1,-5.2691303E-2,-4.2461704E-2,2.9895788E-1,6.334345E-2,2.3799014E-1,-2.2863898E-2,-9.246639E-3,-4.51282E-2,-2.4923207E-2,-4.4558916E-2,-5.2230856E-3,-1.0276317E-2,-3.0599141E-2,-9.246283E-3,1.4376779E-2,-1.5331298E-2,2.1319604E-2,-3.13607E-2,2.9236047E-2,-2.598367E-2,3.1454004E-3,-1.0947498E-2,-3.7107002E-2,-9.100818E-3,7.6481584E-3,-1.2316218E-2,-5.0225537E-2,-1.9020325E-2,4.293537E-3,2.1236805E-2,-3.0499517E-3,-4.6814978E-2,1.6478438E-2,5.8097187E-3,-1.0395798E-2,7.931957E-3,1.7591093E-2],"categories":[],"categories_nodes":[],"categories_segments":[],"categories_sizes":[],"default_left":[0,0,0,0,0,0,0,0,0,0,0,0,0,0,0,0,0,0,0,0,0,0,0,0,0,0,0,0,0,0,0,0,0,0,0,0,0,0,0,0,0,0,0,0,0,0,0,0,0,0,0,0,0,0,0,0,0,0,0,0,0,0,0],"id":18,"left_children":[1,3,5,7,9,11,13,15,17,19,21,23,25,27,29,31,33,35,37,39,41,43,45,47,49,51,53,55,57,59,61,-1,-1,-1,-1,-1,-1,-1,-1,-1,-1,-1,-1,-1,-1,-1,-1,-1,-1,-1,-1,-1,-1,-1,-1,-1,-1,-1,-1,-1,-1,-1,-1],"loss_changes":[1.5947896E2,5.9279327E1,7.878611E1,3.3896988E1,1.8715214E1,3.3402546E1,4.883996E1,2.1320465E1,1.5250103E1,5.011072E0,1.2367381E1,1.3894659E1,1.7623768E1,1.3783598E1,2.864508E1,9.413914E0,1.1221893E1,9.947397E0,1.5188602E1,7.060692E0,2.5687866E0,6.7577534E0,6.883752E0,3.7351294E0,1.3168678E1,2.2410168E1,2.5034733E1,1.2926781E1,5.1653347E0,1.9066383E1,2.902182E1,0E0,0E0,0E0,0E0,0E0,0E0,0E0,0E0,0E0,0E0,0E0,0E0,0E0,0E0,0E0,0E0,0E0,0E0,0E0,0E0,0E0,0E0,0E0,0E0,0E0,0E0,0E0,0E0,0E0,0E0,0E0,0E0],"parents":[2147483647,0,0,1,1,2,2,3,3,4,4,5,5,6,6,7,7,8,8,9,9,10,10,11,11,12,12,13,13,14,14,15,15,16,16,17,17,18,18,19,19,20,20,21,21,22,22,23,23,24,24,25,25,26,26,27,27,28,28,29,29,30,30],"right_children":[2,4,6,8,10,12,14,16,18,20,22,24,26,28,30,32,34,36,38,40,42,44,46,48,50,52,54,56,58,60,62,-1,-1,-1,-1,-1,-1,-1,-1,-1,-1,-1,-1,-1,-1,-1,-1,-1,-1,-1,-1,-1,-1,-1,-1,-1,-1,-1,-1,-1,-1,-1,-1],"split_conditions":[2E0,1.9E1,1.3E1,1.6E1,1.4E1,2E0,2E0,1.2E1,4E0,2.2E1,2E1,1E0,1.8E1,2.8E1,2E0,1E1,1.6E1,1.9E1,1.3E1,2.1E1,3.9E1,2E0,2E1,2.3E1,7E0,1.7E1,2E0,3E0,2E1,3E0,1.9E1,-2.2863898E-2,-9.246639E-3,-4.51282E-2,-2.4923207E-2,-4.4558916E-2,-5.2230856E-3,-1.0276317E-2,-3.0599141E-2,-9.246283E-3,1.4376779E-2,-1.5331298E-2,2.1319604E-2,-3.13607E-2,2.9236047E-2,-2.598367E-2,3.1454004E-3,-1.0947498E-2,-3.7107002E-2,-9.100818E-3,7.6481584E-3,-1.2316218E-2,-5.0225537E-2,-1.9020325E-2,4.293537E-3,2.1236805E-2,-3.0499517E-3,-4.6814978E-2,1.6478438E-2,5.8097187E-3,-1.0395798E-2,7.931957E-3,1.7591093E-2],"split_indices":[3,4,5,5,5,7,1,4,7,4,4,1,4,4,2,5,4,0,4,4,0,2,0,4,5,4,2,4,0,7,4,0,0,0,0,0,0,0,0,0,0,0,0,0,0,0,0,0,0,0,0,0,0,0,0,0,0,0,0,0,0,0,0],"split_type":[0,0,0,0,0,0,0,0,0,0,0,0,0,0,0,0,0,0,0,0,0,0,0,0,0,0,0,0,0,0,0,0,0,0,0,0,0,0,0,0,0,0,0,0,0,0,0,0,0,0,0,0,0,0,0,0,0,0,0,0,0,0,0],"sum_hessian":[1.1858644E4,3.486222E3,8.372422E3,2.2832908E3,1.202931E3,2.2109543E3,6.161468E3,8.2696625E2,1.4563246E3,3.6147263E2,8.4145844E2,9.10809E2,1.3001453E3,1.6160488E3,4.545419E3,5.152899E2,3.116763E2,1.0448651E3,4.1145944E2,1.5432579E2,2.0714684E2,6.492401E1,7.765344E2,7.142252E1,8.3938654E2,7.5054675E2,5.495986E2,1.4886049E3,1.2744396E2,1.3272515E3,3.2181675E3,2.336064E2,2.8168353E2,1.08357666E2,2.0331862E2,1.5349491E1,1.0295156E3,2.7228262E2,1.3917682E2,1.11262566E2,4.3063225E1,2.030876E2,4.05924E0,4.1664944E0,6.0757515E1,1.9846876E1,7.566875E2,5.336381E1,1.8058712E1,1.401031E2,6.9928345E2,7.101392E2,4.0407494E1,1.628037E2,3.867949E2,5.597405E1,1.4326309E3,2.3663435E0,1.2507762E2,1.1113022E3,2.159493E2,1.8976956E3,1.3204718E3],"tree_param":{"num_deleted":"0","num_feature":"8","num_nodes":"63","size_leaf_vector":"1"}},{"base_weights":[9.76599E-4,-2.0287417E-1,6.228633E-2,-3.6293113E-1,-1.2724866E-1,-2.6170857E-2,1.8843088E-1,-4.7058108E-1,-2.8452387E-1,-9.392076E-2,-4.5853415E-1,2.2634163E-1,-1.2878545E-1,6.3764143E-1,1.6224575E-1,-7.8387976E-1,-4.1924313E-1,-3.0293563E-1,6.836387E-1,-1.074764E-1,4.7434595E-1,-8.4802043E-1,-3.295748E-1,5.080842E-1,1.6197723E-1,-5.143702E-1,-9.107225E-2,4.3538317E-1,7.017202E-1,-3.4244835E-2,2.1108863E-1,-4.2356785E-2,-6.3355053E-3,-6.937653E-2,-2.0420803E-2,-1.3606715E-2,-3.349677E-2,2.2668086E-3,4.4356294E-2,-6.2820734E-3,4.8946803E-3,1.5042469E-2,4.3945514E-2,-1.3359214E-2,-5.070105E-2,-1.8474689E-2,2.7771434E-2,-4.0821853E-4,2.7978733E-2,-6.1031006E-4,1.1102742E-2,-3.13552E-2,-1.8928817E-2,-1.2763602E-3,-1.2254692E-2,3.4222938E-2,5.9414064E-3,2.5645703E-2,4.1701626E-2,-5.4047024E-3,1.5130348E-2,1.5186657E-2,6.9951825E-3],"categories":[],"categories_nodes":[],"categories_segments":[],"categories_sizes":[],"default_left":[0,0,0,0,0,0,0,0,0,0,0,0,0,0,0,0,0,0,0,0,0,0,0,0,0,0,0,0,0,0,0,0,0,0,0,0,0,0,0,0,0,0,0,0,0,0,0,0,0,0,0,0,0,0,0,0,0,0,0,0,0,0,0],"id":19,"left_children":[1,3,5,7,9,11,13,15,17,19,21,23,25,27,29,31,33,35,37,39,41,43,45,47,49,51,53,55,57,59,61,-1,-1,-1,-1,-1,-1,-1,-1,-1,-1,-1,-1,-1,-1,-1,-1,-1,-1,-1,-1,-1,-1,-1,-1,-1,-1,-1,-1,-1,-1,-1,-1],"loss_changes":[1.4810414E2,3.31195E1,1.0166022E2,7.282463E0,2.0518827E1,1.3880913E2,4.4068527E1,5.6023865E0,9.3143425E0,1.3095177E1,8.257721E0,2.7988846E1,5.534169E1,2.3708496E0,3.4075035E1,2.0030537E0,2.777443E0,5.493084E0,1.2380958E0,6.1852818E0,2.5177393E0,3.744234E0,4.774122E0,7.6442795E0,1.3204384E1,4.954323E0,3.5032913E1,4.043708E0,3.4489288E0,1.7634579E1,1.870813E1,0E0,0E0,0E0,0E0,0E0,0E0,0E0,0E0,0E0,0E0,0E0,0E0,0E0,0E0,0E0,0E0,0E0,0E0,0E0,0E0,0E0,0E0,0E0,0E0,0E0,0E0,0E0,0E0,0E0,0E0,0E0,0E0],"parents":[2147483647,0,0,1,1,2,2,3,3,4,4,5,5,6,6,7,7,8,8,9,9,10,10,11,11,12,12,13,13,14,14,15,15,16,16,17,17,18,18,19,19,20,20,21,21,22,22,23,23,24,24,25,25,26,26,27,27,28,28,29,29,30,30],"right_children":[2,4,6,8,10,12,14,16,18,20,22,24,26,28,30,32,34,36,38,40,42,44,46,48,50,52,54,56,58,60,62,-1,-1,-1,-1,-1,-1,-1,-1,-1,-1,-1,-1,-1,-1,-1,-1,-1,-1,-1,-1,-1,-1,-1,-1,-1,-1,-1,-1,-1,-1,-1,-1],"split_conditions":[1E0,1.5E1,1.9E1,2.6E1,6E0,9E0,2E1,7E0,3.4E1,3.1E1,2E1,3E0,8E0,2E0,1.1E1,4E0,1.8E1,7E0,8E0,4E0,3.1E1,1.6E1,4.6E1,2E0,2.4E1,7E0,3E0,2E0,2E0,3.3E1,2E0,-4.2356785E-2,-6.3355053E-3,-6.937653E-2,-2.0420803E-2,-1.3606715E-2,-3.349677E-2,2.2668086E-3,4.4356294E-2,-6.2820734E-3,4.8946803E-3,1.5042469E-2,4.3945514E-2,-1.3359214E-2,-5.070105E-2,-1.8474689E-2,2.7771434E-2,-4.0821853E-4,2.7978733E-2,-6.1031006E-4,1.1102742E-2,-3.13552E-2,-1.8928817E-2,-1.2763602E-3,-1.2254692E-2,3.4222938E-2,5.9414064E-3,2.5645703E-2,4.1701626E-2,-5.4047024E-3,1.5130348E-2,1.5186657E-2,6.9951825E-3],"split_indices":[1,5,4,0,7,4,4,5,4,4,5,4,5,2,5,3,0,7,5,3,0,5,0,3,0,5,7,7,3,4,7,0,0,0,0,0,0,0,0,0,0,0,0,0,0,0,0,0,0,0,0,0,0,0,0,0,0,0,0,0,0,0,0],"split_type":[0,0,0,0,0,0,0,0,0,0,0,0,0,0,0,0,0,0,0,0,0,0,0,0,0,0,0,0,0,0,0,0,0,0,0,0,0,0,0,0,0,0,0,0,0,0,0,0,0,0,0,0,0,0,0,0,0,0,0,0,0,0,0],"sum_hessian":[1.1848183E4,2.7389724E3,9.10921E3,8.776591E2,1.8613134E3,5.3549297E3,3.7542805E3,3.6775076E2,5.099084E2,1.692344E3,1.689693E2,1.5469678E3,3.8079617E3,2.0550214E2,3.5487786E3,4.9767414E1,3.1798334E2,5.010666E2,8.841797E0,1.6537068E3,3.8637245E1,4.064285E1,1.2832645E2,2.8640268E2,1.2605651E3,3.3813947E2,3.4698223E3,5.131761E1,1.5418452E2,7.065776E2,2.842201E3,4.5133972E1,4.6334414E0,2.1101997E0,3.1587314E2,4.638762E2,3.7190403E1,2.4329298E0,6.4088674E0,1.5196788E3,1.3402803E2,2.8261147E1,1.0376097E1,9.6137705E0,3.102908E1,1.2334534E2,4.9811172E0,2.6051308E1,2.6035135E2,3.2348355E2,9.3708154E2,1.8278038E2,1.553591E2,2.4348284E3,1.0349938E3,2.806946E1,2.3248152E1,6.553888E1,8.8645645E1,5.80083E2,1.26494545E2,1.2335353E3,1.6086656E3],"tree_param":{"num_deleted":"0","num_feature":"8","num_nodes":"63","size_leaf_vector":"1"}},{"base_weights":[9.783668E-4,-1.6308638E-1,7.0137285E-2,-2.4804898E-1,2.7944622E-4,-7.869137E-2,1.2415348E-1,-1.6065149E-1,-3.894846E-1,-1.1737992E-1,1.14828594E-1,5.8268696E-2,-1.7365164E-1,-1.2914489E-2,1.7350698E-1,-2.844544E-1,-1.1052486E-3,-5.093602E-1,-1.5173846E-1,1.9263765E-2,-2.1307288E-1,1.5642306E-1,-2.0845596E-1,4.4032532E-1,2.2430208E-2,-2.0462704E-1,1.9456747E-1,-2.9973902E-2,4.24254E-1,5.3400446E-2,2.2328319E-1,-3.7438415E-3,-1.8503407E-2,-7.467846E-3,5.8667283E-3,-3.519337E-2,-1.9229222E-2,-4.386578E-3,-4.8067637E-2,-8.771309E-3,8.6305775E-3,-1.559518E-2,-3.725181E-3,1.0761417E-2,-5.6923726E-3,-2.7339542E-2,3.5214298E-3,5.516648E-3,3.2679185E-2,-6.2470594E-3,9.225388E-3,-1.885408E-2,-6.883163E-3,2.7916906E-2,-1.8103352E-3,2.0312255E-2,-2.3096844E-3,1.0945552E-2,3.2527845E-2,-1.8072797E-2,4.326952E-3,7.5076893E-3,1.6490763E-2],"categories":[],"categories_nodes":[],"categories_segments":[],"categories_sizes":[],"default_left":[0,0,0,0,0,0,0,0,0,0,0,0,0,0,0,0,0,0,0,0,0,0,0,0,0,0,0,0,0,0,0,0,0,0,0,0,0,0,0,0,0,0,0,0,0,0,0,0,0,0,0,0,0,0,0,0,0,0,0,0,0,0,0],"id":20,"left_children":[1,3,5,7,9,11,13,15,17,19,21,23,25,27,29,31,33,35,37,39,41,43,45,47,49,51,53,55,57,59,61,-1,-1,-1,-1,-1,-1,-1,-1,-1,-1,-1,-1,-1,-1,-1,-1,-1,-1,-1,-1,-1,-1,-1,-1,-1,-1,-1,-1,-1,-1,-1,-1],"loss_changes":[1.3434515E2,4.8733086E1,6.696913E1,2.8488815E1,1.6217207E1,2.8864813E1,4.1345497E1,2.823185E1,2.5044342E1,7.765538E0,8.230944E0,1.2438678E1,1.4986404E1,1.2086281E1,2.6853027E1,1.4412643E1,1.100077E1,1.3940964E1,1.5300884E1,7.3565297E0,4.7587214E0,8.6189E0,6.636833E0,5.4110994E0,1.9901762E1,1.3912754E1,8.599481E0,1.1049582E1,2.6860714E0,1.8150322E1,2.4698715E1,0E0,0E0,0E0,0E0,0E0,0E0,0E0,0E0,0E0,0E0,0E0,0E0,0E0,0E0,0E0,0E0,0E0,0E0,0E0,0E0,0E0,0E0,0E0,0E0,0E0,0E0,0E0,0E0,0E0,0E0,0E0,0E0],"parents":[2147483647,0,0,1,1,2,2,3,3,4,4,5,5,6,6,7,7,8,8,9,9,10,10,11,11,12,12,13,13,14,14,15,15,16,16,17,17,18,18,19,19,20,20,21,21,22,22,23,23,24,24,25,25,26,26,27,27,28,28,29,29,30,30],"right_children":[2,4,6,8,10,12,14,16,18,20,22,24,26,28,30,32,34,36,38,40,42,44,46,48,50,52,54,56,58,60,62,-1,-1,-1,-1,-1,-1,-1,-1,-1,-1,-1,-1,-1,-1,-1,-1,-1,-1,-1,-1,-1,-1,-1,-1,-1,-1,-1,-1,-1,-1,-1,-1],"split_conditions":[2E0,1.9E1,1.3E1,1.2E1,2E1,2E0,2E0,1E1,1.8E1,2.2E1,2.7E1,6E0,3.3E1,3.1E1,2E0,9E0,1.8E1,1.7E1,5E0,1.1E1,2E0,3.3E1,2.8E1,2.5E1,1.9E1,2.5E1,3.4E1,3E0,2E0,3E0,1.9E1,-3.7438415E-3,-1.8503407E-2,-7.467846E-3,5.8667283E-3,-3.519337E-2,-1.9229222E-2,-4.386578E-3,-4.8067637E-2,-8.771309E-3,8.6305775E-3,-1.559518E-2,-3.725181E-3,1.0761417E-2,-5.6923726E-3,-2.7339542E-2,3.5214298E-3,5.516648E-3,3.2679185E-2,-6.2470594E-3,9.225388E-3,-1.885408E-2,-6.883163E-3,2.7916906E-2,-1.8103352E-3,2.0312255E-2,-2.3096844E-3,1.0945552E-2,3.2527845E-2,-1.8072797E-2,4.326952E-3,7.5076893E-3,1.6490763E-2],"split_indices":[3,4,5,4,5,7,1,4,4,4,4,4,4,4,2,4,5,5,7,5,1,5,4,0,4,0,4,4,6,3,4,0,0,0,0,0,0,0,0,0,0,0,0,0,0,0,0,0,0,0,0,0,0,0,0,0,0,0,0,0,0,0,0],"split_type":[0,0,0,0,0,0,0,0,0,0,0,0,0,0,0,0,0,0,0,0,0,0,0,0,0,0,0,0,0,0,0,0,0,0,0,0,0,0,0,0,0,0,0,0,0,0,0,0,0,0,0,0,0,0,0,0,0,0,0,0,0,0,0],"sum_hessian":[1.1838179E4,3.5100283E3,8.32815E3,2.3087732E3,1.201255E3,2.217608E3,6.1105425E3,1.4283113E3,8.8046204E2,5.925705E2,6.086846E2,9.081624E2,1.3094454E3,1.6179095E3,4.492633E3,8.038026E2,6.2450867E2,5.845697E2,2.958923E2,2.4439215E2,3.481783E2,5.397547E2,6.8929825E1,7.691567E1,8.312467E2,1.2082491E3,1.01196304E2,1.5580422E3,5.986729E1,1.3169639E3,3.1756692E3,2.3366887E2,5.701337E2,2.7723334E2,3.472753E2,2.2663617E2,3.5793353E2,2.7524054E2,2.0651749E1,1.076174E2,1.3677475E2,2.0249994E2,1.4567839E2,4.4346872E2,9.6285995E1,3.0711214E1,3.821861E1,3.0789658E1,4.6126015E1,4.3549533E2,3.957514E2,3.366443E2,8.7160486E2,3.872867E1,6.2467636E1,5.499327E1,1.503049E3,3.2418602E1,2.7448687E1,9.668413E1,1.2202797E3,1.8844736E3,1.2911954E3],"tree_param":{"num_deleted":"0","num_feature":"8","num_nodes":"63","size_leaf_vector":"1"}},{"base_weights":[9.692917E-4,4.42741E-2,-2.4847302E-1,-2.6785415E-1,7.471463E-2,-4.0220255E-1,-1.8229716E-1,-3.1691113E-1,7.985233E-2,-1.5470971E-2,1.6344374E-1,-9.877418E-2,-4.4000545E-1,-1.5736249E-1,-6.059878E-1,-4.297418E-1,-1.8705055E-1,-1.7516312E-1,2.0943047E-1,-1.2293012E-1,1.1501677E-1,4.910613E-2,2.2783026E-1,-1.779266E-1,7.0938236E-1,-5.605718E-1,-3.7795258E-1,-1.6676672E-1,4.3477225E-1,-7.08245E-1,6.852313E-1,1.8902285E-2,-2.3304656E-2,-1.2141987E-2,1.2151253E-2,3.1732172E-3,-4.9246706E-2,1.4258595E-3,1.9177152E-2,-3.561789E-3,-3.703607E-2,-1.1853448E-2,6.97576E-3,7.806506E-3,-2.162555E-3,2.8017698E-2,1.0405167E-2,-2.1811256E-2,5.0301477E-3,4.683142E-2,8.426707E-3,-1.8756641E-2,-3.7239634E-2,-1.5080506E-2,-2.7407248E-2,-1.8519271E-2,-6.8218E-3,3.4829628E-2,4.542628E-3,-7.41032E-2,-3.005575E-2,-2.5433516E-3,4.8385143E-2],"categories":[],"categories_nodes":[],"categories_segments":[],"categories_sizes":[],"default_left":[0,0,0,0,0,0,0,0,0,0,0,0,0,0,0,0,0,0,0,0,0,0,0,0,0,0,0,0,0,0,0,0,0,0,0,0,0,0,0,0,0,0,0,0,0,0,0,0,0,0,0,0,0,0,0,0,0,0,0,0,0,0,0],"id":21,"left_children":[1,3,5,7,9,11,13,15,17,19,21,23,25,27,29,31,33,35,37,39,41,43,45,47,49,51,53,55,57,59,61,-1,-1,-1,-1,-1,-1,-1,-1,-1,-1,-1,-1,-1,-1,-1,-1,-1,-1,-1,-1,-1,-1,-1,-1,-1,-1,-1,-1,-1,-1,-1,-1],"loss_changes":[1.2779065E2,9.579559E1,1.772969E1,1.5307762E1,7.350386E1,5.9876556E0,1.2848358E1,1.1427002E1,3.7236347E0,6.3901077E1,3.4074738E1,3.9347823E0,3.2838898E0,6.5234337E0,9.430254E0,1.24935E1,8.8622265E0,7.4318247E0,2.3338273E0,7.975725E1,1.7785519E1,1.650685E1,1.931186E1,4.002758E0,5.1956534E-1,5.073784E0,3.8826714E0,6.996567E0,1.592468E0,4.3538437E0,1.1885905E0,0E0,0E0,0E0,0E0,0E0,0E0,0E0,0E0,0E0,0E0,0E0,0E0,0E0,0E0,0E0,0E0,0E0,0E0,0E0,0E0,0E0,0E0,0E0,0E0,0E0,0E0,0E0,0E0,0E0,0E0,0E0,0E0],"parents":[2147483647,0,0,1,1,2,2,3,3,4,4,5,5,6,6,7,7,8,8,9,9,10,10,11,11,12,12,13,13,14,14,15,15,16,16,17,17,18,18,19,19,20,20,21,21,22,22,23,23,24,24,25,25,26,26,27,27,28,28,29,29,30,30],"right_children":[2,4,6,8,10,12,14,16,18,20,22,24,26,28,30,32,34,36,38,40,42,44,46,48,50,52,54,56,58,60,62,-1,-1,-1,-1,-1,-1,-1,-1,-1,-1,-1,-1,-1,-1,-1,-1,-1,-1,-1,-1,-1,-1,-1,-1,-1,-1,-1,-1,-1,-1,-1,-1],"split_conditions":[4E0,8E0,1.4E1,2.8E1,3E0,9E0,8E0,7E0,2E0,1.8E1,2E0,3.9E1,2.9E1,3E0,4.6E1,3E0,5E0,3.5E1,2.5E1,1.7E1,2E0,2E0,3E0,8E0,7E0,1.2E1,6E0,2E0,2.4E1,2E0,2.4E1,1.8902285E-2,-2.3304656E-2,-1.2141987E-2,1.2151253E-2,3.1732172E-3,-4.9246706E-2,1.4258595E-3,1.9177152E-2,-3.561789E-3,-3.703607E-2,-1.1853448E-2,6.97576E-3,7.806506E-3,-2.162555E-3,2.8017698E-2,1.0405167E-2,-2.1811256E-2,5.0301477E-3,4.683142E-2,8.426707E-3,-1.8756641E-2,-3.7239634E-2,-1.5080506E-2,-2.7407248E-2,-1.8519271E-2,-6.8218E-3,3.4829628E-2,4.542628E-3,-7.41032E-2,-3.005575E-2,-2.5433516E-3,4.8385143E-2],"split_indices":[7,5,5,4,3,4,7,5,2,4,2,0,0,1,0,4,3,4,0,4,2,7,4,4,7,4,7,2,5,2,5,0,0,0,0,0,0,0,0,0,0,0,0,0,0,0,0,0,0,0,0,0,0,0,0,0,0,0,0,0,0,0,0],"split_type":[0,0,0,0,0,0,0,0,0,0,0,0,0,0,0,0,0,0,0,0,0,0,0,0,0,0,0,0,0,0,0,0,0,0,0,0,0,0,0,0,0,0,0,0,0,0,0,0,0,0,0,0,0,0,0,0,0,0,0,0,0,0,0],"sum_hessian":[1.1828203E4,1.0079209E4,1.7489938E3,8.949416E2,9.184268E3,5.247945E2,1.2241992E3,7.843661E2,1.1057554E2,4.55516E3,4.629107E3,5.8539017E1,4.6625546E2,1.1574532E3,6.674601E1,4.184673E2,3.658988E2,3.7136833E1,7.3438705E1,2.498037E3,2.0571233E3,1.6683004E3,2.9608066E3,5.4027313E1,4.5117035E0,1.5570094E2,3.1055453E2,1.1400652E3,1.7388046E1,6.226636E1,4.47965E0,1.7615755E1,4.0085153E2,3.2427002E2,4.1628784E1,2.939592E1,7.740914E0,3.658672E1,3.685199E1,2.3061802E3,1.9185678E2,1.3326031E2,1.9238629E3,7.724691E2,8.9583136E2,1.642779E2,2.7965288E3,2.7737946E1,2.6289366E1,2.6616087E0,1.8500948E0,7.9107086E1,7.659385E1,2.1630136E2,9.4253174E1,1.4635187E2,9.937133E2,9.290154E0,8.097891E0,6.011313E0,5.6255047E1,1.4696863E0,3.0099638E0],"tree_param":{"num_deleted":"0","num_feature":"8","num_nodes":"63","size_leaf_vector":"1"}},{"base_weights":[9.519482E-4,-1.8186152E-1,5.6816548E-2,-3.2136908E-1,-1.1521418E-1,-2.227035E-2,1.7134546E-1,-4.2532286E-1,-2.4556622E-1,-8.5454404E-2,-4.053309E-1,2.1045113E-1,-1.1493549E-1,6.1708826E-1,1.4579822E-1,-6.9359404E-1,-3.80838E-1,-2.6222986E-1,6.658192E-1,-9.7647585E-2,4.4527996E-1,-7.52865E-1,-2.8845328E-1,4.7903728E-1,1.5064487E-1,-4.4759402E-1,-8.17586E-2,4.5566598E-1,6.960236E-1,-2.9674774E-2,1.9030352E-1,-3.7542816E-2,-4.793273E-3,-6.513936E-2,-1.852571E-2,-1.1752405E-2,-2.9064005E-2,2.1165654E-3,4.352176E-2,-1.082817E-2,-3.3285965E-3,4.1290335E-3,3.147421E-2,-7.407492E-2,-3.1014308E-2,-1.6202878E-2,2.662604E-2,-7.937127E-5,2.6455373E-2,-7.205064E-4,1.04070185E-2,-2.7271545E-2,-1.6447484E-2,2.21607E-4,-9.029987E-3,3.1145593E-2,1.2800895E-2,2.3507565E-2,4.0681697E-2,-1.3369843E-2,2.9066913E-3,1.3896668E-2,6.186984E-3],"categories":[],"categories_nodes":[],"categories_segments":[],"categories_sizes":[],"default_left":[0,0,0,0,0,0,0,0,0,0,0,0,0,0,0,0,0,0,0,0,0,0,0,0,0,0,0,0,0,0,0,0,0,0,0,0,0,0,0,0,0,0,0,0,0,0,0,0,0,0,0,0,0,0,0,0,0,0,0,0,0,0,0],"id":22,"left_children":[1,3,5,7,9,11,13,15,17,19,21,23,25,27,29,31,33,35,37,39,41,43,45,47,49,51,53,55,57,59,61,-1,-1,-1,-1,-1,-1,-1,-1,-1,-1,-1,-1,-1,-1,-1,-1,-1,-1,-1,-1,-1,-1,-1,-1,-1,-1,-1,-1,-1,-1,-1,-1],"loss_changes":[1.2072596E2,2.5688293E1,8.201452E1,6.939621E0,1.6144234E1,1.15542206E2,4.202693E1,4.218231E0,8.061539E0,1.1050103E1,6.853428E0,2.4437897E1,4.225375E1,2.2334824E0,2.733371E1,1.7148685E0,2.6048622E0,4.2924614E0,1.188806E0,6.1326694E0,2.5120373E0,3.2529736E0,4.027562E0,6.6771355E0,1.1859991E1,3.851715E0,2.9694937E1,2.1322794E0,3.1384125E0,1.4811928E1,1.6248383E1,0E0,0E0,0E0,0E0,0E0,0E0,0E0,0E0,0E0,0E0,0E0,0E0,0E0,0E0,0E0,0E0,0E0,0E0,0E0,0E0,0E0,0E0,0E0,0E0,0E0,0E0,0E0,0E0,0E0,0E0,0E0,0E0],"parents":[2147483647,0,0,1,1,2,2,3,3,4,4,5,5,6,6,7,7,8,8,9,9,10,10,11,11,12,12,13,13,14,14,15,15,16,16,17,17,18,18,19,19,20,20,21,21,22,22,23,23,24,24,25,25,26,26,27,27,28,28,29,29,30,30],"right_children":[2,4,6,8,10,12,14,16,18,20,22,24,26,28,30,32,34,36,38,40,42,44,46,48,50,52,54,56,58,60,62,-1,-1,-1,-1,-1,-1,-1,-1,-1,-1,-1,-1,-1,-1,-1,-1,-1,-1,-1,-1,-1,-1,-1,-1,-1,-1,-1,-1,-1,-1,-1,-1],"split_conditions":[1E0,1.5E1,1.9E1,2.6E1,6E0,9E0,2E1,7E0,3.4E1,3.1E1,2E1,3E0,8E0,2E0,1.1E1,4E0,1.8E1,7E0,8E0,2.4E1,2.6E1,9E0,4.6E1,2E0,2.4E1,7E0,1.2E1,2E0,2E0,2E0,2E0,-3.7542816E-2,-4.793273E-3,-6.513936E-2,-1.852571E-2,-1.1752405E-2,-2.9064005E-2,2.1165654E-3,4.352176E-2,-1.082817E-2,-3.3285965E-3,4.1290335E-3,3.147421E-2,-7.407492E-2,-3.1014308E-2,-1.6202878E-2,2.662604E-2,-7.937127E-5,2.6455373E-2,-7.205064E-4,1.04070185E-2,-2.7271545E-2,-1.6447484E-2,2.21607E-4,-9.029987E-3,3.1145593E-2,1.2800895E-2,2.3507565E-2,4.0681697E-2,-1.3369843E-2,2.9066913E-3,1.3896668E-2,6.186984E-3],"split_indices":[1,5,4,0,7,4,4,5,4,4,5,4,5,3,5,3,0,7,5,0,0,4,0,3,0,5,4,6,2,2,7,0,0,0,0,0,0,0,0,0,0,0,0,0,0,0,0,0,0,0,0,0,0,0,0,0,0,0,0,0,0,0,0],"split_type":[0,0,0,0,0,0,0,0,0,0,0,0,0,0,0,0,0,0,0,0,0,0,0,0,0,0,0,0,0,0,0,0,0,0,0,0,0,0,0,0,0,0,0,0,0,0,0,0,0,0,0,0,0,0,0,0,0,0,0,0,0,0,0],"sum_hessian":[1.1819031E4,2.7658154E3,9.053216E3,8.929184E2,1.872897E3,5.355695E3,3.697521E3,3.7459683E2,5.183216E2,1.6998258E3,1.7307124E2,1.5248582E3,3.830837E3,1.9917657E2,3.4983445E3,5.1205315E1,3.233915E2,5.0971432E2,8.607271E0,1.6624484E3,3.7377365E1,4.2187065E1,1.3088417E2,2.7642792E2,1.2484302E3,3.4627814E2,3.4845588E3,6.7635345E1,1.3154123E2,7.0784125E2,2.7905032E3,4.6494923E1,4.7103915E0,2.194811E0,3.211967E2,4.7129834E2,3.8415966E1,2.4249759E0,6.1822953E0,3.431941E2,1.3192543E3,1.3076993E1,2.430037E1,4.9281626E0,3.7258904E1,1.2602401E2,4.8601704E0,2.6171871E1,2.5025604E2,3.2272318E2,9.2570703E2,1.8780916E2,1.5846898E2,1.8619069E3,1.6226519E3,3.565063E1,3.198471E1,4.675161E1,8.478962E1,1.9038133E2,5.1745996E2,1.2032609E3,1.5872422E3],"tree_param":{"num_deleted":"0","num_feature":"8","num_nodes":"63","size_leaf_vector":"1"}},{"base_weights":[9.4006903E-4,6.568222E-2,-1.4175169E-1,-1.281961E-1,1.0403725E-1,-2.8240734E-1,-8.154181E-2,-2.4308075E-1,2.76353E-2,-9.386453E-2,1.4052157E-1,-2.985245E-1,3.22591E-1,-1.4705977E-1,6.879907E-2,1.4925121E-1,-3.2835814E-1,-4.8150085E-2,1.8836692E-1,-6.090417E-1,-7.247091E-2,6.734099E-2,2.1546002E-1,-7.2398305E-1,-2.7895582E-1,1.7775938E-1,7.270184E-1,-6.255792E-2,-3.3895046E-1,-3.3921123E-1,9.245764E-2,-1.2318782E-2,1.9830711E-2,-1.8767495E-2,-7.6352917E-3,1.0233937E-2,-8.934908E-3,-3.8974613E-3,1.6645266E-2,-2.2426581E-2,-6.418378E-2,-5.0155087E-3,7.989454E-3,5.9389244E-3,-4.3986276E-2,1.6189558E-2,8.4139155E-3,-4.6364594E-2,-1.549239E-2,-9.470559E-3,-1.827684E-2,-3.269486E-2,1.6548505E-2,4.7632348E-2,-1.8173484E-3,-7.0587876E-3,6.9150026E-3,-3.1083612E-2,-1.50104705E-2,-2.1290755E-2,2.4304936E-2,9.345475E-3,-2.1252586E-3],"categories":[],"categories_nodes":[],"categories_segments":[],"categories_sizes":[],"default_left":[0,0,0,0,0,0,0,0,0,0,0,0,0,0,0,0,0,0,0,0,0,0,0,0,0,0,0,0,0,0,0,0,0,0,0,0,0,0,0,0,0,0,0,0,0,0,0,0,0,0,0,0,0,0,0,0,0,0,0,0,0,0,0],"id":23,"left_children":[1,3,5,7,9,11,13,15,17,19,21,23,25,27,29,31,33,35,37,39,41,43,45,47,49,51,53,55,57,59,61,-1,-1,-1,-1,-1,-1,-1,-1,-1,-1,-1,-1,-1,-1,-1,-1,-1,-1,-1,-1,-1,-1,-1,-1,-1,-1,-1,-1,-1,-1,-1,-1],"loss_changes":[1.0911078E2,6.0429314E1,3.119564E1,2.4037056E1,4.899064E1,1.086676E1,2.544999E1,2.5903084E1,6.9587016E0,1.1599859E1,3.1397026E1,8.759987E0,1.5777676E0,2.9151844E1,7.605007E0,1.3667766E1,5.184845E0,1.2859944E1,7.070644E0,3.9709072E0,6.582145E0,1.413454E2,1.4407593E1,3.6451645E0,7.9217834E0,3.119253E0,1.3024404E0,1.9763086E1,5.835552E0,3.2958274E0,9.471411E0,0E0,0E0,0E0,0E0,0E0,0E0,0E0,0E0,0E0,0E0,0E0,0E0,0E0,0E0,0E0,0E0,0E0,0E0,0E0,0E0,0E0,0E0,0E0,0E0,0E0,0E0,0E0,0E0,0E0,0E0,0E0,0E0],"parents":[2147483647,0,0,1,1,2,2,3,3,4,4,5,5,6,6,7,7,8,8,9,9,10,10,11,11,12,12,13,13,14,14,15,15,16,16,17,17,18,18,19,19,20,20,21,21,22,22,23,23,24,24,25,25,26,26,27,27,28,28,29,29,30,30],"right_children":[2,4,6,8,10,12,14,16,18,20,22,24,26,28,30,32,34,36,38,40,42,44,46,48,50,52,54,56,58,60,62,-1,-1,-1,-1,-1,-1,-1,-1,-1,-1,-1,-1,-1,-1,-1,-1,-1,-1,-1,-1,-1,-1,-1,-1,-1,-1,-1,-1,-1,-1,-1,-1],"split_conditions":[3E0,1E1,1.4E1,1.9E1,1E0,3.3E1,1.9E1,8E0,2.8E1,2E1,1.8E1,2.3E1,1.2E1,1.1E1,2.4E1,2.5E1,4E0,2.2E1,2E0,3E0,3.1E1,1.7E1,2.2E1,1.9E1,4E0,2.5E1,3.1E1,1E1,2E0,4E0,4E0,-1.2318782E-2,1.9830711E-2,-1.8767495E-2,-7.6352917E-3,1.0233937E-2,-8.934908E-3,-3.8974613E-3,1.6645266E-2,-2.2426581E-2,-6.418378E-2,-5.0155087E-3,7.989454E-3,5.9389244E-3,-4.3986276E-2,1.6189558E-2,8.4139155E-3,-4.6364594E-2,-1.549239E-2,-9.470559E-3,-1.827684E-2,-3.269486E-2,1.6548505E-2,4.7632348E-2,-1.8173484E-3,-7.0587876E-3,6.9150026E-3,-3.1083612E-2,-1.50104705E-2,-2.1290755E-2,2.4304936E-2,9.345475E-3,-2.1252586E-3],"split_indices":[7,5,5,4,1,4,4,4,4,0,4,0,5,4,0,0,3,4,2,3,0,4,4,4,7,0,0,4,2,7,7,0,0,0,0,0,0,0,0,0,0,0,0,0,0,0,0,0,0,0,0,0,0,0,0,0,0,0,0,0,0,0,0],"split_type":[0,0,0,0,0,0,0,0,0,0,0,0,0,0,0,0,0,0,0,0,0,0,0,0,0,0,0,0,0,0,0,0,0,0,0,0,0,0,0,0,0,0,0,0,0,0,0,0,0,0,0,0,0,0,0,0,0,0,0,0,0,0,0],"sum_hessian":[1.1808855E4,8.1235674E3,3.6852878E3,1.3412794E3,6.7822876E3,1.103567E3,2.5817207E3,7.71754E2,5.695254E2,1.05548E3,5.726808E3,1.0754243E3,2.8142715E1,1.7981262E3,7.835946E2,1.3766312E2,6.340909E2,3.875126E2,1.8201279E2,4.098786E1,1.01449207E3,2.8983472E3,2.8284607E3,4.5705532E1,1.0297188E3,2.1781841E1,6.3608756E0,1.2493033E3,5.488229E2,4.221563E1,7.4137897E2,5.296157E1,8.470155E1,4.9936136E2,1.3472955E2,1.31763E2,2.5574959E2,6.419407E1,1.1781872E2,3.4455097E1,6.532765E0,9.0641504E2,1.08077034E2,2.7498696E3,1.4847755E2,8.5636005E2,1.9721007E3,2.9824749E1,1.5880781E1,5.0776294E2,5.219558E2,2.8801088E0,1.8901731E1,4.7183213E0,1.642554E0,8.980821E2,3.5122122E2,6.432798E1,4.844949E2,3.8644524E1,3.5711076E0,4.3592087E2,3.0545807E2],"tree_param":{"num_deleted":"0","num_feature":"8","num_nodes":"63","size_leaf_vector":"1"}},{"base_weights":[9.200109E-4,-1.412913E-1,6.1879296E-2,-2.1123901E-1,-4.0542693E-3,4.7446686E-1,4.6596333E-2,-1.344244E-1,-3.3470228E-1,1.2629622E-1,-9.269064E-2,3.2162493E-1,6.280072E-1,-3.9642554E-2,1.4915904E-1,-2.4952188E-1,1.5205303E-2,-4.342093E-1,-1.3369058E-1,2.0116316E-2,3.8003412E-1,-1.9472943E-1,6.9600027E-3,2.1913484E-1,6.0529006E-1,6.818627E-1,2.296014E-1,-3.2374852E-3,-7.151836E-1,-7.4540013E-3,2.1835434E-1,-2.9088564E-3,-1.634301E-2,-5.4760934E-3,5.8320533E-3,-3.0389646E-2,-1.6131368E-2,-3.7952743E-3,-4.1862633E-2,1.6430758E-2,-4.5645335E-3,2.0337654E-2,-2.1695886E-2,-8.117076E-3,-2.4965815E-2,4.4243336E-3,-1.2442007E-2,-1.1555306E-2,1.7517643E-2,-1.8199822E-2,3.4781016E-2,2.9645488E-2,4.0716395E-2,3.1278305E-2,-9.965855E-3,-7.953318E-3,2.7051917E-3,-5.0873723E-2,-9.629777E-3,8.030048E-3,-6.93706E-3,9.118962E-3,2.0517377E-2],"categories":[],"categories_nodes":[],"categories_segments":[],"categories_sizes":[],"default_left":[0,0,0,0,0,0,0,0,0,0,0,0,0,0,0,0,0,0,0,0,0,0,0,0,0,0,0,0,0,0,0,0,0,0,0,0,0,0,0,0,0,0,0,0,0,0,0,0,0,0,0,0,0,0,0,0,0,0,0,0,0,0,0],"id":24,"left_children":[1,3,5,7,9,11,13,15,17,19,21,23,25,27,29,31,33,35,37,39,41,43,45,47,49,51,53,55,57,59,61,-1,-1,-1,-1,-1,-1,-1,-1,-1,-1,-1,-1,-1,-1,-1,-1,-1,-1,-1,-1,-1,-1,-1,-1,-1,-1,-1,-1,-1,-1,-1,-1],"loss_changes":[1.0230148E2,3.398764E1,5.2061867E1,2.2197258E1,1.3834559E1,6.719208E0,7.046509E1,2.4931787E1,1.7920654E1,1.3050279E1,7.2484617E0,4.223922E0,2.977745E0,1.0644176E2,3.9435722E1,1.2088768E1,7.986716E0,1.1440208E1,1.2095152E1,1.1809704E1,3.284874E0,3.3931255E0,7.561878E0,6.6769423E0,3.6857786E0,1.0274849E0,3.3350585E0,3.6714375E1,3.476619E1,2.4646032E1,1.7357231E1,0E0,0E0,0E0,0E0,0E0,0E0,0E0,0E0,0E0,0E0,0E0,0E0,0E0,0E0,0E0,0E0,0E0,0E0,0E0,0E0,0E0,0E0,0E0,0E0,0E0,0E0,0E0,0E0,0E0,0E0,0E0,0E0],"parents":[2147483647,0,0,1,1,2,2,3,3,4,4,5,5,6,6,7,7,8,8,9,9,10,10,11,11,12,12,13,13,14,14,15,15,16,16,17,17,18,18,19,19,20,20,21,21,22,22,23,23,24,24,25,25,26,26,27,27,28,28,29,29,30,30],"right_children":[2,4,6,8,10,12,14,16,18,20,22,24,26,28,30,32,34,36,38,40,42,44,46,48,50,52,54,56,58,60,62,-1,-1,-1,-1,-1,-1,-1,-1,-1,-1,-1,-1,-1,-1,-1,-1,-1,-1,-1,-1,-1,-1,-1,-1,-1,-1,-1,-1,-1,-1,-1,-1],"split_conditions":[2E0,1.9E1,3E0,1.2E1,2.2E1,4E0,1.8E1,1E1,1.8E1,2.1E1,2E1,3.2E1,3.5E1,1.7E1,2E0,9E0,1.8E1,1.7E1,5E0,2E1,3.9E1,5E0,3.2E1,1E0,2E0,2E0,2E0,1.3E1,4E0,2E0,3.3E1,-2.9088564E-3,-1.634301E-2,-5.4760934E-3,5.8320533E-3,-3.0389646E-2,-1.6131368E-2,-3.7952743E-3,-4.1862633E-2,1.6430758E-2,-4.5645335E-3,2.0337654E-2,-2.1695886E-2,-8.117076E-3,-2.4965815E-2,4.4243336E-3,-1.2442007E-2,-1.1555306E-2,1.7517643E-2,-1.8199822E-2,3.4781016E-2,2.9645488E-2,4.0716395E-2,3.1278305E-2,-9.965855E-3,-7.953318E-3,2.7051917E-3,-5.0873723E-2,-9.629777E-3,8.030048E-3,-6.93706E-3,9.118962E-3,2.0517377E-2],"split_indices":[3,4,4,4,4,3,4,4,4,4,5,0,0,4,2,4,5,5,7,4,0,7,5,1,2,4,6,5,7,7,4,0,0,0,0,0,0,0,0,0,0,0,0,0,0,0,0,0,0,0,0,0,0,0,0,0,0,0,0,0,0,0,0],"split_type":[0,0,0,0,0,0,0,0,0,0,0,0,0,0,0,0,0,0,0,0,0,0,0,0,0,0,0,0,0,0,0,0,0,0,0,0,0,0,0,0,0,0,0,0,0,0,0,0,0,0,0,0,0,0,0,0,0,0,0,0,0,0,0],"sum_hessian":[1.1798694E4,3.5396836E3,8.259011E3,2.3442927E3,1.1953909E3,2.939276E2,7.9650835E3,1.4464502E3,8.9784265E2,4.8367032E2,7.117205E2,1.488497E2,1.450779E2,4.327206E3,3.6378772E3,8.1718854E2,6.292616E2,5.9977527E2,2.980674E2,3.417429E2,1.4192743E2,3.511752E2,3.6054532E2,1.1064532E2,3.8204388E1,1.2717518E2,1.7902718E1,4.1068896E3,2.2031647E2,1.1150419E3,2.5228354E3,2.3572572E2,5.814628E2,2.8219278E2,3.4706885E2,2.3294499E2,3.6683026E2,2.7646835E2,2.1599062E1,9.015196E1,2.5159091E2,1.3790094E2,4.026488E0,3.1880807E2,3.2367123E1,2.739031E2,8.664222E1,2.4797575E1,8.584774E1,2.99858E0,3.5205807E1,7.93596E1,4.7815582E1,9.070568E0,8.832149E0,1.104248E3,3.0026418E3,1.3897781E2,8.133865E1,4.8894354E2,6.260983E2,2.1263555E3,3.9648E2],"tree_param":{"num_deleted":"0","num_feature":"8","num_nodes":"63","size_leaf_vector":"1"}},{"base_weights":[9.1471546E-4,-1.6274361E-1,5.166936E-2,-2.834352E-1,-1.04495585E-1,-1.6878178E-2,1.5265194E-1,-3.8210955E-1,-2.1129411E-1,-7.719956E-2,-3.6736488E-1,1.9637418E-1,-1.0019132E-1,5.888945E-1,1.2829034E-1,-6.310776E-1,-3.4086213E-1,-2.2615819E-1,6.4029735E-1,-8.83659E-2,4.23313E-1,-6.815027E-1,-2.602559E-1,4.4583598E-1,1.4259993E-1,-3.9063355E-1,-7.0792414E-2,4.2247772E-1,6.7075413E-1,-3.3252362E-2,1.6987206E-1,-6.1048057E-2,-2.7898083E-2,-3.0280003E-2,-1.5501767E-2,-1.0084163E-2,-2.5539193E-2,1.2825968E-3,4.246951E-2,-3.4387035E-3,-1.4042928E-2,1.257437E-2,4.2015716E-2,-8.395443E-3,-4.143686E-2,-1.4684716E-2,2.6248604E-2,1.595076E-2,3.2588642E-2,-6.854192E-4,9.87692E-3,-2.4108537E-2,-1.3988541E-2,-8.6635974E-4,