{"learner":{"attributes":{"scikit_learn":"{\"_estimator_type\": \"classifier\"}"},"feature_names":["v012","v106","v025","v190","v101","b19","b4","bord"],"feature_types":["int","int","int","int","int","int","int","int"],"gradient_booster":{"model":{"cats":{"enc":[],"feature_segments":[],"sorted_idx":[]},"gbtree_model_param":{"num_parallel_tree":"1","num_trees":"200"},"iteration_indptr":[0,1,2,3,4,5,6,7,8,9,10,11,12,13,14,15,16,17,18,19,20,21,22,23,24,25,26,27,28,29,30,31,32,33,34,35,36,37,38,39,40,41,42,43,44,45,46,47,48,49,50,51,52,53,54,55,56,57,58,59,60,61,62,63,64,65,66,67,68,69,70,71,72,73,74,75,76,77,78,79,80,81,82,83,84,85,86,87,88,89,90,91,92,93,94,95,96,97,98,99,100,101,102,103,104,105,106,107,108,109,110,111,112,113,114,115,116,117,118,119,120,121,122,123,124,125,126,127,128,129,130,131,132,133,134,135,136,137,138,139,140,141,142,143,144,145,146,147,148,149,150,151,152,153,154,155,156,157,158,159,160,161,162,163,164,165,166,167,168,169,170,171,172,173,174,175,176,177,178,179,180,181,182,183,184,185,186,187,188,189,190,191,192,193,194,195,196,197,198,199,200],"tree_info":[0,0,0,0,0,0,0,0,0,0,0,0,0,0,0,0,0,0,0,0,0,0,0,0,0,0,0,0,0,0,0,0,0,0,0,0,0,0,0,0,0,0,0,0,0,0,0,0,0,0,0,0,0,0,0,0,0,0,0,0,0,0,0,0,0,0,0,0,0,0,0,0,0,0,0,0,0,0,0,0,0,0,0,0,0,0,0,0,0,0,0,0,0,0,0,0,0,0,0,0,0,0,0,0,0,0,0,0,0,0,0,0,0,0,0,0,0,0,0,0,0,0,0,0,0,0,0,0,0,0,0,0,0,0,0,0,0,0,0,0,0,0,0,0,0,0,0,0,0,0,0,0,0,0,0,0,0,0,0,0,0,0,0,0,0,0,0,0,0,0,0,0,0,0,0,0,0,0,0,0,0,0,0,0,0,0,0,0,0,0,0,0,0,0,0,0,0,0,0,0],"trees":[{"base_weights":[-1.1408679E-7,-1.9902539E0,6.55208E-2,-2.1533663E0,-7.7949804E-1,-8.934101E-2,3.3572593E-1,-2.3754687E0,-1.5865984E0,-1.0052474E0,2.4795732E-1,5.869982E-2,-3.891278E-1,8.343669E-2,4.175197E-1,-5.98964E-1,-2.4209495E0,-1.0625331E0,-2.0414054E0,3.6291942E-1,-1.1565088E0,-2.4481434E-3,5.4977834E-1,-1.6744971E-1,2.0088649E-1,-8.1223744E-1,-3.475799E-2,6.256834E-1,-8.729633E-3,4.551151E-1,9.936545E-2,-8.985328E-2,5.230472E-3,-1.2887983E-1,-9.876462E-2,-5.8210142E-2,2.3826977E-2,1.6201233E-2,-1.07049875E-1,-1.055338E-2,3.5938792E-2,-6.424632E-2,-2.3451561E-2,-1.8748429E-2,1.3848466E-2,3.3334542E-2,8.780443E-3,-4.863498E-2,-5.6904797E-3,2.5882903E-2,5.2947723E-3,-7.1858205E-2,-2.576913E-2,-6.5504245E-2,2.4252536E-3,3.249172E-2,-3.3607297E-2,-2.2547835E-2,2.4576557E-3,4.0696426E-3,2.4073293E-2,1.01324655E-2,-6.335564E-3],"categories":[],"categories_nodes":[],"categories_segments":[],"categories_sizes":[],"default_left":[0,0,0,0,0,0,0,0,0,0,0,0,0,0,0,0,0,0,0,0,0,0,0,0,0,0,0,0,0,0,0,0,0,0,0,0,0,0,0,0,0,0,0,0,0,0,0,0,0,0,0,0,0,0,0,0,0,0,0,0,0,0,0],"id":0,"left_children":[1,3,5,7,9,11,13,15,17,19,21,23,25,27,29,31,33,35,37,39,41,43,45,47,49,51,53,55,57,59,61,-1,-1,-1,-1,-1,-1,-1,-1,-1,-1,-1,-1,-1,-1,-1,-1,-1,-1,-1,-1,-1,-1,-1,-1,-1,-1,-1,-1,-1,-1,-1,-1],"loss_changes":[1.3371656E3,6.286377E1,4.1543106E2,3.241504E1,9.612602E0,2.8012366E2,7.460333E1,1.5073242E1,1.7837952E1,7.3100243E0,6.1156034E-1,1.3591685E2,3.1281586E2,4.43244E1,3.262256E1,5.611257E0,8.805908E0,6.9838066E0,1.1024796E1,9.841912E-1,2.0651627E0,6.6681224E-1,4.3273807E-2,7.0373405E1,7.803018E1,1.756756E2,1.2074915E2,4.4752655E0,1.9449099E1,2.4011719E1,6.7950172E0,0E0,0E0,0E0,0E0,0E0,0E0,0E0,0E0,0E0,0E0,0E0,0E0,0E0,0E0,0E0,0E0,0E0,0E0,0E0,0E0,0E0,0E0,0E0,0E0,0E0,0E0,0E0,0E0,0E0,0E0,0E0,0E0],"parents":[2147483647,0,0,1,1,2,2,3,3,4,4,5,5,6,6,7,7,8,8,9,9,10,10,11,11,12,12,13,13,14,14,15,15,16,16,17,17,18,18,19,19,20,20,21,21,22,22,23,23,24,24,25,25,26,26,27,27,28,28,29,29,30,30],"right_children":[2,4,6,8,10,12,14,16,18,20,22,24,26,28,30,32,34,36,38,40,42,44,46,48,50,52,54,56,58,60,62,-1,-1,-1,-1,-1,-1,-1,-1,-1,-1,-1,-1,-1,-1,-1,-1,-1,-1,-1,-1,-1,-1,-1,-1,-1,-1,-1,-1,-1,-1,-1,-1],"split_conditions":[3E0,2.8E1,2.1E1,4E0,2.9E1,1.2E1,2E0,3E0,2E0,2E1,5E0,2E0,1.8E1,2.2E1,3.5E1,1E0,2.1E1,3.1E1,2E0,4E0,2.7E1,3.3E1,2E0,5E0,6E0,2E0,5E0,7E0,7E0,5E0,2.5E1,-8.985328E-2,5.230472E-3,-1.2887983E-1,-9.876462E-2,-5.8210142E-2,2.3826977E-2,1.6201233E-2,-1.07049875E-1,-1.055338E-2,3.5938792E-2,-6.424632E-2,-2.3451561E-2,-1.8748429E-2,1.3848466E-2,3.3334542E-2,8.780443E-3,-4.863498E-2,-5.6904797E-3,2.5882903E-2,5.2947723E-3,-7.1858205E-2,-2.576913E-2,-6.5504245E-2,2.4252536E-3,3.249172E-2,-3.3607297E-2,-2.2547835E-2,2.4576557E-3,4.0696426E-3,2.4073293E-2,1.01324655E-2,-6.335564E-3],"split_indices":[5,4,4,3,0,4,1,4,7,0,3,1,4,4,4,1,4,0,4,3,0,4,6,5,4,1,5,7,5,5,5,0,0,0,0,0,0,0,0,0,0,0,0,0,0,0,0,0,0,0,0,0,0,0,0,0,0,0,0,0,0,0,0],"split_type":[0,0,0,0,0,0,0,0,0,0,0,0,0,0,0,0,0,0,0,0,0,0,0,0,0,0,0,0,0,0,0,0,0,0,0,0,0,0,0,0,0,0,0,0,0,0,0,0,0,0,0,0,0,0,0,0,0,0,0,0,0,0,0],"sum_hessian":[1.0252082E4,3.2581442E2,9.926268E3,2.8644604E2,3.936839E1,6.3103223E3,3.6159456E3,2.0350586E2,8.294017E1,3.229438E1,7.074007E0,4.2248228E3,2.0854993E3,8.8578876E2,2.7301567E3,5.4336576E0,1.980722E2,4.008604E1,4.285413E1,3.0756552E0,2.9218725E1,4.408439E0,2.6655679E0,1.630815E3,2.5940078E3,9.499674E2,1.135532E3,1.2784474E2,7.57944E2,2.4412502E3,2.8890656E2,1.4353058E0,3.9983518E0,1.4301797E2,5.505423E1,3.783056E1,2.2554805E0,1.6403495E0,4.1213783E1,1.3327839E0,1.7428714E0,2.388759E1,5.3311357E0,1.7428714E0,2.6655679E0,1.4353058E0,1.2302622E0,1.0077898E2,1.530036E3,5.973948E2,1.9966129E3,3.0469492E2,6.4527246E2,6.868964E1,1.0668423E3,1.25999344E2,1.8453932E0,8.693852E1,6.710055E2,1.6106181E2,2.2801882E3,1.9837978E2,9.052679E1],"tree_param":{"num_deleted":"0","num_feature":"8","num_nodes":"63","size_leaf_vector":"1"}},{"base_weights":[2.4871627E-4,-1.752121E0,6.255784E-2,-1.876699E0,-6.55568E-1,-8.4420666E-2,3.2324493E-1,-1.9942639E0,-1.1132411E0,-8.439259E-1,1.9356713E-1,2.3253794E-1,-2.0874643E-1,7.957354E-2,4.03268E-1,-1.4267966E0,-2.1353304E0,-7.3563516E-1,-1.5053264E0,2.3460248E-2,-9.6248037E-1,-7.2794385E-2,5.2391E-1,-1.9466847E-1,3.322767E-1,-1.055135E0,-1.4955418E-1,6.0931236E-1,-8.292216E-3,4.4022223E-1,9.48015E-2,-1.8665377E-2,-7.6831155E-2,-9.9009655E-2,-1.38916E-1,-7.433333E-2,2.5613646E-3,-4.3320943E-2,-1.06813096E-1,-5.9859898E-2,-3.1894E-2,-2.7468687E-2,1.3451285E-2,3.1835496E-2,8.570909E-3,-2.1802241E-2,1.427614E-3,3.0587805E-2,1.3119871E-2,-4.858562E-2,-9.6610665E-2,-1.6982552E-2,-1.2117096E-3,3.1677827E-2,-3.1963762E-2,-2.1060927E-2,2.3394858E-3,3.8797986E-3,2.3309415E-2,2.8910653E-3,3.6903303E-2],"categories":[],"categories_nodes":[],"categories_segments":[],"categories_sizes":[],"default_left":[0,0,0,0,0,0,0,0,0,0,0,0,0,0,0,0,0,0,0,0,0,0,0,0,0,0,0,0,0,0,0,0,0,0,0,0,0,0,0,0,0,0,0,0,0,0,0,0,0,0,0,0,0,0,0,0,0,0,0,0,0],"id":1,"left_children":[1,3,5,7,9,11,13,15,17,19,21,23,25,27,29,31,33,35,37,-1,39,41,43,45,47,49,51,53,55,57,59,-1,-1,-1,-1,-1,-1,-1,-1,-1,-1,-1,-1,-1,-1,-1,-1,-1,-1,-1,-1,-1,-1,-1,-1,-1,-1,-1,-1,-1,-1],"loss_changes":[1.1197467E3,4.687207E1,3.7946594E2,2.6112427E1,6.154745E0,2.496239E2,6.959253E1,1.8749146E1,5.464161E0,5.2535725E0,7.08126E-1,7.611437E1,2.2777512E2,4.1150074E1,3.0595154E1,6.0471344E0,1.6050232E1,1.4593822E1,6.541767E0,0E0,1.4168015E0,9.775301E-1,3.0852199E-2,1.8248606E1,2.8106293E1,1.9868988E1,1.0131969E2,4.212322E0,1.7287369E1,2.256073E1,6.827499E0,0E0,0E0,0E0,0E0,0E0,0E0,0E0,0E0,0E0,0E0,0E0,0E0,0E0,0E0,0E0,0E0,0E0,0E0,0E0,0E0,0E0,0E0,0E0,0E0,0E0,0E0,0E0,0E0,0E0,0E0],"parents":[2147483647,0,0,1,1,2,2,3,3,4,4,5,5,6,6,7,7,8,8,9,9,10,10,11,11,12,12,13,13,14,14,15,15,16,16,17,17,18,18,20,20,21,21,22,22,23,23,24,24,25,25,26,26,27,27,28,28,29,29,30,30],"right_children":[2,4,6,8,10,12,14,16,18,20,22,24,26,28,30,32,34,36,38,-1,40,42,44,46,48,50,52,54,56,58,60,-1,-1,-1,-1,-1,-1,-1,-1,-1,-1,-1,-1,-1,-1,-1,-1,-1,-1,-1,-1,-1,-1,-1,-1,-1,-1,-1,-1,-1,-1],"split_conditions":[3E0,2.9E1,2.1E1,3E0,2.9E1,9E0,2E0,9E0,2E0,2E1,5E0,1E0,5E0,2.2E1,3.5E1,2E0,4E0,2.7E1,2E0,2.3460248E-2,4E0,3.3E1,2E0,8E0,3E0,5E0,2E0,7E0,7E0,5E0,3.7E1,-1.8665377E-2,-7.6831155E-2,-9.9009655E-2,-1.38916E-1,-7.433333E-2,2.5613646E-3,-4.3320943E-2,-1.06813096E-1,-5.9859898E-2,-3.1894E-2,-2.7468687E-2,1.3451285E-2,3.1835496E-2,8.570909E-3,-2.1802241E-2,1.427614E-3,3.0587805E-2,1.3119871E-2,-4.858562E-2,-9.6610665E-2,-1.6982552E-2,-1.2117096E-3,3.1677827E-2,-3.1963762E-2,-2.1060927E-2,2.3394858E-3,3.8797986E-3,2.3309415E-2,2.8910653E-3,3.6903303E-2],"split_indices":[5,4,4,1,0,4,1,4,6,0,3,1,5,4,4,4,7,0,7,0,3,4,6,4,4,7,1,7,5,5,4,0,0,0,0,0,0,0,0,0,0,0,0,0,0,0,0,0,0,0,0,0,0,0,0,0,0,0,0,0,0],"split_type":[0,0,0,0,0,0,0,0,0,0,0,0,0,0,0,0,0,0,0,0,0,0,0,0,0,0,0,0,0,0,0,0,0,0,0,0,0,0,0,0,0,0,0,0,0,0,0,0,0,0,0,0,0,0,0,0,0,0,0,0,0],"sum_hessian":[1.0253155E4,3.5112292E2,9.902032E3,3.14663E2,3.6459923E1,6.3324165E3,3.5696162E3,2.712769E2,4.3386112E1,2.984561E1,6.614315E0,1.7838253E3,4.548591E3,8.829665E2,2.68665E3,5.6223026E1,2.1505388E2,2.3566303E1,1.9819807E1,2.2265234E0,2.7619085E1,4.093384E0,2.520931E0,3.3745743E2,1.4463679E3,2.9621365E2,4.2523774E3,1.24774124E2,7.581923E2,2.398842E3,2.8780786E2,5.723227E0,5.0499798E1,1.7653908E2,3.851479E1,1.1602645E1,1.1963658E1,1.10268545E1,8.792953E0,1.4468639E1,1.3150447E1,1.4560703E0,2.6373136E0,1.298947E0,1.221984E0,1.6167703E2,1.7578041E2,2.8775378E2,1.1586141E3,2.7241138E2,2.3802292E1,1.6888557E3,2.5635217E3,1.228807E2,1.8934262E0,8.845264E1,6.697397E2,1.6055896E2,2.238283E3,2.7319238E2,1.4615483E1],"tree_param":{"num_deleted":"0","num_feature":"8","num_nodes":"61","size_leaf_vector":"1"}},{"base_weights":[4.0474508E-4,-1.1368064E0,8.454413E-2,-1.560936E0,-6.545646E-1,-7.6165855E-2,3.0058262E-1,-1.6716728E0,-6.613087E-1,-1.196595E0,-4.2329597E-1,8.485792E-2,-5.430277E-1,-1.3547447E-2,3.5996094E-1,-1.904069E0,-1.3866218E0,-8.450984E-1,2.40781E-1,-1.3638142E0,-7.0656645E-1,-6.4249396E-1,-5.563471E-2,-1.128307E-1,2.137094E-1,-9.632658E-1,-3.4162563E-1,-3.5683474E-1,3.693116E-2,6.9571304E-1,3.3753395E-1,-1.0401543E-1,-6.963562E-2,-6.0911473E-2,-9.4740674E-2,1.7986849E-2,-4.8444193E-2,2.2716126E-4,2.6609853E-2,-5.3890217E-2,-1.0008242E-1,2.0904878E-2,-4.05682E-2,2.9059133E-2,-3.606714E-2,7.679687E-3,-1.2877244E-2,-1.0442124E-2,5.3663393E-3,2.5188226E-2,6.4502545E-3,-6.0917962E-2,-1.7905198E-2,-2.9577276E-2,-1.032404E-2,-4.014541E-2,-1.0763249E-2,2.4829668E-3,-5.4637946E-2,-9.297542E-3,3.761798E-2,-4.669526E-3,1.9145833E-2],"categories":[],"categories_nodes":[],"categories_segments":[],"categories_sizes":[],"default_left":[0,0,0,0,0,0,0,0,0,0,0,0,0,0,0,0,0,0,0,0,0,0,0,0,0,0,0,0,0,0,0,0,0,0,0,0,0,0,0,0,0,0,0,0,0,0,0,0,0,0,0,0,0,0,0,0,0,0,0,0,0,0,0],"id":2,"left_children":[1,3,5,7,9,11,13,15,17,19,21,23,25,27,29,31,33,35,37,39,41,43,45,47,49,51,53,55,57,59,61,-1,-1,-1,-1,-1,-1,-1,-1,-1,-1,-1,-1,-1,-1,-1,-1,-1,-1,-1,-1,-1,-1,-1,-1,-1,-1,-1,-1,-1,-1,-1,-1],"loss_changes":[9.81182E2,1.4346625E2,3.3152307E2,3.626648E1,4.1147568E1,4.1169882E2,7.597803E1,1.9443726E1,7.294533E0,7.1347046E0,1.885955E1,1.0375874E2,1.1853848E2,1.1250461E1,2.55596E1,1.341156E1,1.0819183E1,5.680752E0,5.495188E-1,1.1088654E1,3.547392E0,1.458255E1,3.7853732E0,3.4003754E1,6.0517197E1,6.972131E1,3.199736E1,5.08288E0,8.196371E0,1.0805168E1,6.2871857E1,0E0,0E0,0E0,0E0,0E0,0E0,0E0,0E0,0E0,0E0,0E0,0E0,0E0,0E0,0E0,0E0,0E0,0E0,0E0,0E0,0E0,0E0,0E0,0E0,0E0,0E0,0E0,0E0,0E0,0E0,0E0,0E0],"parents":[2147483647,0,0,1,1,2,2,3,3,4,4,5,5,6,6,7,7,8,8,9,9,10,10,11,11,12,12,13,13,14,14,15,15,16,16,17,17,18,18,19,19,20,20,21,21,22,22,23,23,24,24,25,25,26,26,27,27,28,28,29,29,30,30],"right_children":[2,4,6,8,10,12,14,16,18,20,22,24,26,28,30,32,34,36,38,40,42,44,46,48,50,52,54,56,58,60,62,-1,-1,-1,-1,-1,-1,-1,-1,-1,-1,-1,-1,-1,-1,-1,-1,-1,-1,-1,-1,-1,-1,-1,-1,-1,-1,-1,-1,-1,-1,-1,-1],"split_conditions":[4E0,3E0,1.9E1,2.8E1,2E0,1.2E1,1E0,3E0,2.9E1,2.1E1,2.1E1,2E0,2E0,8E0,2E1,2.1E1,3E0,2E1,5E0,1.2E1,2E1,3E0,2E0,1E1,6E0,1.8E1,1.5E1,2E0,8E0,6E0,2.1E1,-1.0401543E-1,-6.963562E-2,-6.0911473E-2,-9.4740674E-2,1.7986849E-2,-4.8444193E-2,2.2716126E-4,2.6609853E-2,-5.3890217E-2,-1.0008242E-1,2.0904878E-2,-4.05682E-2,2.9059133E-2,-3.606714E-2,7.679687E-3,-1.2877244E-2,-1.0442124E-2,5.3663393E-3,2.5188226E-2,6.4502545E-3,-6.0917962E-2,-1.7905198E-2,-2.9577276E-2,-1.032404E-2,-4.014541E-2,-1.0763249E-2,2.4829668E-3,-5.4637946E-2,-9.297542E-3,3.761798E-2,-4.669526E-3,1.9145833E-2],"split_indices":[5,5,4,4,1,4,1,3,0,4,4,1,1,5,4,4,7,0,3,4,0,4,7,4,4,4,5,7,7,5,4,0,0,0,0,0,0,0,0,0,0,0,0,0,0,0,0,0,0,0,0,0,0,0,0,0,0,0,0,0,0,0,0],"split_type":[0,0,0,0,0,0,0,0,0,0,0,0,0,0,0,0,0,0,0,0,0,0,0,0,0,0,0,0,0,0,0,0,0,0,0,0,0,0,0,0,0,0,0,0,0,0,0,0,0,0,0,0,0,0,0,0,0,0,0,0,0,0,0],"sum_hessian":[1.025237E4,7.0542847E2,9.546941E3,3.7413846E2,3.3129004E2,5.4748643E3,4.0720774E3,3.323684E2,4.1770035E1,9.782977E1,2.3346027E2,4.0714219E3,1.4034424E3,6.4747943E2,3.424598E3,1.7996605E2,1.5240237E2,3.475276E1,7.01727E0,7.161012E1,2.6219648E1,1.4579214E2,8.766812E1,1.6066167E3,2.4648052E3,4.5346863E2,9.4997375E2,8.2225266E1,5.6525415E2,2.1254773E2,3.2120503E3,1.3155667E2,4.8409378E1,1.1702321E2,3.5379166E1,3.0602694E0,3.1692493E1,4.43644E0,2.5808303E0,5.1297638E1,2.0312485E1,1.9800978E0,2.423955E1,8.43992E0,1.3735222E2,4.3171333E1,4.449679E1,1.1187678E3,4.8784882E2,5.5598486E2,1.9088202E3,3.1828775E2,1.3518088E2,3.3222375E2,6.1775E2,1.8683569E1,6.35417E1,5.599018E2,5.3523498E0,1.2693875E1,1.9985385E2,3.0594446E2,2.9061057E3],"tree_param":{"num_deleted":"0","num_feature":"8","num_nodes":"63","size_leaf_vector":"1"}},{"base_weights":[5.623601E-4,-1.0359603E0,8.071014E-2,-1.4018799E0,-6.068418E-1,-7.201844E-2,2.890229E-1,-1.4903916E0,-5.603806E-1,-1.088977E0,-3.9547345E-1,8.09399E-2,-5.05098E-1,-1.2990081E-2,3.4693626E-1,-1.0532322E0,-1.6108968E0,-7.8596985E-1,-3.7048925E-2,-9.628614E-1,-1.735133E0,-5.953286E-1,-5.275711E-2,-1.0669811E-1,2.0478827E-1,-8.8208324E-1,-3.202528E-1,-3.3500147E-1,3.5057876E-2,6.79474E-1,3.2502398E-1,-3.885042E-2,-6.666602E-2,-7.477913E-2,-1.0701956E-1,2.254502E-2,-4.5465525E-2,-3.857289E-2,5.090146E-3,7.953775E-3,-5.104029E-2,-1.7889274E-2,-9.413849E-2,-8.076194E-3,-3.9811756E-2,7.3478594E-3,-1.2126463E-2,-9.839721E-3,5.120002E-3,2.4417497E-2,6.159203E-3,-5.526414E-2,-1.6781418E-2,-3.0711157E-2,-1.0779435E-2,-3.712096E-2,-1.0149038E-2,2.3636634E-3,-5.048112E-2,-8.807518E-3,3.682142E-2,-4.420568E-3,1.846878E-2],"categories":[],"categories_nodes":[],"categories_segments":[],"categories_sizes":[],"default_left":[0,0,0,0,0,0,0,0,0,0,0,0,0,0,0,0,0,0,0,0,0,0,0,0,0,0,0,0,0,0,0,0,0,0,0,0,0,0,0,0,0,0,0,0,0,0,0,0,0,0,0,0,0,0,0,0,0,0,0,0,0,0,0],"id":3,"left_children":[1,3,5,7,9,11,13,15,17,19,21,23,25,27,29,31,33,35,37,39,41,43,45,47,49,51,53,55,57,59,61,-1,-1,-1,-1,-1,-1,-1,-1,-1,-1,-1,-1,-1,-1,-1,-1,-1,-1,-1,-1,-1,-1,-1,-1,-1,-1,-1,-1,-1,-1,-1,-1],"loss_changes":[8.517076E2,1.1469391E2,3.0278876E2,2.8690125E1,3.426287E1,3.6381915E2,7.041913E1,1.7166931E1,4.6140585E0,6.738289E0,1.6287155E1,9.434999E1,9.960651E1,1.0049017E1,2.4394348E1,5.173874E0,1.3822632E1,4.5951366E0,1.3936247E0,5.9213104E0,2.4995232E0,1.2978806E1,3.4032996E0,3.0437086E1,5.652893E1,5.7081787E1,2.9510025E1,4.3849926E0,7.2630568E0,1.0262009E1,5.8181488E1,0E0,0E0,0E0,0E0,0E0,0E0,0E0,0E0,0E0,0E0,0E0,0E0,0E0,0E0,0E0,0E0,0E0,0E0,0E0,0E0,0E0,0E0,0E0,0E0,0E0,0E0,0E0,0E0,0E0,0E0,0E0,0E0],"parents":[2147483647,0,0,1,1,2,2,3,3,4,4,5,5,6,6,7,7,8,8,9,9,10,10,11,11,12,12,13,13,14,14,15,15,16,16,17,17,18,18,19,19,20,20,21,21,22,22,23,23,24,24,25,25,26,26,27,27,28,28,29,29,30,30],"right_children":[2,4,6,8,10,12,14,16,18,20,22,24,26,28,30,32,34,36,38,40,42,44,46,48,50,52,54,56,58,60,62,-1,-1,-1,-1,-1,-1,-1,-1,-1,-1,-1,-1,-1,-1,-1,-1,-1,-1,-1,-1,-1,-1,-1,-1,-1,-1,-1,-1,-1,-1,-1,-1],"split_conditions":[4E0,3E0,1.9E1,2.9E1,2E0,1.2E1,1E0,9E0,2.7E1,5E0,2.1E1,2E0,2E0,8E0,2E1,2E0,4E0,2E1,2E0,6E0,2.7E1,9E0,2E0,1E1,6E0,1.8E1,1.4E1,2E0,8E0,6E0,2.1E1,-3.885042E-2,-6.666602E-2,-7.477913E-2,-1.0701956E-1,2.254502E-2,-4.5465525E-2,-3.857289E-2,5.090146E-3,7.953775E-3,-5.104029E-2,-1.7889274E-2,-9.413849E-2,-8.076194E-3,-3.9811756E-2,7.3478594E-3,-1.2126463E-2,-9.839721E-3,5.120002E-3,2.4417497E-2,6.159203E-3,-5.526414E-2,-1.6781418E-2,-3.0711157E-2,-1.0779435E-2,-3.712096E-2,-1.0149038E-2,2.3636634E-3,-5.048112E-2,-8.807518E-3,3.682142E-2,-4.420568E-3,1.846878E-2],"split_indices":[5,5,4,4,1,4,1,4,0,7,4,1,1,5,4,6,7,0,1,4,0,4,7,4,4,4,4,7,7,5,4,0,0,0,0,0,0,0,0,0,0,0,0,0,0,0,0,0,0,0,0,0,0,0,0,0,0,0,0,0,0,0,0],"split_type":[0,0,0,0,0,0,0,0,0,0,0,0,0,0,0,0,0,0,0,0,0,0,0,0,0,0,0,0,0,0,0,0,0,0,0,0,0,0,0,0,0,0,0,0,0,0,0,0,0,0,0,0,0,0,0,0,0,0,0,0,0,0,0],"sum_hessian":[1.0250268E4,7.3484564E2,9.515422E3,3.9540634E2,3.394393E2,5.4905625E3,4.0248594E3,3.570767E2,3.8329628E1,1.02189995E2,2.372493E2,4.0581038E3,1.4324589E3,6.4773834E2,3.377121E3,7.9265114E1,2.7781158E2,2.6433325E1,1.1896304E1,8.758537E1,1.4604622E1,1.4939339E2,8.785591E1,1.6135752E3,2.4445286E3,4.7004556E2,9.6241327E2,8.332596E1,5.644124E2,2.0692012E2,3.170201E3,4.1808033E1,3.745708E1,2.3126976E2,4.6541824E1,2.1560938E0,2.4277231E1,1.1671404E0,1.0729163E1,4.215637E0,8.3369736E1,1.7453299E0,1.2859292E1,4.7858814E1,1.0153458E2,4.2916565E1,4.4939346E1,1.1277211E3,4.8585413E2,5.451689E2,1.8993597E3,3.3300638E2,1.3703917E2,2.5140974E2,7.1100354E2,1.9261425E1,6.406454E1,5.5883276E2,5.5796537E0,1.2783369E1,1.9413675E2,3.070413E2,2.8631597E3],"tree_param":{"num_deleted":"0","num_feature":"8","num_nodes":"63","size_leaf_vector":"1"}},{"base_weights":[6.766824E-4,-9.487029E-1,7.703646E-2,-1.2683307E0,-5.6399155E-1,-6.8124644E-2,2.7779853E-1,-1.3741461E0,-6.813979E-1,-9.9555343E-1,-3.7018913E-1,7.7191636E-2,-4.7063833E-1,-1.2454131E-2,3.3423537E-1,-1.4156691E0,-4.8510405E-1,-8.8994634E-1,-2.6448953E-1,-9.16305E-1,-1.9305863E0,-5.531975E-1,-5.003507E-2,-1.0092616E-1,1.9617692E-1,-8.10725E-1,-3.0049342E-1,-3.1478205E-1,3.3277977E-2,3.6062282E-1,5.6241136E-2,-3.160224E-2,-7.304876E-2,-4.9173534E-2,5.2681076E-3,-2.5675824E-2,-7.264276E-2,1.1144455E-2,-4.5794316E-2,-5.258422E-2,-2.5935585E-2,-1.2339953E-1,-2.2208875E-2,2.8543785E-2,-3.1064896E-2,-7.666841E-3,1.4173637E-2,-3.2017757E-3,-2.9866442E-2,2.3658644E-2,5.880008E-3,-5.0388303E-2,-1.5742814E-2,-2.63229E-2,-8.825887E-3,-1.9774599E-2,1.4281894E-2,3.595862E-4,2.407437E-2,3.3168312E-2,1.6946193E-2,9.4995304E-4,3.6127158E-2],"categories":[],"categories_nodes":[],"categories_segments":[],"categories_sizes":[],"default_left":[0,0,0,0,0,0,0,0,0,0,0,0,0,0,0,0,0,0,0,0,0,0,0,0,0,0,0,0,0,0,0,0,0,0,0,0,0,0,0,0,0,0,0,0,0,0,0,0,0,0,0,0,0,0,0,0,0,0,0,0,0,0,0],"id":4,"left_children":[1,3,5,7,9,11,13,15,17,19,21,23,25,27,29,31,33,35,37,39,41,43,45,47,49,51,53,55,57,59,61,-1,-1,-1,-1,-1,-1,-1,-1,-1,-1,-1,-1,-1,-1,-1,-1,-1,-1,-1,-1,-1,-1,-1,-1,-1,-1,-1,-1,-1,-1,-1,-1],"loss_changes":[7.429699E2,9.3099976E1,2.7645905E2,2.4895203E1,2.8739464E1,3.220909E2,6.5212036E1,1.2285706E1,5.460827E0,6.179077E0,1.4137405E1,8.577533E1,8.427518E1,8.983284E0,2.4427277E1,1.0977356E1,5.1655035E0,8.417786E0,7.59109E0,4.879326E0,4.876625E0,1.21227E1,3.1108081E0,2.9649342E1,5.2751198E1,4.7215607E1,2.722528E1,4.24977E0,6.5980263E0,1.976941E1,7.185114E0,0E0,0E0,0E0,0E0,0E0,0E0,0E0,0E0,0E0,0E0,0E0,0E0,0E0,0E0,0E0,0E0,0E0,0E0,0E0,0E0,0E0,0E0,0E0,0E0,0E0,0E0,0E0,0E0,0E0,0E0,0E0,0E0],"parents":[2147483647,0,0,1,1,2,2,3,3,4,4,5,5,6,6,7,7,8,8,9,9,10,10,11,11,12,12,13,13,14,14,15,15,16,16,17,17,18,18,19,19,20,20,21,21,22,22,23,23,24,24,25,25,26,26,27,27,28,28,29,29,30,30],"right_children":[2,4,6,8,10,12,14,16,18,20,22,24,26,28,30,32,34,36,38,40,42,44,46,48,50,52,54,56,58,60,62,-1,-1,-1,-1,-1,-1,-1,-1,-1,-1,-1,-1,-1,-1,-1,-1,-1,-1,-1,-1,-1,-1,-1,-1,-1,-1,-1,-1,-1,-1,-1,-1],"split_conditions":[4E0,3E0,1.9E1,3E0,2E0,1.2E1,1E0,3E1,2.8E1,3.6E1,2.1E1,2E0,2E0,8E0,3.5E1,5E0,4E0,2E0,2E0,3E0,4E1,3E0,3.3E1,6E0,6E0,1.8E1,1.5E1,2.9E1,4E0,2E1,3.7E1,-3.160224E-2,-7.304876E-2,-4.9173534E-2,5.2681076E-3,-2.5675824E-2,-7.264276E-2,1.1144455E-2,-4.5794316E-2,-5.258422E-2,-2.5935585E-2,-1.2339953E-1,-2.2208875E-2,2.8543785E-2,-3.1064896E-2,-7.666841E-3,1.4173637E-2,-3.2017757E-3,-2.9866442E-2,2.3658644E-2,5.880008E-3,-5.0388303E-2,-1.5742814E-2,-2.63229E-2,-8.825887E-3,-1.9774599E-2,1.4281894E-2,3.595862E-4,2.407437E-2,3.3168312E-2,1.6946193E-2,9.4995304E-4,3.6127158E-2],"split_indices":[5,5,4,1,1,4,1,4,0,0,4,1,1,5,4,4,3,7,6,3,0,4,4,7,4,4,5,4,3,4,4,0,0,0,0,0,0,0,0,0,0,0,0,0,0,0,0,0,0,0,0,0,0,0,0,0,0,0,0,0,0,0,0],"split_type":[0,0,0,0,0,0,0,0,0,0,0,0,0,0,0,0,0,0,0,0,0,0,0,0,0,0,0,0,0,0,0,0,0,0,0,0,0,0,0,0,0,0,0,0,0,0,0,0,0,0,0,0,0,0,0,0,0,0,0,0,0,0,0],"sum_hessian":[1.0246643E4,7.61947E2,9.484695E3,4.1492236E2,3.470247E2,5.504979E3,3.979717E3,3.5040768E2,6.4514656E1,1.0626201E2,2.4076266E2,4.045333E3,1.4596458E3,6.479765E2,3.3317405E3,3.3420612E2,1.6201572E1,4.2246983E1,2.226768E1,9.978476E1,6.4772534E0,1.5273021E2,8.803246E1,1.6201553E3,2.4251777E3,4.854869E2,9.741589E2,8.436556E1,5.636109E2,3.0426338E3,2.8910663E2,1.9083508E1,3.1512262E2,8.4250555E0,7.776517E0,2.6462894E1,1.5784086E1,1.3113738E1,9.153941E0,7.321138E1,2.6573374E1,4.2722645E0,2.204989E0,8.302655E0,1.4442755E2,6.762601E1,2.0406458E1,1.5091317E3,1.1102359E2,5.3482166E2,1.8903561E3,3.4669147E2,1.3879546E2,3.4397168E2,6.301872E2,7.46696E1,9.695964E0,5.335725E2,3.0038427E1,2.015159E2,2.841118E3,2.7477682E2,1.4329778E1],"tree_param":{"num_deleted":"0","num_feature":"8","num_nodes":"63","size_leaf_vector":"1"}},{"base_weights":[7.7513035E-4,-7.164628E-1,8.951348E-2,-1.1541047E0,-4.4216648E-1,-4.6077166E-2,2.7938613E-1,-1.2973633E0,-8.1146276E-1,-6.45568E-1,-3.9046958E-2,9.127873E-2,-4.168276E-1,2.9426762E-3,3.3385247E-1,-1.4112886E0,-1.0418364E0,-9.100312E-1,1.0646647E-1,-7.5958157E-1,8.737335E-2,-4.4674343E-1,8.013349E-2,-7.806716E-2,2.0624171E-1,-7.2434765E-1,-2.6039788E-1,1.23401776E-1,-9.559655E-2,6.8458855E-1,3.1120735E-1,-5.9549708E-2,-9.130638E-2,-3.4081586E-2,-6.3052885E-2,-3.770974E-2,-7.048233E-2,3.006349E-2,-1.1208109E-2,2.8607046E-2,-4.073448E-2,2.0508572E-2,-8.312968E-3,-3.573E-2,-2.675647E-4,-1.4908154E-3,2.21071E-2,-7.9020895E-3,5.369913E-3,2.3110004E-2,6.708319E-3,-4.5099486E-2,-1.3407173E-2,-1.8467095E-2,-1.7968126E-3,-4.3607187E-3,1.6101358E-2,-7.3074154E-3,2.1634987E-2,2.3020845E-2,3.764354E-2,-3.1100796E-3,1.7586153E-2],"categories":[],"categories_nodes":[],"categories_segments":[],"categories_sizes":[],"default_left":[0,0,0,0,0,0,0,0,0,0,0,0,0,0,0,0,0,0,0,0,0,0,0,0,0,0,0,0,0,0,0,0,0,0,0,0,0,0,0,0,0,0,0,0,0,0,0,0,0,0,0,0,0,0,0,0,0,0,0,0,0,0,0],"id":5,"left_children":[1,3,5,7,9,11,13,15,17,19,21,23,25,27,29,31,33,35,37,39,41,43,45,47,49,51,53,55,57,59,61,-1,-1,-1,-1,-1,-1,-1,-1,-1,-1,-1,-1,-1,-1,-1,-1,-1,-1,-1,-1,-1,-1,-1,-1,-1,-1,-1,-1,-1,-1,-1,-1],"loss_changes":[6.519997E2,1.348841E2,2.3470877E2,2.0247253E1,5.6957184E1,2.7091553E2,5.7185333E1,7.388855E0,1.191394E1,3.8659164E1,1.1411598E1,7.559409E1,6.899184E1,7.444129E0,2.4987366E1,1.6802551E1,6.8522644E0,8.127701E0,2.3531334E0,2.9804031E1,5.2315617E0,6.2754326E0,7.2576914E0,2.3311085E1,4.2601303E1,3.9008286E1,2.3334717E1,1.1832474E1,9.276192E0,2.5861282E0,4.5140503E1,0E0,0E0,0E0,0E0,0E0,0E0,0E0,0E0,0E0,0E0,0E0,0E0,0E0,0E0,0E0,0E0,0E0,0E0,0E0,0E0,0E0,0E0,0E0,0E0,0E0,0E0,0E0,0E0,0E0,0E0,0E0,0E0],"parents":[2147483647,0,0,1,1,2,2,3,3,4,4,5,5,6,6,7,7,8,8,9,9,10,10,11,11,12,12,13,13,14,14,15,15,16,16,17,17,18,18,19,19,20,20,21,21,22,22,23,23,24,24,25,25,26,26,27,27,28,28,29,29,30,30],"right_children":[2,4,6,8,10,12,14,16,18,20,22,24,26,28,30,32,34,36,38,40,42,44,46,48,50,52,54,56,58,60,62,-1,-1,-1,-1,-1,-1,-1,-1,-1,-1,-1,-1,-1,-1,-1,-1,-1,-1,-1,-1,-1,-1,-1,-1,-1,-1,-1,-1,-1,-1,-1,-1],"split_conditions":[5E0,3E0,1.9E1,4E0,2.1E1,1.2E1,1E0,2.1E1,3.3E1,5E0,2E0,2E0,2E0,2.3E1,2E1,1.4E1,2E0,3E0,2.4E1,3E0,7E0,2.6E1,3.3E1,1E1,6E0,1.8E1,1.8E1,2.1E1,4E0,2E0,2.1E1,-5.9549708E-2,-9.130638E-2,-3.4081586E-2,-6.3052885E-2,-3.770974E-2,-7.048233E-2,3.006349E-2,-1.1208109E-2,2.8607046E-2,-4.073448E-2,2.0508572E-2,-8.312968E-3,-3.573E-2,-2.675647E-4,-1.4908154E-3,2.21071E-2,-7.9020895E-3,5.369913E-3,2.3110004E-2,6.708319E-3,-4.5099486E-2,-1.3407173E-2,-1.8467095E-2,-1.7968126E-3,-4.3607187E-3,1.6101358E-2,-7.3074154E-3,2.1634987E-2,2.3020845E-2,3.764354E-2,-3.1100796E-3,1.7586153E-2],"split_indices":[5,5,4,3,4,4,1,4,4,3,3,1,1,4,4,4,7,7,0,4,4,0,4,4,4,4,4,4,3,2,4,0,0,0,0,0,0,0,0,0,0,0,0,0,0,0,0,0,0,0,0,0,0,0,0,0,0,0,0,0,0,0,0],"split_type":[0,0,0,0,0,0,0,0,0,0,0,0,0,0,0,0,0,0,0,0,0,0,0,0,0,0,0,0,0,0,0,0,0,0,0,0,0,0,0,0,0,0,0,0,0,0,0,0,0,0,0,0,0,0,0,0,0,0,0,0,0,0,0],"sum_hessian":[1.0242068E4,1.1268774E3,9.11519E3,4.3292883E2,6.9394867E2,5.31817E3,3.7970208E3,3.033231E2,1.2960573E2,4.6082788E2,2.3312079E2,3.8810642E3,1.4371058E3,6.2514703E2,3.1718735E3,2.0666113E2,9.666196E1,1.170458E2,1.2559924E1,3.9876166E2,6.2066216E1,5.2110607E1,1.8101018E2,1.5694749E3,2.3115896E3,4.833242E2,9.537817E2,2.8117404E2,3.43973E2,1.9059758E2,2.9812761E3,1.3750957E2,6.915157E1,3.812602E1,5.8535934E1,9.113055E1,2.591525E1,4.7030277E0,7.8568964E0,1.5472637E1,3.8328903E2,2.7037909E1,3.5028305E1,3.204518E1,2.0065426E1,1.3954498E2,4.1465187E1,1.0967098E3,4.727649E2,5.0671158E2,1.8048779E3,3.471642E2,1.3615997E2,6.416883E2,3.1209335E2,1.3674007E2,1.4443398E2,3.1459348E2,2.9379545E1,4.6308594E1,1.4428899E2,2.9176038E2,2.6895156E3],"tree_param":{"num_deleted":"0","num_feature":"8","num_nodes":"63","size_leaf_vector":"1"}},{"base_weights":[8.7907334E-4,-6.6381776E-1,8.5461214E-2,-1.0557054E0,-4.1294104E-1,-4.3620434E-2,2.6849002E-1,-1.1399091E0,-5.7371503E-1,-5.9847194E-1,-3.7005927E-2,8.707714E-2,-3.8984743E-1,7.280776E-2,3.420999E-1,-1.0635843E0,-1.5030651E0,-8.0357105E-1,-2.7049622E-1,-1.7225721E-1,-7.696172E-1,-4.1783732E-1,7.651259E-2,-7.392614E-2,1.975877E-1,-8.58209E-1,-2.9920992E-1,5.353977E-1,4.2543974E-2,3.7421808E-1,3.1145612E-2,-5.523479E-2,-1.3227338E-2,-5.7713967E-2,-9.846893E-2,-2.135069E-2,-6.9409594E-2,1.0283566E-2,-4.2255472E-2,-1.4485765E-3,-7.110106E-2,-2.9697655E-2,-4.89397E-2,-3.3093E-2,-2.5477965E-4,-1.415149E-3,2.1391895E-2,-7.461314E-3,5.1234877E-3,2.2373125E-2,6.407112E-3,-5.0797027E-2,-2.5055645E-2,-2.1111416E-2,-1.1093897E-3,3.5883818E-2,1.0736247E-2,-8.027204E-3,4.1153133E-3,1.1971771E-2,2.1314489E-2,7.2408915E-3,-9.485009E-3],"categories":[],"categories_nodes":[],"categories_segments":[],"categories_sizes":[],"default_left":[0,0,0,0,0,0,0,0,0,0,0,0,0,0,0,0,0,0,0,0,0,0,0,0,0,0,0,0,0,0,0,0,0,0,0,0,0,0,0,0,0,0,0,0,0,0,0,0,0,0,0,0,0,0,0,0,0,0,0,0,0,0,0],"id":6,"left_children":[1,3,5,7,9,11,13,15,17,19,21,23,25,27,29,31,33,35,37,39,41,43,45,47,49,51,53,55,57,59,61,-1,-1,-1,-1,-1,-1,-1,-1,-1,-1,-1,-1,-1,-1,-1,-1,-1,-1,-1,-1,-1,-1,-1,-1,-1,-1,-1,-1,-1,-1,-1,-1],"loss_changes":[5.756294E2,1.1319531E2,2.1459915E2,1.762851E1,4.924141E1,2.4109666E2,5.408545E1,9.00238E0,4.592169E0,3.4359467E1,1.0167998E1,6.883912E1,6.1724823E1,1.4370561E1,2.724826E1,1.0201965E1,8.136368E0,7.9365177E0,8.727568E0,2.4449192E1,1.1805008E1,5.4348383E0,6.694463E0,2.0937199E1,3.97502E1,1.2795166E1,4.1732613E1,3.5310097E0,7.8144712E0,1.7260254E1,6.469694E0,0E0,0E0,0E0,0E0,0E0,0E0,0E0,0E0,0E0,0E0,0E0,0E0,0E0,0E0,0E0,0E0,0E0,0E0,0E0,0E0,0E0,0E0,0E0,0E0,0E0,0E0,0E0,0E0,0E0,0E0,0E0,0E0],"parents":[2147483647,0,0,1,1,2,2,3,3,4,4,5,5,6,6,7,7,8,8,9,9,10,10,11,11,12,12,13,13,14,14,15,15,16,16,17,17,18,18,19,19,20,20,21,21,22,22,23,23,24,24,25,25,26,26,27,27,28,28,29,29,30,30],"right_children":[2,4,6,8,10,12,14,16,18,20,22,24,26,28,30,32,34,36,38,40,42,44,46,48,50,52,54,56,58,60,62,-1,-1,-1,-1,-1,-1,-1,-1,-1,-1,-1,-1,-1,-1,-1,-1,-1,-1,-1,-1,-1,-1,-1,-1,-1,-1,-1,-1,-1,-1,-1,-1],"split_conditions":[5E0,3E0,1.9E1,3E0,2.1E1,1.2E1,2E0,4E0,2.7E1,9E0,2E0,2E0,1E0,2E1,3.5E1,3E1,1.6E1,2E0,2E0,4E0,1.2E1,2.6E1,3.3E1,1E1,6E0,1.8E1,1.8E1,3E0,2.1E1,2E0,2.5E1,-5.523479E-2,-1.3227338E-2,-5.7713967E-2,-9.846893E-2,-2.135069E-2,-6.9409594E-2,1.0283566E-2,-4.2255472E-2,-1.4485765E-3,-7.110106E-2,-2.9697655E-2,-4.89397E-2,-3.3093E-2,-2.5477965E-4,-1.415149E-3,2.1391895E-2,-7.461314E-3,5.1234877E-3,2.2373125E-2,6.407112E-3,-5.0797027E-2,-2.5055645E-2,-2.1111416E-2,-1.1093897E-3,3.5883818E-2,1.0736247E-2,-8.027204E-3,4.1153133E-3,1.1971771E-2,2.1314489E-2,7.2408915E-3,-9.485009E-3],"split_indices":[5,5,4,1,4,4,1,7,0,4,3,1,1,4,4,4,4,7,6,7,4,0,4,4,4,4,4,7,4,2,5,0,0,0,0,0,0,0,0,0,0,0,0,0,0,0,0,0,0,0,0,0,0,0,0,0,0,0,0,0,0,0,0],"split_type":[0,0,0,0,0,0,0,0,0,0,0,0,0,0,0,0,0,0,0,0,0,0,0,0,0,0,0,0,0,0,0,0,0,0,0,0,0,0,0,0,0,0,0,0,0,0,0,0,0,0,0,0,0,0,0,0,0,0,0,0,0,0,0],"sum_hessian":[1.0236594E4,1.1547819E3,9.0818125E3,4.4946967E2,7.0531213E2,5.326232E3,3.75558E3,3.8146304E2,6.800663E1,4.7185236E2,2.3345981E2,3.8671616E3,1.4590703E3,1.027116E3,2.728464E3,3.1846057E2,6.3002483E1,3.7744305E1,3.0262325E1,1.3576184E2,3.360905E2,5.299423E1,1.8046558E2,1.5741326E3,2.293029E3,2.3520413E2,1.2238661E3,6.2045345E1,9.650706E2,2.4728433E3,2.5562099E2,3.025133E2,1.5947249E1,3.8031567E1,2.4970917E1,2.400985E1,1.3734455E1,1.6899885E1,1.336244E1,1.22715645E2,1.3046192E1,1.847659E2,1.5132462E2,3.292476E1,2.006947E1,1.3970496E2,4.076061E1,1.1033059E3,4.7082675E2,4.9750192E2,1.7955271E3,1.6186317E2,7.3340965E1,8.471461E2,3.7671997E2,3.8769646E1,2.32757E1,1.5751526E2,8.0755536E2,6.906802E2,1.7821631E3,1.6898596E2,8.6635025E1],"tree_param":{"num_deleted":"0","num_feature":"8","num_nodes":"63","size_leaf_vector":"1"}},{"base_weights":[9.361928E-4,-6.167582E-1,8.157025E-2,-9.699019E-1,-3.8646093E-1,-4.1309122E-2,2.5790212E-1,-1.0411115E0,-5.0330895E-1,-6.3050145E-1,-1.401611E-1,8.3055705E-2,-3.650318E-1,6.943196E-2,3.2956234E-1,-7.232075E-1,-1.1319791E0,-6.650674E-1,2.2773718E-2,-7.739592E-1,-2.6149705E-1,-9.641642E-2,-1.7937928E0,-7.001768E-2,1.8923657E-1,-6.2832564E-1,-2.2769046E-1,5.201644E-1,4.0489607E-2,3.609641E-1,2.9640617E-2,-2.5407536E-2,-4.7052655E-2,-5.279789E-2,-7.2558865E-2,1.9773552E-2,-3.8998846E-2,-2.8189544E-2,7.2734654E-3,-2.6029274E-2,-5.5544205E-2,1.5180133E-2,-1.8039903E-2,-1.2539667E-2,7.966961E-3,-1.06829524E-1,-4.2052176E-2,-1.995E-3,-2.3306644E-2,2.1648856E-2,6.118041E-3,-3.8793724E-2,-1.1793329E-2,-2.3228612E-2,-6.980318E-3,3.510901E-2,1.0305799E-2,-7.580818E-3,3.922622E-3,1.1484988E-2,2.0602643E-2,-3.0705926E-4,3.5688918E-2],"categories":[],"categories_nodes":[],"categories_segments":[],"categories_sizes":[],"default_left":[0,0,0,0,0,0,0,0,0,0,0,0,0,0,0,0,0,0,0,0,0,0,0,0,0,0,0,0,0,0,0,0,0,0,0,0,0,0,0,0,0,0,0,0,0,0,0,0,0,0,0,0,0,0,0,0,0,0,0,0,0,0,0],"id":7,"left_children":[1,3,5,7,9,11,13,15,17,19,21,23,25,27,29,31,33,35,37,39,41,43,45,47,49,51,53,55,57,59,61,-1,-1,-1,-1,-1,-1,-1,-1,-1,-1,-1,-1,-1,-1,-1,-1,-1,-1,-1,-1,-1,-1,-1,-1,-1,-1,-1,-1,-1,-1,-1,-1],"loss_changes":[5.0963925E2,9.571332E1,1.9611803E2,1.4949249E1,4.2995865E1,2.1480243E2,5.017923E1,1.0825745E1,5.4272423E0,1.8842117E1,2.5726065E1,6.2668167E1,5.3404327E1,1.3353451E1,2.5350586E1,3.8495407E0,6.0318604E0,6.24028E0,1.227986E0,2.1492676E1,5.845673E0,1.3853386E1,1.1980648E0,1.882541E1,3.7051903E1,2.9179428E1,2.0273518E1,3.3864899E0,7.045619E0,1.625177E1,6.278708E0,0E0,0E0,0E0,0E0,0E0,0E0,0E0,0E0,0E0,0E0,0E0,0E0,0E0,0E0,0E0,0E0,0E0,0E0,0E0,0E0,0E0,0E0,0E0,0E0,0E0,0E0,0E0,0E0,0E0,0E0,0E0,0E0],"parents":[2147483647,0,0,1,1,2,2,3,3,4,4,5,5,6,6,7,7,8,8,9,9,10,10,11,11,12,12,13,13,14,14,15,15,16,16,17,17,18,18,19,19,20,20,21,21,22,22,23,23,24,24,25,25,26,26,27,27,28,28,29,29,30,30],"right_children":[2,4,6,8,10,12,14,16,18,20,22,24,26,28,30,32,34,36,38,40,42,44,46,48,50,52,54,56,58,60,62,-1,-1,-1,-1,-1,-1,-1,-1,-1,-1,-1,-1,-1,-1,-1,-1,-1,-1,-1,-1,-1,-1,-1,-1,-1,-1,-1,-1,-1,-1,-1,-1],"split_conditions":[5E0,3E0,1.9E1,2.5E1,3E0,1.2E1,2E0,9E0,2.8E1,2.1E1,5E0,2E0,2E0,2E1,3.5E1,2E0,4E0,2E1,2E0,1.2E1,2.2E1,2.1E1,4E0,6E0,6E0,1.8E1,2E0,3E0,2.1E1,2E0,3.7E1,-2.5407536E-2,-4.7052655E-2,-5.279789E-2,-7.2558865E-2,1.9773552E-2,-3.8998846E-2,-2.8189544E-2,7.2734654E-3,-2.6029274E-2,-5.5544205E-2,1.5180133E-2,-1.8039903E-2,-1.2539667E-2,7.966961E-3,-1.06829524E-1,-4.2052176E-2,-1.995E-3,-2.3306644E-2,2.1648856E-2,6.118041E-3,-3.8793724E-2,-1.1793329E-2,-2.3228612E-2,-6.980318E-3,3.510901E-2,1.0305799E-2,-7.580818E-3,3.922622E-3,1.1484988E-2,2.0602643E-2,-3.0705926E-4,3.5688918E-2],"split_indices":[5,5,4,4,3,4,1,4,0,4,7,1,1,4,4,6,7,0,1,4,4,4,3,7,4,4,3,7,4,2,4,0,0,0,0,0,0,0,0,0,0,0,0,0,0,0,0,0,0,0,0,0,0,0,0,0,0,0,0,0,0,0,0],"split_type":[0,0,0,0,0,0,0,0,0,0,0,0,0,0,0,0,0,0,0,0,0,0,0,0,0,0,0,0,0,0,0,0,0,0,0,0,0,0,0,0,0,0,0,0,0,0,0,0,0,0,0,0,0,0,0,0,0,0,0,0,0,0,0],"sum_hessian":[1.0230229E4,1.1804885E3,9.04974E3,4.6469772E2,7.157908E2,5.333665E3,3.7160747E3,4.0209958E2,6.2598137E1,3.5876086E2,3.5702988E2,3.8538657E3,1.4797994E3,1.0242395E3,2.6918352E3,9.137596E1,3.1072363E2,4.767498E1,1.4923156E1,2.5753976E2,1.0122112E2,3.4885956E2,8.17032E0,1.5785391E3,2.2753267E3,5.0606305E2,9.737364E2,6.077593E1,9.634636E2,2.4365278E3,2.5530746E2,4.765935E1,4.3716606E1,2.5443475E2,5.6288876E1,4.4219313E0,4.325305E1,1.959662E0,1.2963493E1,1.4844868E2,1.0909108E2,1.4820957E1,8.640016E1,2.1755835E2,1.3130121E2,5.094702E0,3.0756178E0,1.4680221E3,1.1051685E2,4.8869965E2,1.7866271E3,3.6707916E2,1.3898392E2,2.62779E2,7.109574E2,3.769361E1,2.308232E1,1.5848369E2,8.049799E2,6.841673E2,1.7523605E3,2.435598E2,1.1747652E1],"tree_param":{"num_deleted":"0","num_feature":"8","num_nodes":"63","size_leaf_vector":"1"}},{"base_weights":[9.788377E-4,-6.9764304E-1,6.430736E-2,-8.9400977E-1,-4.4182798E-1,-3.8672443E-2,2.6371974E-1,-9.643064E-1,-4.8341307E-1,-7.8474593E-1,-2.8185987E-1,2.1106814E-1,-1.2947296E-1,6.5356815E-1,2.2035064E-1,-1.0587353E0,-7.570906E-1,-5.789007E-1,5.373738E-2,-7.173395E-1,-1.5818841E0,-4.0423957E-1,-4.9782924E-2,-1.0855446E-1,2.9452112E-1,-2.607434E-1,-4.658959E-2,-3.999832E-2,6.7495805E-1,-1.653445E-2,2.9895103E-1,-4.549646E-2,-7.052463E-2,-2.9169604E-2,-5.7745952E-2,-1.7789146E-2,-4.3144267E-2,2.5706688E-2,-2.0610204E-2,-4.0803872E-2,-2.0746771E-2,-1.0137489E-1,-1.6845835E-2,2.7612746E-2,-2.2818977E-2,7.0479065E-3,-1.1422154E-2,-1.6757151E-2,5.307147E-3,2.6256269E-2,1.2018277E-2,-1.6327582E-2,2.152149E-3,-2.515839E-2,-1.4257691E-3,3.5995103E-2,-1.4021019E-2,3.4250148E-2,-3.0080501E-2,-3.3392913E-3,8.419699E-3,1.6786933E-2,1.7365273E-3],"categories":[],"categories_nodes":[],"categories_segments":[],"categories_sizes":[],"default_left":[0,0,0,0,0,0,0,0,0,0,0,0,0,0,0,0,0,0,0,0,0,0,0,0,0,0,0,0,0,0,0,0,0,0,0,0,0,0,0,0,0,0,0,0,0,0,0,0,0,0,0,0,0,0,0,0,0,0,0,0,0,0,0],"id":8,"left_children":[1,3,5,7,9,11,13,15,17,19,21,23,25,27,29,31,33,35,37,39,41,43,45,47,49,51,53,55,57,59,61,-1,-1,-1,-1,-1,-1,-1,-1,-1,-1,-1,-1,-1,-1,-1,-1,-1,-1,-1,-1,-1,-1,-1,-1,-1,-1,-1,-1,-1,-1,-1,-1],"loss_changes":[4.5238876E2,4.229605E1,1.9253615E2,1.3382996E1,2.0132446E1,1.4024582E2,5.3839417E1,7.1949463E0,3.7314625E0,5.177002E0,7.210081E0,4.4019142E1,4.9332634E1,4.761368E0,5.353087E1,1.3279968E1,8.409195E0,3.5796223E0,2.7441313E0,2.9499588E0,3.93754E0,8.557531E0,3.0662746E0,1.6681019E1,1.6207977E1,3.5100807E1,2.2937237E1,2.1186745E0,4.3825836E0,6.6758285E0,2.096994E1,0E0,0E0,0E0,0E0,0E0,0E0,0E0,0E0,0E0,0E0,0E0,0E0,0E0,0E0,0E0,0E0,0E0,0E0,0E0,0E0,0E0,0E0,0E0,0E0,0E0,0E0,0E0,0E0,0E0,0E0,0E0,0E0],"parents":[2147483647,0,0,1,1,2,2,3,3,4,4,5,5,6,6,7,7,8,8,9,9,10,10,11,11,12,12,13,13,14,14,15,15,16,16,17,17,18,18,19,19,20,20,21,21,22,22,23,23,24,24,25,25,26,26,27,27,28,28,29,29,30,30],"right_children":[2,4,6,8,10,12,14,16,18,20,22,24,26,28,30,32,34,36,38,40,42,44,46,48,50,52,54,56,58,60,62,-1,-1,-1,-1,-1,-1,-1,-1,-1,-1,-1,-1,-1,-1,-1,-1,-1,-1,-1,-1,-1,-1,-1,-1,-1,-1,-1,-1,-1,-1,-1,-1],"split_conditions":[4E0,3E0,2.1E1,3E0,2E0,9E0,2.2E1,2.1E1,3.3E1,3.6E1,2.1E1,1E0,2E0,2E1,2E0,1.4E1,3E0,1.5E1,3.4E1,3E0,4E1,3E0,2E0,8E0,3E0,1.9E1,5E0,8E0,7E0,2.9E1,3.5E1,-4.549646E-2,-7.052463E-2,-2.9169604E-2,-5.7745952E-2,-1.7789146E-2,-4.3144267E-2,2.5706688E-2,-2.0610204E-2,-4.0803872E-2,-2.0746771E-2,-1.0137489E-1,-1.6845835E-2,2.7612746E-2,-2.2818977E-2,7.0479065E-3,-1.1422154E-2,-1.6757151E-2,5.307147E-3,2.6256269E-2,1.2018277E-2,-1.6327582E-2,2.152149E-3,-2.515839E-2,-1.4257691E-3,3.5995103E-2,-1.4021019E-2,3.4250148E-2,-3.0080501E-2,-3.3392913E-3,8.419699E-3,1.6786933E-2,1.7365273E-3],"split_indices":[5,5,4,1,1,4,4,4,4,0,4,1,3,0,1,4,7,4,4,3,0,4,7,4,4,4,5,5,7,4,4,0,0,0,0,0,0,0,0,0,0,0,0,0,0,0,0,0,0,0,0,0,0,0,0,0,0,0,0,0,0,0,0],"split_type":[0,0,0,0,0,0,0,0,0,0,0,0,0,0,0,0,0,0,0,0,0,0,0,0,0,0,0,0,0,0,0,0,0,0,0,0,0,0,0,0,0,0,0,0,0,0,0,0,0,0,0,0,0,0,0,0,0,0,0,0,0,0,0],"sum_hessian":[1.0223149E4,8.488514E2,9.374298E3,4.788135E2,3.7003784E2,6.1824077E3,3.19189E3,4.0766946E2,7.1144035E1,1.164667E2,2.5357115E2,1.6480992E3,4.5343086E3,3.1812943E2,2.8737605E3,2.77227E2,1.3044249E2,6.0339874E1,1.0804166E1,1.0913784E2,7.3288617E0,1.6553748E2,8.803367E1,3.4116107E2,1.3069382E3,1.7540706E3,2.7802378E3,9.491695E0,3.0863776E2,7.1616864E2,2.1575918E3,1.9733427E2,7.9892715E1,9.251523E1,3.7927258E1,3.5052807E1,2.5287066E1,5.3823953E0,5.42177E0,8.0993904E1,2.8143938E1,4.9341993E0,2.3946624E0,8.0614E0,1.5747607E2,4.267937E1,4.53543E1,1.6571101E2,1.7545004E2,2.4689934E2,1.0600388E3,1.4416875E3,3.1238303E2,1.0484621E2,2.6753916E3,1.8019521E0,7.6897435E0,3.0668793E2,1.9498094E0,5.636457E2,1.5252293E2,1.8936649E3,2.6392703E2],"tree_param":{"num_deleted":"0","num_feature":"8","num_nodes":"63","size_leaf_vector":"1"}},{"base_weights":[9.997123E-4,-5.399336E-1,7.466285E-2,-8.266902E-1,-3.463649E-1,-3.7277892E-2,2.3878047E-1,-9.2751056E-1,-5.787172E-1,-5.607533E-1,-1.24643154E-1,7.891435E-2,-3.3317006E-1,-6.018872E-3,2.8899467E-1,-1.0079949E0,-7.4437183E-1,-5.0157446E-1,-1.4179021E0,-6.812648E-1,-2.411499E-1,-8.353806E-2,-1.5976824E0,-6.0314436E-2,1.7725654E-1,-7.2733563E-1,-2.5445357E-1,1.0855364E-1,-9.872867E-2,6.4985615E-1,2.6599446E-1,-4.2596087E-2,-6.464201E-2,-2.3764743E-2,-4.519508E-2,-2.9256824E-2,1.3755686E-2,-1.0347923E-1,-3.6269836E-2,-2.4918815E-2,-5.2426733E-2,1.4398447E-2,-1.6553195E-2,-1.0962547E-2,7.4015185E-3,-9.421804E-2,-3.8559552E-2,-6.67265E-3,5.577014E-3,2.0325622E-2,5.800312E-3,-4.2630408E-2,-2.173337E-2,-1.8243914E-2,-8.041131E-5,-4.0585403E-3,1.468006E-2,-7.33054E-3,2.0659363E-2,1.1075349E-3,3.3638828E-2,-4.5143864E-3,1.5289585E-2],"categories":[],"categories_nodes":[],"categories_segments":[],"categories_sizes":[],"default_left":[0,0,0,0,0,0,0,0,0,0,0,0,0,0,0,0,0,0,0,0,0,0,0,0,0,0,0,0,0,0,0,0,0,0,0,0,0,0,0,0,0,0,0,0,0,0,0,0,0,0,0,0,0,0,0,0,0,0,0,0,0,0,0],"id":9,"left_children":[1,3,5,7,9,11,13,15,17,19,21,23,25,27,29,31,33,35,37,39,41,43,45,47,49,51,53,55,57,59,61,-1,-1,-1,-1,-1,-1,-1,-1,-1,-1,-1,-1,-1,-1,-1,-1,-1,-1,-1,-1,-1,-1,-1,-1,-1,-1,-1,-1,-1,-1,-1,-1],"loss_changes":[4.0718433E2,6.76976E1,1.6524072E2,1.1785065E1,3.476912E1,1.838855E2,4.483397E1,4.389984E0,8.683598E0,1.4176575E1,2.17602E1,5.2598167E1,4.660623E1,6.615052E0,2.4945847E1,9.543442E0,4.304798E0,8.887146E0,3.7653275E0,1.760215E1,5.0193863E0,1.1120549E1,8.5951614E-1,2.000759E1,3.1563019E1,8.813431E0,3.51392E1,9.803773E0,8.497314E0,2.5840302E0,4.0391754E1,0E0,0E0,0E0,0E0,0E0,0E0,0E0,0E0,0E0,0E0,0E0,0E0,0E0,0E0,0E0,0E0,0E0,0E0,0E0,0E0,0E0,0E0,0E0,0E0,0E0,0E0,0E0,0E0,0E0,0E0,0E0,0E0],"parents":[2147483647,0,0,1,1,2,2,3,3,4,4,5,5,6,6,7,7,8,8,9,9,10,10,11,11,12,12,13,13,14,14,15,15,16,16,17,17,18,18,19,19,20,20,21,21,22,22,23,23,24,24,25,25,26,26,27,27,28,28,29,29,30,30],"right_children":[2,4,6,8,10,12,14,16,18,20,22,24,26,28,30,32,34,36,38,40,42,44,46,48,50,52,54,56,58,60,62,-1,-1,-1,-1,-1,-1,-1,-1,-1,-1,-1,-1,-1,-1,-1,-1,-1,-1,-1,-1,-1,-1,-1,-1,-1,-1,-1,-1,-1,-1,-1,-1],"split_conditions":[5E0,3E0,1.9E1,4E0,3E0,1.2E1,1E0,2.1E1,4E0,2.1E1,5E0,2E0,1E0,2.3E1,2E1,1.4E1,2E0,3.3E1,2.9E1,1.5E1,2.2E1,2.1E1,4E0,1E1,6E0,1.8E1,1.8E1,2.1E1,4E0,6E0,2.1E1,-4.2596087E-2,-6.464201E-2,-2.3764743E-2,-4.519508E-2,-2.9256824E-2,1.3755686E-2,-1.0347923E-1,-3.6269836E-2,-2.4918815E-2,-5.2426733E-2,1.4398447E-2,-1.6553195E-2,-1.0962547E-2,7.4015185E-3,-9.421804E-2,-3.8559552E-2,-6.67265E-3,5.577014E-3,2.0325622E-2,5.800312E-3,-4.2630408E-2,-2.173337E-2,-1.8243914E-2,-8.041131E-5,-4.0585403E-3,1.468006E-2,-7.33054E-3,2.0659363E-2,1.1075349E-3,3.3638828E-2,-4.5143864E-3,1.5289585E-2],"split_indices":[5,5,4,3,3,4,1,4,7,4,7,1,1,4,4,4,7,4,0,4,4,4,3,4,4,4,4,4,3,5,4,0,0,0,0,0,0,0,0,0,0,0,0,0,0,0,0,0,0,0,0,0,0,0,0,0,0,0,0,0,0,0,0],"split_type":[0,0,0,0,0,0,0,0,0,0,0,0,0,0,0,0,0,0,0,0,0,0,0,0,0,0,0,0,0,0,0,0,0,0,0,0,0,0,0,0,0,0,0,0,0,0,0,0,0,0,0,0,0,0,0,0,0,0,0,0,0,0,0],"sum_hessian":[1.0216724E4,1.2237781E3,8.992945E3,4.918584E2,7.319196E2,5.3467954E3,3.64615E3,3.4773615E2,1.4412225E2,3.7133612E2,3.605835E2,3.8397275E3,1.507068E3,6.207604E2,3.0253894E3,2.3844312E2,1.0929303E2,1.3345224E2,1.0670008E1,2.6883575E2,1.0250037E2,3.5182263E2,8.760883E0,1.5896101E3,2.2501174E3,2.494966E2,1.2575714E3,2.77567E2,3.431934E2,1.7964215E2,2.8457473E3,1.5661891E2,8.182421E1,4.21606E1,6.713243E1,1.20711784E2,1.274046E1,4.4725585E0,6.1974497E0,1.810404E2,8.779534E1,1.456815E1,8.793221E1,2.2185536E2,1.2996725E2,5.554341E0,3.206542E0,1.115216E3,4.7439426E2,4.7322617E2,1.7768914E3,1.7337335E2,7.612325E1,8.749938E2,3.8257767E2,1.3732875E2,1.4023824E2,3.1449103E2,2.8702356E1,6.3977394E0,1.7324442E2,2.8580722E2,2.5599402E3],"tree_param":{"num_deleted":"0","num_feature":"8","num_nodes":"63","size_leaf_vector":"1"}},{"base_weights":[1.0093952E-3,-5.044896E-1,7.1236454E-2,-7.668364E-1,-3.252382E-1,-3.5320893E-2,2.29127E-1,-8.260826E-1,-4.145818E-1,-5.223892E-1,-1.1821676E-1,7.524523E-2,-3.1271005E-1,-5.639413E-3,2.7785295E-1,-3.1105104E-1,-8.5392475E-1,-6.110925E-1,-1.5429717E-1,-6.322164E-1,-2.2696573E-1,-7.910201E-2,-1.4630208E0,-4.3572176E-2,1.8531604E-1,-5.3522485E-1,-1.9382957E-1,1.0364673E-1,-9.336324E-2,6.342681E-1,2.5548288E-1,-7.6654024E-2,-1.4095019E-3,-4.7565963E-2,-3.27382E-2,-1.4558773E-2,-5.509911E-2,1.3278224E-2,-3.2426182E-2,-2.114532E-2,-4.5105055E-2,1.3871493E-2,-1.5538469E-2,-1.0331856E-2,7.0755775E-3,-8.5463025E-2,-3.6308967E-2,-8.188091E-3,8.417291E-3,2.9653728E-2,7.055388E-3,-3.299464E-2,-9.742062E-3,-2.1013767E-2,-5.595671E-3,-3.8449566E-3,1.411552E-2,-6.9251503E-3,1.9978082E-2,2.0353109E-2,3.527054E-2,-4.274161E-3,1.4708588E-2],"categories":[],"categories_nodes":[],"categories_segments":[],"categories_sizes":[],"default_left":[0,0,0,0,0,0,0,0,0,0,0,0,0,0,0,0,0,0,0,0,0,0,0,0,0,0,0,0,0,0,0,0,0,0,0,0,0,0,0,0,0,0,0,0,0,0,0,0,0,0,0,0,0,0,0,0,0,0,0,0,0,0,0],"id":10,"left_children":[1,3,5,7,9,11,13,15,17,19,21,23,25,27,29,31,33,35,37,39,41,43,45,47,49,51,53,55,57,59,61,-1,-1,-1,-1,-1,-1,-1,-1,-1,-1,-1,-1,-1,-1,-1,-1,-1,-1,-1,-1,-1,-1,-1,-1,-1,-1,-1,-1,-1,-1,-1,-1],"loss_changes":[3.624746E2,5.832126E1,1.50841E2,1.0193146E1,3.0208923E1,1.6421648E2,4.1326523E1,5.9167175E0,3.726038E0,1.2172714E1,1.8982304E1,5.0080013E1,4.026155E1,5.9718223E0,2.3690582E1,8.143697E0,7.2999573E0,6.309738E0,7.1173134E0,1.521875E1,4.50069E0,9.985561E0,6.102791E-1,4.694311E1,3.5746353E1,2.2395676E1,1.843108E1,8.969498E0,7.7430773E0,2.557808E0,3.718141E1,0E0,0E0,0E0,0E0,0E0,0E0,0E0,0E0,0E0,0E0,0E0,0E0,0E0,0E0,0E0,0E0,0E0,0E0,0E0,0E0,0E0,0E0,0E0,0E0,0E0,0E0,0E0,0E0,0E0,0E0,0E0,0E0],"parents":[2147483647,0,0,1,1,2,2,3,3,4,4,5,5,6,6,7,7,8,8,9,9,10,10,11,11,12,12,13,13,14,14,15,15,16,16,17,17,18,18,19,19,20,20,21,21,22,22,23,23,24,24,25,25,26,26,27,27,28,28,29,29,30,30],"right_children":[2,4,6,8,10,12,14,16,18,20,22,24,26,28,30,32,34,36,38,40,42,44,46,48,50,52,54,56,58,60,62,-1,-1,-1,-1,-1,-1,-1,-1,-1,-1,-1,-1,-1,-1,-1,-1,-1,-1,-1,-1,-1,-1,-1,-1,-1,-1,-1,-1,-1,-1,-1,-1],"split_conditions":[5E0,3E0,1.9E1,3E0,3E0,1.2E1,1E0,5E0,2.7E1,2.1E1,5E0,3E0,2E0,2.3E1,2E1,1E0,2.1E1,2E0,2E0,1.2E1,2.2E1,2.1E1,4E0,1E1,3E0,1.8E1,1.4E1,2.1E1,4E0,2E0,2.1E1,-7.6654024E-2,-1.4095019E-3,-4.7565963E-2,-3.27382E-2,-1.4558773E-2,-5.509911E-2,1.3278224E-2,-3.2426182E-2,-2.114532E-2,-4.5105055E-2,1.3871493E-2,-1.5538469E-2,-1.0331856E-2,7.0755775E-3,-8.5463025E-2,-3.6308967E-2,-8.188091E-3,8.417291E-3,2.9653728E-2,7.055388E-3,-3.299464E-2,-9.742062E-3,-2.1013767E-2,-5.595671E-3,-3.8449566E-3,1.411552E-2,-6.9251503E-3,1.9978082E-2,2.0353109E-2,3.527054E-2,-4.274161E-3,1.4708588E-2],"split_indices":[5,5,4,1,3,4,1,4,0,4,7,3,1,4,4,1,4,7,6,4,4,4,3,4,4,4,4,4,3,2,4,0,0,0,0,0,0,0,0,0,0,0,0,0,0,0,0,0,0,0,0,0,0,0,0,0,0,0,0,0,0,0,0],"split_type":[0,0,0,0,0,0,0,0,0,0,0,0,0,0,0,0,0,0,0,0,0,0,0,0,0,0,0,0,0,0,0,0,0,0,0,0,0,0,0,0,0,0,0,0,0,0,0,0,0,0,0,0,0,0,0,0,0,0,0,0,0,0,0],"sum_hessian":[1.0208624E4,1.2444935E3,8.96413E3,5.0382825E2,7.406652E2,5.352563E3,3.6115674E3,4.301377E2,7.369056E1,3.7859634E2,3.620689E2,3.8276191E3,1.5249438E3,6.20899E2,2.9906682E3,2.2684568E1,4.0745312E2,4.1221333E1,3.2469223E1,2.7516165E2,1.0343468E2,3.5286435E2,9.204535E0,1.8409669E3,1.9866522E3,5.297956E2,9.951482E2,2.7639066E2,3.4450836E2,1.7500554E2,2.8156628E3,3.4330473E0,1.925152E1,2.7110123E2,1.363519E2,2.5921335E1,1.5299998E1,1.7805517E1,1.4663708E1,1.5641808E2,1.1874359E2,1.4407663E1,8.9027016E1,2.2364192E2,1.2922243E2,5.909852E0,3.2946823E0,1.1748666E3,6.6610034E2,1.9310632E2,1.7935459E3,3.8708456E2,1.4271104E2,2.6326318E2,7.31885E2,1.377545E2,1.3863614E2,3.162653E2,2.8243078E1,4.3333714E1,1.3167183E2,2.868078E2,2.528855E3],"tree_param":{"num_deleted":"0","num_feature":"8","num_nodes":"63","size_leaf_vector":"1"}},{"base_weights":[1.0251984E-3,-4.719833E-1,6.796404E-2,-7.127586E-1,-3.0567494E-1,-3.346185E-2,2.1979024E-1,-7.541324E-1,-2.733662E-1,-2.3043036E-1,-7.9401225E-1,7.174409E-2,-2.9376945E-1,5.3357113E-2,2.8523222E-1,-9.3847615E-1,-6.694269E-1,-3.8559127E-1,2.854455E-1,-4.171256E-1,-5.7727255E-2,-5.3540903E-1,-1.1456838E0,-1.042193E-1,1.420887E-1,-6.3681287E-1,-2.2367895E-1,4.866957E-1,2.6459023E-2,3.1612888E-1,-2.9429647E-3,-5.5963345E-2,-4.2122062E-2,-3.214815E-2,-7.736539E-2,2.4648678E-2,-2.27526E-2,3.615031E-3,2.7093327E-2,-2.9394537E-2,-1.1385462E-2,-5.4686717E-3,2.0465737E-2,-3.9587017E-2,5.2965793E-4,-5.9885275E-2,-7.352408E-3,-9.867383E-3,4.4122045E-3,1.3930394E-2,1.5612672E-3,-3.689178E-2,-1.9705482E-2,-1.6073203E-2,2.3765283E-4,3.613728E-2,1.0997753E-2,-4.1722637E-2,1.7180278E-3,9.160777E-3,1.8411193E-2,-1.8989347E-3,3.432489E-2],"categories":[],"categories_nodes":[],"categories_segments":[],"categories_sizes":[],"default_left":[0,0,0,0,0,0,0,0,0,0,0,0,0,0,0,0,0,0,0,0,0,0,0,0,0,0,0,0,0,0,0,0,0,0,0,0,0,0,0,0,0,0,0,0,0,0,0,0,0,0,0,0,0,0,0,0,0,0,0,0,0,0,0],"id":11,"left_children":[1,3,5,7,9,11,13,15,17,19,21,23,25,27,29,31,33,35,37,39,41,43,45,47,49,51,53,55,57,59,61,-1,-1,-1,-1,-1,-1,-1,-1,-1,-1,-1,-1,-1,-1,-1,-1,-1,-1,-1,-1,-1,-1,-1,-1,-1,-1,-1,-1,-1,-1,-1,-1],"loss_changes":[3.2303445E2,5.042923E1,1.3763766E2,9.173859E0,2.7369926E1,1.4678175E2,3.897238E1,6.7264404E0,2.9931097E0,2.0970592E1,8.454021E0,4.7265755E1,3.69498E1,1.177702E1,2.2875122E1,1.5884552E0,6.5835724E0,2.586584E0,4.1244012E-1,9.981773E0,8.231576E0,8.312328E0,1.9731941E0,1.956844E1,4.1272305E1,6.113022E0,2.8648903E1,3.5595636E0,6.514406E0,1.5998657E1,6.059091E0,0E0,0E0,0E0,0E0,0E0,0E0,0E0,0E0,0E0,0E0,0E0,0E0,0E0,0E0,0E0,0E0,0E0,0E0,0E0,0E0,0E0,0E0,0E0,0E0,0E0,0E0,0E0,0E0,0E0,0E0,0E0,0E0],"parents":[2147483647,0,0,1,1,2,2,3,3,4,4,5,5,6,6,7,7,8,8,9,9,10,10,11,11,12,12,13,13,14,14,15,15,16,16,17,17,18,18,19,19,20,20,21,21,22,22,23,23,24,24,25,25,26,26,27,27,28,28,29,29,30,30],"right_children":[2,4,6,8,10,12,14,16,18,20,22,24,26,28,30,32,34,36,38,40,42,44,46,48,50,52,54,56,58,60,62,-1,-1,-1,-1,-1,-1,-1,-1,-1,-1,-1,-1,-1,-1,-1,-1,-1,-1,-1,-1,-1,-1,-1,-1,-1,-1,-1,-1,-1,-1,-1,-1],"split_conditions":[5E0,3E0,1.9E1,2.9E1,4E0,1.2E1,2E0,2E0,2.9E1,3E0,3.2E1,1E0,1E0,2E1,3.5E1,2.3E1,6E0,2E1,5E0,2E0,3.3E1,2E0,2.4E1,1E1,9E0,1.8E1,1.8E1,2E0,1.9E1,2E0,3.7E1,-5.5963345E-2,-4.2122062E-2,-3.214815E-2,-7.736539E-2,2.4648678E-2,-2.27526E-2,3.615031E-3,2.7093327E-2,-2.9394537E-2,-1.1385462E-2,-5.4686717E-3,2.0465737E-2,-3.9587017E-2,5.2965793E-4,-5.9885275E-2,-7.352408E-3,-9.867383E-3,4.4122045E-3,1.3930394E-2,1.5612672E-3,-3.689178E-2,-1.9705482E-2,-1.6073203E-2,2.3765283E-4,3.613728E-2,1.0997753E-2,-4.1722637E-2,1.7180278E-3,9.160777E-3,1.8411193E-2,-1.8989347E-3,3.432489E-2],"split_indices":[5,5,4,4,7,4,1,3,0,3,0,1,1,4,4,0,7,0,3,6,4,1,4,4,4,4,4,6,0,2,4,0,0,0,0,0,0,0,0,0,0,0,0,0,0,0,0,0,0,0,0,0,0,0,0,0,0,0,0,0,0,0,0],"split_type":[0,0,0,0,0,0,0,0,0,0,0,0,0,0,0,0,0,0,0,0,0,0,0,0,0,0,0,0,0,0,0,0,0,0,0,0,0,0,0,0,0,0,0,0,0,0,0,0,0,0,0,0,0,0,0,0,0,0,0,0,0,0,0],"sum_hessian":[1.0200371E4,1.2638195E3,8.936552E3,5.149736E2,7.4884595E2,5.3579854E3,3.5785662E3,4.700013E2,4.4972267E1,6.5014185E2,9.870409E1,3.8163098E3,1.5416757E3,1.0104891E3,2.5680771E3,1.4479839E2,3.252029E2,3.7709183E1,7.263082E0,3.1173514E2,3.3840674E2,5.8331917E1,4.0372166E1,1.0897858E3,2.726524E3,2.6018228E2,1.2814934E3,5.8058018E1,9.524311E2,2.319315E3,2.4876213E2,4.6536427E1,9.826196E1,3.1736813E2,7.8347654E0,2.3161755E0,3.539301E1,4.6662855E0,2.5967965E0,1.6283252E2,1.489026E2,3.0540088E2,3.3005856E1,3.938963E1,1.8942287E1,3.8183723E1,2.1884418E0,7.3440137E2,3.5538434E2,1.2212013E3,1.5053228E3,1.8227295E2,7.790933E1,8.970745E2,3.8441885E2,2.9894018E1,2.8164001E1,7.7106457E0,9.447204E2,6.543485E2,1.6649664E3,2.376312E2,1.1130935E1],"tree_param":{"num_deleted":"0","num_feature":"8","num_nodes":"63","size_leaf_vector":"1"}},{"base_weights":[1.0344825E-3,-4.4197154E-1,6.482327E-2,-6.6365474E-1,-2.87379E-1,-3.1715855E-2,2.1074432E-1,-8.5206306E-1,-5.759159E-1,-4.07838E-1,-2.0981008E-2,6.838859E-2,-2.7618128E-1,5.0825E-2,2.7421746E-1,-6.9532555E-1,-1.037772E0,3.1437474E-1,-5.94627E-1,2.2942157E-1,-4.7887188E-1,-3.1163597E-1,7.1548395E-2,3.1318894E-1,2.0875124E-2,-5.9230536E-1,-2.1075009E-1,4.7219083E-1,2.5127491E-2,3.0428705E-1,-2.6434192E-3,-3.7443094E-2,4.529927E-3,-3.134855E-2,-6.845772E-2,4.379099E-2,-6.100278E-3,-3.151546E-2,-5.0155516E-3,2.0851545E-2,-2.8067594E-2,-2.6914692E-2,1.8496253E-3,-2.6725149E-2,3.2813672E-3,3.3573702E-2,7.074308E-4,1.8372448E-2,-1.9479569E-2,-2.159795E-3,9.606137E-3,-3.4214627E-2,-1.8461188E-2,-1.50915785E-2,2.258307E-4,-2.4260895E-3,2.9287402E-2,6.1867437E-3,-1.9511115E-3,3.13486E-2,1.4163486E-2,5.4698046E-3,-1.0863541E-2],"categories":[],"categories_nodes":[],"categories_segments":[],"categories_sizes":[],"default_left":[0,0,0,0,0,0,0,0,0,0,0,0,0,0,0,0,0,0,0,0,0,0,0,0,0,0,0,0,0,0,0,0,0,0,0,0,0,0,0,0,0,0,0,0,0,0,0,0,0,0,0,0,0,0,0,0,0,0,0,0,0,0,0],"id":12,"left_children":[1,3,5,7,9,11,13,15,17,19,21,23,25,27,29,31,33,35,37,39,41,43,45,47,49,51,53,55,57,59,61,-1,-1,-1,-1,-1,-1,-1,-1,-1,-1,-1,-1,-1,-1,-1,-1,-1,-1,-1,-1,-1,-1,-1,-1,-1,-1,-1,-1,-1,-1,-1,-1],"loss_changes":[2.8807446E2,4.3782104E1,1.2553707E2,8.21106E0,2.4306316E1,1.3128307E2,3.6002228E1,4.0859604E0,6.2211685E0,2.3726555E1,6.3958893E0,4.426614E1,3.211178E1,1.0917795E1,2.1144897E1,3.9640083E0,9.156189E0,2.093954E0,6.200569E0,8.096805E0,1.4418571E1,4.862373E0,6.2087E0,2.3732925E1,3.4994907E1,5.22036E0,2.5348904E1,3.455865E0,6.029491E0,1.53598175E1,6.0309505E0,0E0,0E0,0E0,0E0,0E0,0E0,0E0,0E0,0E0,0E0,0E0,0E0,0E0,0E0,0E0,0E0,0E0,0E0,0E0,0E0,0E0,0E0,0E0,0E0,0E0,0E0,0E0,0E0,0E0,0E0,0E0,0E0],"parents":[2147483647,0,0,1,1,2,2,3,3,4,4,5,5,6,6,7,7,8,8,9,9,10,10,11,11,12,12,13,13,14,14,15,15,16,16,17,17,18,18,19,19,20,20,21,21,22,22,23,23,24,24,25,25,26,26,27,27,28,28,29,29,30,30],"right_children":[2,4,6,8,10,12,14,16,18,20,22,24,26,28,30,32,34,36,38,40,42,44,46,48,50,52,54,56,58,60,62,-1,-1,-1,-1,-1,-1,-1,-1,-1,-1,-1,-1,-1,-1,-1,-1,-1,-1,-1,-1,-1,-1,-1,-1,-1,-1,-1,-1,-1,-1,-1,-1],"split_conditions":[5E0,3E0,1.9E1,2E0,2.1E1,1.2E1,2E0,1.5E1,2E0,6E0,2E0,6E0,1E0,2E1,3.5E1,1.1E1,3E0,2.8E1,3.3E1,3E0,5E0,2.6E1,2.2E1,4E0,1E1,1.8E1,1.8E1,2E0,2.3E1,2E1,2.5E1,-3.7443094E-2,4.529927E-3,-3.134855E-2,-6.845772E-2,4.379099E-2,-6.100278E-3,-3.151546E-2,-5.0155516E-3,2.0851545E-2,-2.8067594E-2,-2.6914692E-2,1.8496253E-3,-2.6725149E-2,3.2813672E-3,3.3573702E-2,7.074308E-4,1.8372448E-2,-1.9479569E-2,-2.159795E-3,9.606137E-3,-3.4214627E-2,-1.8461188E-2,-1.50915785E-2,2.258307E-4,-2.4260895E-3,2.9287402E-2,6.1867437E-3,-1.9511115E-3,3.13486E-2,1.4163486E-2,5.4698046E-3,-1.0863541E-2],"split_indices":[5,5,4,1,4,4,1,4,4,4,3,4,1,4,4,4,7,0,4,7,3,0,4,7,4,4,4,2,4,4,5,0,0,0,0,0,0,0,0,0,0,0,0,0,0,0,0,0,0,0,0,0,0,0,0,0,0,0,0,0,0,0,0],"split_type":[0,0,0,0,0,0,0,0,0,0,0,0,0,0,0,0,0,0,0,0,0,0,0,0,0,0,0,0,0,0,0,0,0,0,0,0,0,0,0,0,0,0,0,0,0,0,0,0,0,0,0,0,0,0,0,0,0,0,0,0,0,0,0],"sum_hessian":[1.0192131E4,1.2821075E3,8.910023E3,5.2539984E2,7.5670776E2,5.362836E3,3.5471873E3,1.6416481E2,3.6123502E2,5.207195E2,2.3598822E2,3.8053357E3,1.5575002E3,1.008384E3,2.5388032E3,9.1599464E1,7.256534E1,7.1104918E0,3.5412454E2,5.199872E1,4.687208E2,5.6413425E1,1.795748E2,6.176205E2,3.1877153E3,2.6570776E2,1.2917925E3,5.696388E1,9.514201E2,2.2899905E3,2.4881267E2,8.5801895E1,5.797574E0,3.369144E1,3.8873898E1,2.6692438E0,4.441248E0,3.3002646E2,2.4098085E1,4.240973E1,9.588989E0,4.2026712E2,4.845366E1,3.520148E1,2.1211945E1,1.474685E1,1.6482796E2,5.737962E2,4.3824303E1,2.320329E3,8.6738617E2,1.8666814E2,7.9039635E1,9.074424E2,3.843501E2,1.03011265E1,4.666275E1,3.7463034E2,5.7678973E2,1.3826945E2,2.1517212E3,1.6379756E2,8.50151E1],"tree_param":{"num_deleted":"0","num_feature":"8","num_nodes":"63","size_leaf_vector":"1"}},{"base_weights":[1.0524202E-3,-4.142373E-1,6.1818484E-2,-6.1896616E-1,-2.702396E-1,-9.284875E-2,1.4682922E-1,-6.960396E-1,-4.2648572E-1,-2.0183113E-1,-7.0459527E-1,-1.5913148E-1,4.8432086E-2,6.463345E-2,2.8438202E-1,-4.119104E-2,-7.097257E-1,-3.9234617E-1,-9.783305E-2,-3.6558264E-1,-4.7178812E-2,-3.7889338E-1,-9.288071E-1,-5.948048E-2,-4.4429797E-1,4.5769846E-1,2.3905627E-2,2.699669E-1,-1.6443044E-2,6.433294E-1,2.5112286E-1,-4.720682E-2,2.0874087E-2,-3.90006E-2,-2.7706569E-2,-2.2721685E-2,1.2271493E-2,-2.600338E-2,-9.612418E-3,-4.7442247E-3,1.9764988E-2,-2.5931645E-2,1.17396815E-2,-5.3092815E-2,-2.752986E-2,-1.5878289E-3,-2.0808643E-2,-2.7245304E-2,-8.038747E-3,3.4913786E-2,9.563622E-3,-7.162436E-2,1.4070767E-3,9.600847E-3,2.3176517E-2,-7.038398E-3,1.3062143E-3,-2.807986E-3,3.3374958E-2,1.4395587E-2,-1.2545435E-4],"categories":[],"categories_nodes":[],"categories_segments":[],"categories_sizes":[],"default_left":[0,0,0,0,0,0,0,0,0,0,0,0,0,0,0,0,0,0,0,0,0,0,0,0,0,0,0,0,0,0,0,0,0,0,0,0,0,0,0,0,0,0,0,0,0,0,0,0,0,0,0,0,0,0,0,0,0,0,0,0,0],"id":13,"left_children":[1,3,5,7,9,11,13,15,17,19,21,23,25,27,29,31,33,35,-1,37,39,41,43,45,47,49,51,53,55,57,59,-1,-1,-1,-1,-1,-1,-1,-1,-1,-1,-1,-1,-1,-1,-1,-1,-1,-1,-1,-1,-1,-1,-1,-1,-1,-1,-1,-1,-1,-1],"loss_changes":[2.5704565E2,3.816252E1,1.1684587E2,7.65625E0,2.2590935E1,2.9526892E1,6.4816574E1,3.3874664E0,7.3748093E0,1.6757153E1,7.2207756E0,6.095255E1,1.0101164E1,5.9782917E1,2.5441757E1,4.0660925E0,3.6509094E0,6.1984444E0,0E0,8.511024E0,7.2525005E0,3.892397E0,2.4712753E0,1.5723249E1,1.575869E1,3.5136738E0,5.9102182E0,1.5248711E1,1.3632405E1,3.1013565E0,1.833033E1,0E0,0E0,0E0,0E0,0E0,0E0,0E0,0E0,0E0,0E0,0E0,0E0,0E0,0E0,0E0,0E0,0E0,0E0,0E0,0E0,0E0,0E0,0E0,0E0,0E0,0E0,0E0,0E0,0E0,0E0],"parents":[2147483647,0,0,1,1,2,2,3,3,4,4,5,5,6,6,7,7,8,8,9,9,10,10,11,11,12,12,13,13,14,14,15,15,16,16,17,17,19,19,20,20,21,21,22,22,23,23,24,24,25,25,26,26,27,27,28,28,29,29,30,30],"right_children":[2,4,6,8,10,12,14,16,18,20,22,24,26,28,30,32,34,36,-1,38,40,42,44,46,48,50,52,54,56,58,60,-1,-1,-1,-1,-1,-1,-1,-1,-1,-1,-1,-1,-1,-1,-1,-1,-1,-1,-1,-1,-1,-1,-1,-1,-1,-1,-1,-1,-1,-1],"split_conditions":[5E0,3E0,2E0,4E0,4E0,1.9E1,2.1E1,3E0,6E0,3E0,3E1,1.2E1,2E1,9E0,2.2E1,1E0,2.1E1,3.3E1,-9.783305E-2,2E0,3.3E1,2.1E1,1.8E1,6E0,1.8E1,2E0,1.8E1,8E0,2E0,2E1,3.5E1,-4.720682E-2,2.0874087E-2,-3.90006E-2,-2.7706569E-2,-2.2721685E-2,1.2271493E-2,-2.600338E-2,-9.612418E-3,-4.7442247E-3,1.9764988E-2,-2.5931645E-2,1.17396815E-2,-5.3092815E-2,-2.752986E-2,-1.5878289E-3,-2.0808643E-2,-2.7245304E-2,-8.038747E-3,3.4913786E-2,9.563622E-3,-7.162436E-2,1.4070767E-3,9.600847E-3,2.3176517E-2,-7.038398E-3,1.3062143E-3,-2.807986E-3,3.3374958E-2,1.4395587E-2,-1.2545435E-4],"split_indices":[5,5,1,3,7,4,4,4,7,3,0,4,4,4,4,1,4,4,0,6,4,4,4,7,4,6,0,4,3,0,4,0,0,0,0,0,0,0,0,0,0,0,0,0,0,0,0,0,0,0,0,0,0,0,0,0,0,0,0,0,0],"split_type":[0,0,0,0,0,0,0,0,0,0,0,0,0,0,0,0,0,0,0,0,0,0,0,0,0,0,0,0,0,0,0,0,0,0,0,0,0,0,0,0,0,0,0,0,0,0,0,0,0,0,0,0,0,0,0,0,0,0,0,0,0],"sum_hessian":[1.0183854E4,1.2991738E3,8.88468E3,5.350986E2,7.6407526E2,3.1512505E3,5.733429E3,3.8022986E2,1.548687E2,6.6137695E2,1.0269832E2,2.1448535E3,1.0063969E3,3.5897913E3,2.143638E3,7.8660545E0,3.723638E2,1.5271783E2,2.150862E0,3.2057574E2,3.4080118E2,4.2969063E1,5.972925E1,1.5903253E3,5.545282E2,5.590267E1,9.5049426E2,1.0155332E3,2.574258E3,1.802253E2,1.9634127E3,2.2932138E0,5.5728407E0,2.5373257E2,1.1863124E2,1.3943163E2,1.3286212E1,1.684466E2,1.5212915E2,3.0834286E2,3.2458324E1,3.5125668E1,7.843396E0,4.2848225E1,1.6881027E1,1.4766423E3,1.1368296E2,4.0861078E2,1.4591739E2,2.8524628E1,2.7378046E1,1.7786547E0,9.4871564E2,7.253994E2,2.9013376E2,6.559986E2,1.9182594E3,5.975196E0,1.742501E2,1.7145804E3,2.4883221E2],"tree_param":{"num_deleted":"0","num_feature":"8","num_nodes":"61","size_leaf_vector":"1"}},{"base_weights":[1.0394513E-3,-3.8883767E-1,5.893888E-2,-5.785014E-1,-2.544406E-1,-8.791858E-2,1.4038536E-1,-6.251873E-1,-2.9651603E-1,-3.6175114E-1,-1.2689729E-2,-1.5033188E-1,4.609257E-2,6.1596137E-2,2.7342394E-1,9.068876E-2,-6.379452E-1,-4.6890748E-1,-6.763991E-2,2.2805962E-1,-4.2563745E-1,4.381539E-1,-6.479636E-2,-5.638233E-2,-4.1592842E-1,1.599407E-1,-3.8352262E-2,2.5935444E-1,-1.5608118E-2,6.2798095E-1,2.4109218E-1,-4.6710413E-2,2.8981254E-2,-3.532912E-2,-2.4434326E-2,-9.4252275E-3,-4.4857558E-2,1.5634963E-2,-2.5462443E-2,2.040965E-2,-2.5084093E-2,-2.3904523E-2,2.0880855E-3,3.13829E-3,3.3043277E-2,-7.392286E-3,1.3694378E-2,-5.829477E-3,4.4697947E-3,-2.5427459E-2,-7.5938455E-3,-4.3414375E-3,1.2843079E-2,-5.6051216E-3,8.849876E-3,9.19415E-3,2.2436744E-2,-6.6504637E-3,1.2422054E-3,-2.6823187E-3,3.2611478E-2,4.938302E-3,1.5322842E-2],"categories":[],"categories_nodes":[],"categories_segments":[],"categories_sizes":[],"default_left":[0,0,0,0,0,0,0,0,0,0,0,0,0,0,0,0,0,0,0,0,0,0,0,0,0,0,0,0,0,0,0,0,0,0,0,0,0,0,0,0,0,0,0,0,0,0,0,0,0,0,0,0,0,0,0,0,0,0,0,0,0,0,0],"id":14,"left_children":[1,3,5,7,9,11,13,15,17,19,21,23,25,27,29,31,33,35,37,39,41,43,45,47,49,51,53,55,57,59,61,-1,-1,-1,-1,-1,-1,-1,-1,-1,-1,-1,-1,-1,-1,-1,-1,-1,-1,-1,-1,-1,-1,-1,-1,-1,-1,-1,-1,-1,-1,-1,-1],"loss_changes":[2.2974387E2,3.3397903E1,1.0600501E2,6.989334E0,2.0022995E1,2.645348E1,5.9736748E1,4.3200836E0,3.097786E0,2.0242447E1,5.6281567E0,5.381105E1,9.672479E0,5.468634E1,2.4151566E1,5.074928E0,4.353256E0,5.2431316E0,6.0788565E0,7.1586742E0,1.1854828E1,2.0339208E0,6.0751114E0,1.4008476E1,1.3706276E1,1.0267818E1,9.200962E0,1.429158E1,1.224117E1,2.9530258E0,1.8059532E1,0E0,0E0,0E0,0E0,0E0,0E0,0E0,0E0,0E0,0E0,0E0,0E0,0E0,0E0,0E0,0E0,0E0,0E0,0E0,0E0,0E0,0E0,0E0,0E0,0E0,0E0,0E0,0E0,0E0,0E0,0E0,0E0],"parents":[2147483647,0,0,1,1,2,2,3,3,4,4,5,5,6,6,7,7,8,8,9,9,10,10,11,11,12,12,13,13,14,14,15,15,16,16,17,17,18,18,19,19,20,20,21,21,22,22,23,23,24,24,25,25,26,26,27,27,28,28,29,29,30,30],"right_children":[2,4,6,8,10,12,14,16,18,20,22,24,26,28,30,32,34,36,38,40,42,44,46,48,50,52,54,56,58,60,62,-1,-1,-1,-1,-1,-1,-1,-1,-1,-1,-1,-1,-1,-1,-1,-1,-1,-1,-1,-1,-1,-1,-1,-1,-1,-1,-1,-1,-1,-1,-1,-1],"split_conditions":[5E0,3E0,2E0,3E0,2.1E1,1.9E1,2.1E1,2E0,2.7E1,6E0,2.2E1,1.2E1,2.3E1,9E0,2.2E1,1E0,2.1E1,2E0,2E0,3E0,5E0,2E0,3.3E1,1E1,1.8E1,1.4E1,2.9E1,8E0,2E0,2E1,2E0,-4.6710413E-2,2.8981254E-2,-3.532912E-2,-2.4434326E-2,-9.4252275E-3,-4.4857558E-2,1.5634963E-2,-2.5462443E-2,2.040965E-2,-2.5084093E-2,-2.3904523E-2,2.0880855E-3,3.13829E-3,3.3043277E-2,-7.392286E-3,1.3694378E-2,-5.829477E-3,4.4697947E-3,-2.5427459E-2,-7.5938455E-3,-4.3414375E-3,1.2843079E-2,-5.6051216E-3,8.849876E-3,9.19415E-3,2.2436744E-2,-6.6504637E-3,1.2422054E-3,-2.6823187E-3,3.2611478E-2,4.938302E-3,1.5322842E-2],"split_indices":[5,5,1,1,4,4,4,4,0,4,4,4,4,4,4,1,4,7,6,7,3,3,4,4,4,5,4,4,3,0,2,0,0,0,0,0,0,0,0,0,0,0,0,0,0,0,0,0,0,0,0,0,0,0,0,0,0,0,0,0,0,0,0],"split_type":[0,0,0,0,0,0,0,0,0,0,0,0,0,0,0,0,0,0,0,0,0,0,0,0,0,0,0,0,0,0,0,0,0,0,0,0,0,0,0,0,0,0,0,0,0,0,0,0,0,0,0,0,0,0,0,0,0,0,0,0,0,0,0],"sum_hessian":[1.0175504E4,1.3149972E3,8.860507E3,5.4399567E2,7.710015E2,3.1609202E3,5.6995864E3,4.6568E2,7.83157E1,5.3363184E2,2.3736966E2,2.1564639E3,1.00445636E3,3.5805476E3,2.1190388E3,8.0468025E0,4.5763318E2,4.4071747E1,3.424395E1,5.1901108E1,4.8173074E2,2.3824394E1,2.1354526E2,1.5938744E3,5.625895E2,4.2737598E2,5.770804E2,1.0046871E3,2.5758604E3,1.7554555E2,1.9434933E3,2.3048124E0,5.7419896E0,3.109209E2,1.4671227E2,2.7503407E1,1.6568342E1,1.8555117E1,1.5688832E1,4.1979332E1,9.921774E0,4.3310364E2,4.8627106E1,9.348685E0,1.4475709E1,1.719456E2,4.159966E1,1.1281447E3,4.6572974E2,4.1581058E2,1.467789E2,1.2054963E2,3.0682635E2,4.3022278E2,1.4685762E2,7.198035E2,2.8488354E2,6.595153E2,1.9163451E3,5.9887753E0,1.6955676E2,6.124484E2,1.3310448E3],"tree_param":{"num_deleted":"0","num_feature":"8","num_nodes":"63","size_leaf_vector":"1"}},{"base_weights":[1.048452E-3,-4.4187054E-1,4.678859E-2,-6.3638043E-1,-3.4983674E-1,-2.8364092E-2,2.0226803E-1,-6.214316E-1,-1.6750568E0,-4.6716014E-1,-1.8348913E-1,1.7241961E-1,-9.732128E-2,5.914669E-1,1.6086648E-1,-5.3125834E-1,-7.330562E-1,-1.0371315E-1,-1.4918725E-2,-1.5764719E-2,-4.9551958E-1,5.4382557E-1,-2.0765431E-1,-7.3382E-2,2.4182019E-1,-2.0555553E-1,-2.7583117E-2,-7.989983E-2,6.1381525E-1,-2.4536606E-2,2.2668734E-1,-3.5219E-2,-1.8508013E-2,-4.767045E-2,-2.7500913E-2,2.408582E-2,-2.6281277E-2,-2.9538674E-2,-1.7137732E-2,3.656101E-2,9.413396E-3,-1.4733096E-2,-1.8802021E-3,-1.4544198E-2,6.671184E-3,8.006903E-3,2.0917537E-2,-2.6627112E-2,-8.358982E-3,-9.0599535E-3,6.595407E-4,3.4917206E-2,-1.5875643E-2,3.1227285E-2,-3.0279597E-2,-3.5407785E-3,7.418184E-3,4.3502576E-3,1.4546161E-2],"categories":[],"categories_nodes":[],"categories_segments":[],"categories_sizes":[],"default_left":[0,0,0,0,0,0,0,0,0,0,0,0,0,0,0,0,0,0,0,0,0,0,0,0,0,0,0,0,0,0,0,0,0,0,0,0,0,0,0,0,0,0,0,0,0,0,0,0,0,0,0,0,0,0,0,0,0,0,0],"id":15,"left_children":[1,3,5,7,9,11,13,15,17,19,21,23,25,27,29,31,33,-1,-1,35,37,39,41,43,45,47,49,51,53,55,57,-1,-1,-1,-1,-1,-1,-1,-1,-1,-1,-1,-1,-1,-1,-1,-1,-1,-1,-1,-1,-1,-1,-1,-1,-1,-1,-1,-1],"loss_changes":[2.060195E2,1.6817276E1,1.0770714E2,3.6871567E0,1.2568077E1,8.606192E1,4.830365E1,2.6481018E0,1.4313278E0,4.8510666E0,4.8549156E0,2.712576E1,3.491602E1,4.3764877E0,3.315252E1,4.4961166E0,4.808258E0,0E0,0E0,6.206174E0,4.9937057E0,4.5882583E-1,3.863184E0,1.5811314E1,1.780503E1,2.2658234E1,1.7633076E1,2.103566E0,4.032074E0,5.712087E0,1.7961685E1,0E0,0E0,0E0,0E0,0E0,0E0,0E0,0E0,0E0,0E0,0E0,0E0,0E0,0E0,0E0,0E0,0E0,0E0,0E0,0E0,0E0,0E0,0E0,0E0,0E0,0E0,0E0,0E0],"parents":[2147483647,0,0,1,1,2,2,3,3,4,4,5,5,6,6,7,7,8,8,9,9,10,10,11,11,12,12,13,13,14,14,15,15,16,16,19,19,20,20,21,21,22,22,23,23,24,24,25,25,26,26,27,27,28,28,29,29,30,30],"right_children":[2,4,6,8,10,12,14,16,18,20,22,24,26,28,30,32,34,-1,-1,36,38,40,42,44,46,48,50,52,54,56,58,-1,-1,-1,-1,-1,-1,-1,-1,-1,-1,-1,-1,-1,-1,-1,-1,-1,-1,-1,-1,-1,-1,-1,-1,-1,-1,-1,-1],"split_conditions":[4E0,2E0,2.1E1,9E0,3E0,9E0,2.2E1,1.5E1,4.1E1,5E0,3E0,1E0,2E0,2E1,2E0,2.6E1,2.1E1,-1.0371315E-1,-1.4918725E-2,5E0,2.1E1,2.8E1,2.1E1,8E0,8E0,7E0,2E0,8E0,7E0,2.9E1,2E0,-3.5219E-2,-1.8508013E-2,-4.767045E-2,-2.7500913E-2,2.408582E-2,-2.6281277E-2,-2.9538674E-2,-1.7137732E-2,3.656101E-2,9.413396E-3,-1.4733096E-2,-1.8802021E-3,-1.4544198E-2,6.671184E-3,8.006903E-3,2.0917537E-2,-2.6627112E-2,-8.358982E-3,-9.0599535E-3,6.595407E-4,3.4917206E-2,-1.5875643E-2,3.1227285E-2,-3.0279597E-2,-3.5407785E-3,7.418184E-3,4.3502576E-3,1.4546161E-2],"split_indices":[5,1,4,7,5,4,4,4,0,4,4,1,3,0,1,0,4,0,0,3,4,0,4,4,4,5,2,5,7,4,2,0,0,0,0,0,0,0,0,0,0,0,0,0,0,0,0,0,0,0,0,0,0,0,0,0,0,0,0],"split_type":[0,0,0,0,0,0,0,0,0,0,0,0,0,0,0,0,0,0,0,0,0,0,0,0,0,0,0,0,0,0,0,0,0,0,0,0,0,0,0,0,0,0,0,0,0,0,0,0,0,0,0,0,0,0,0,0,0,0,0],"sum_hessian":[1.0167175E4,9.508711E2,9.216304E3,3.0350668E2,6.4736444E2,6.2136743E3,3.0026294E3,3.0077615E2,2.7305505E0,3.785607E2,2.688037E2,1.5880946E3,4.6255796E3,2.874207E2,2.7152087E3,1.695603E2,1.3121584E2,1.7239373E0,1.0066133E0,2.2469591E1,3.5609113E2,7.9523497E0,2.6085135E2,3.4965088E2,1.2384437E3,1.8117617E3,2.8138179E3,9.176422E0,2.7824426E2,7.115511E2,2.0036576E3,8.0104675E1,8.945563E1,5.7629246E1,7.358659E1,1.14008045E1,1.1068787E1,2.1756505E2,1.3852606E2,4.515786E0,3.4365637E0,1.72075E2,8.877635E1,1.7022014E2,1.7943073E2,8.4798236E2,3.9046133E2,1.8894595E2,1.6228158E3,5.8948535E2,2.2243325E3,1.6928624E0,7.4835596E0,2.7630072E2,1.9435431E0,5.6177527E2,1.4977588E2,6.319102E2,1.3717474E3],"tree_param":{"num_deleted":"0","num_feature":"8","num_nodes":"59","size_leaf_vector":"1"}},{"base_weights":[1.0340182E-3,-3.4624857E-1,5.3893935E-2,-5.085954E-1,-2.2950754E-1,-2.7458396E-2,1.8072307E-1,-4.6158892E-1,-7.6964235E-1,-1.6888504E-1,-6.0509497E-1,6.024268E-2,-2.351712E-1,5.680662E-1,1.5790081E-1,-4.917426E-1,4.1920453E-2,-5.6799406E-1,-1.0411922E0,-3.07921E-1,-3.454116E-2,-3.9287487E-1,-8.880365E-1,4.1417623E-1,3.1978995E-2,-3.1428665E-1,-4.468768E-2,6.099122E-1,-5.8835324E-2,-1.3225202E-1,1.97807E-1,-2.9758139E-2,-1.9943913E-2,-4.305783E-3,4.2588003E-2,-1.7680107E-2,-3.9173786E-2,-5.9922364E-2,-2.8009687E-2,-5.5562924E-3,-2.1929404E-2,-1.1344128E-2,3.029165E-3,-3.0393187E-2,3.8571942E-3,-3.7437435E-2,-6.358052E-2,-1.00100795E-2,2.5720462E-2,-5.5871983E-3,4.6354774E-3,-2.5884384E-2,-9.623227E-3,-1.3340821E-2,3.9166524E-3,-1.8217054E-3,3.163586E-2,-1.7427169E-2,4.01775E-2,-5.426316E-3,-4.3834563E-2,2.8875917E-2,7.916576E-3],"categories":[],"categories_nodes":[],"categories_segments":[],"categories_sizes":[],"default_left":[0,0,0,0,0,0,0,0,0,0,0,0,0,0,0,0,0,0,0,0,0,0,0,0,0,0,0,0,0,0,0,0,0,0,0,0,0,0,0,0,0,0,0,0,0,0,0,0,0,0,0,0,0,0,0,0,0,0,0,0,0,0,0],"id":16,"left_children":[1,3,5,7,9,11,13,15,17,19,21,23,25,27,29,31,33,35,37,39,41,43,45,47,49,51,53,55,57,59,61,-1,-1,-1,-1,-1,-1,-1,-1,-1,-1,-1,-1,-1,-1,-1,-1,-1,-1,-1,-1,-1,-1,-1,-1,-1,-1,-1,-1,-1,-1,-1,-1],"loss_changes":[1.8654688E2,2.5325653E1,9.100363E1,6.525131E0,1.7719563E1,9.7909355E1,3.037838E1,7.2725677E0,4.011585E0,1.2603546E1,6.15958E0,3.7793343E1,2.4031876E1,5.0566673E0,3.772946E1,4.091484E0,2.967304E0,2.0531483E0,1.9473801E0,8.481882E0,6.3184047E0,6.486703E0,1.4874649E0,1.730877E1,3.0567944E1,2.7830772E1,1.2848008E1,2.668892E0,3.4999995E0,6.869034E0,4.28216E1,0E0,0E0,0E0,0E0,0E0,0E0,0E0,0E0,0E0,0E0,0E0,0E0,0E0,0E0,0E0,0E0,0E0,0E0,0E0,0E0,0E0,0E0,0E0,0E0,0E0,0E0,0E0,0E0,0E0,0E0,0E0,0E0],"parents":[2147483647,0,0,1,1,2,2,3,3,4,4,5,5,6,6,7,7,8,8,9,9,10,10,11,11,12,12,13,13,14,14,15,15,16,16,17,17,18,18,19,19,20,20,21,21,22,22,23,23,24,24,25,25,26,26,27,27,28,28,29,29,30,30],"right_children":[2,4,6,8,10,12,14,16,18,20,22,24,26,28,30,32,34,36,38,40,42,44,46,48,50,52,54,56,58,60,62,-1,-1,-1,-1,-1,-1,-1,-1,-1,-1,-1,-1,-1,-1,-1,-1,-1,-1,-1,-1,-1,-1,-1,-1,-1,-1,-1,-1,-1,-1,-1,-1],"split_conditions":[5E0,3E0,1.9E1,4E0,4E0,1.2E1,2E1,3.3E1,1.6E1,3E0,3.2E1,3E0,1.8E1,4E0,2.1E1,2.4E1,3E1,2E0,3.5E1,1.2E1,2E0,2E0,7E0,2E0,1E0,2E0,1.6E1,6E0,6E0,3.5E1,2.2E1,-2.9758139E-2,-1.9943913E-2,-4.305783E-3,4.2588003E-2,-1.7680107E-2,-3.9173786E-2,-5.9922364E-2,-2.8009687E-2,-5.5562924E-3,-2.1929404E-2,-1.1344128E-2,3.029165E-3,-3.0393187E-2,3.8571942E-3,-3.7437435E-2,-6.358052E-2,-1.00100795E-2,2.5720462E-2,-5.5871983E-3,4.6354774E-3,-2.5884384E-2,-9.623227E-3,-1.3340821E-2,3.9166524E-3,-1.8217054E-3,3.163586E-2,-1.7427169E-2,4.01775E-2,-5.426316E-3,-4.3834563E-2,2.8875917E-2,7.916576E-3],"split_indices":[5,5,4,7,7,4,4,4,4,3,0,4,4,7,4,0,0,6,0,4,2,1,7,3,1,3,5,5,7,5,4,0,0,0,0,0,0,0,0,0,0,0,0,0,0,0,0,0,0,0,0,0,0,0,0,0,0,0,0,0,0,0,0],"split_type":[0,0,0,0,0,0,0,0,0,0,0,0,0,0,0,0,0,0,0,0,0,0,0,0,0,0,0,0,0,0,0,0,0,0,0,0,0,0,0,0,0,0,0,0,0,0,0,0,0,0,0,0,0,0,0,0,0,0,0,0,0,0,0],"sum_hessian":[1.0159968E4,1.3414263E3,8.818541E3,5.597077E2,7.817185E2,5.372944E3,3.4455974E3,4.7664667E2,8.306106E1,6.7432697E2,1.0739154E2,3.7783489E3,1.594595E3,1.903893E2,3.255208E3,4.4973663E2,2.691002E1,4.9439674E1,3.3621387E1,3.3074173E2,3.435852E2,6.2729706E1,4.466184E1,2.7840115E2,3.4999478E3,1.1261921E3,4.6840283E2,1.7850133E2,1.1887959E1,3.9329523E2,2.8619128E3,2.1021631E2,2.3952034E2,2.4008005E1,2.9020162E0,2.6106339E1,2.3333334E1,2.4213558E1,9.407831E0,1.3271407E2,1.9802768E2,1.13236404E2,2.3034882E2,4.2840828E1,1.988888E1,3.492977E1,9.732066E0,3.8909306E1,2.3949184E2,1.0393695E3,2.4605781E3,4.2063196E2,7.055602E2,1.6653499E2,3.0186783E2,6.063048E0,1.7243828E2,9.344593E0,2.5433662E0,3.8225824E2,1.10370035E1,2.6822736E2,2.5936855E3],"tree_param":{"num_deleted":"0","num_feature":"8","num_nodes":"63","size_leaf_vector":"1"}},{"base_weights":[1.0171881E-3,-3.258681E-1,5.1379174E-2,-4.7712165E-1,-2.1652351E-1,-8.000271E-2,1.2559488E-1,-4.3308517E-1,-7.207411E-1,-3.1062126E-1,-6.0566E-4,-2.70366E-2,-2.1460567E-1,5.6583274E-2,2.4504372E-1,-5.114764E-1,-2.5811026E-1,-5.3377056E-1,-9.704557E-1,2.2200432E-1,-3.6623082E-1,4.277856E-1,-4.8989892E-2,4.046284E-1,-4.064696E-2,-5.2914524E-1,-1.9361264E-1,2.3298992E-1,-1.0235418E-2,2.823636E-1,-3.3935033E-2,-2.637293E-2,3.3405708E-4,-1.5752507E-2,1.5729778E-2,-1.6690355E-2,-3.6647793E-2,-4.088145E-2,-8.137747E-2,1.9766947E-2,-2.2653203E-2,-2.0588627E-2,2.5182995E-3,3.797665E-3,3.218898E-2,-6.2512914E-3,1.3381313E-2,2.3509886E-3,2.7420739E-2,-4.9380297E-3,3.2879405E-3,-3.33994E-2,2.7503693E-2,3.1368171E-3,-1.0706486E-2,8.034798E-3,2.0868598E-2,-1.7817321E-3,7.1361475E-3,2.9168895E-2,1.2616894E-2,-3.4056194E-3,3.295583E-2],"categories":[],"categories_nodes":[],"categories_segments":[],"categories_sizes":[],"default_left":[0,0,0,0,0,0,0,0,0,0,0,0,0,0,0,0,0,0,0,0,0,0,0,0,0,0,0,0,0,0,0,0,0,0,0,0,0,0,0,0,0,0,0,0,0,0,0,0,0,0,0,0,0,0,0,0,0,0,0,0,0,0,0],"id":17,"left_children":[1,3,5,7,9,11,13,15,17,19,21,23,25,27,29,31,33,35,37,39,41,43,45,47,49,51,53,55,57,59,61,-1,-1,-1,-1,-1,-1,-1,-1,-1,-1,-1,-1,-1,-1,-1,-1,-1,-1,-1,-1,-1,-1,-1,-1,-1,-1,-1,-1,-1,-1,-1,-1],"loss_changes":[1.6715236E2,2.2314545E1,8.579558E1,5.7805176E0,1.6021297E1,2.2640472E1,4.633448E1,6.4996185E0,3.47089E0,1.6348392E1,5.002792E0,1.3415427E1,5.819458E0,4.202308E1,2.1442429E1,2.760147E0,5.0429773E0,1.7897387E0,2.2198982E0,6.327297E0,9.462753E0,1.8124952E0,5.2541046E0,3.5633535E0,1.3683632E1,8.688821E0,4.4435253E0,1.29879875E1,1.0053811E1,1.6264313E1,5.819321E0,0E0,0E0,0E0,0E0,0E0,0E0,0E0,0E0,0E0,0E0,0E0,0E0,0E0,0E0,0E0,0E0,0E0,0E0,0E0,0E0,0E0,0E0,0E0,0E0,0E0,0E0,0E0,0E0,0E0,0E0,0E0,0E0],"parents":[2147483647,0,0,1,1,2,2,3,3,4,4,5,5,6,6,7,7,8,8,9,9,10,10,11,11,12,12,13,13,14,14,15,15,16,16,17,17,18,18,19,19,20,20,21,21,22,22,23,23,24,24,25,25,26,26,27,27,28,28,29,29,30,30],"right_children":[2,4,6,8,10,12,14,16,18,20,22,24,26,28,30,32,34,36,38,40,42,44,46,48,50,52,54,56,58,60,62,-1,-1,-1,-1,-1,-1,-1,-1,-1,-1,-1,-1,-1,-1,-1,-1,-1,-1,-1,-1,-1,-1,-1,-1,-1,-1,-1,-1,-1,-1,-1,-1],"split_conditions":[5E0,3E0,2E0,4E0,2.1E1,4E0,2.1E1,4E0,1.6E1,6E0,2.2E1,3E0,7E0,9E0,3.5E1,3.3E1,3.3E1,2E0,7E0,3E0,5E0,2E0,3.3E1,2E0,1.9E1,3.9E1,9E0,8E0,1.9E1,2.2E1,3.7E1,-2.637293E-2,3.3405708E-4,-1.5752507E-2,1.5729778E-2,-1.6690355E-2,-3.6647793E-2,-4.088145E-2,-8.137747E-2,1.9766947E-2,-2.2653203E-2,-2.0588627E-2,2.5182995E-3,3.797665E-3,3.218898E-2,-6.2512914E-3,1.3381313E-2,2.3509886E-3,2.7420739E-2,-4.9380297E-3,3.2879405E-3,-3.33994E-2,2.7503693E-2,3.1368171E-3,-1.0706486E-2,8.034798E-3,2.0868598E-2,-1.7817321E-3,7.1361475E-3,2.9168895E-2,1.2616894E-2,-3.4056194E-3,3.295583E-2],"split_indices":[5,5,1,7,4,7,4,3,4,4,4,4,4,4,4,0,4,6,7,7,3,3,4,3,4,0,4,4,4,4,4,0,0,0,0,0,0,0,0,0,0,0,0,0,0,0,0,0,0,0,0,0,0,0,0,0,0,0,0,0,0,0,0],"split_type":[0,0,0,0,0,0,0,0,0,0,0,0,0,0,0,0,0,0,0,0,0,0,0,0,0,0,0,0,0,0,0,0,0,0,0,0,0,0,0,0,0,0,0,0,0,0,0,0,0,0,0,0,0,0,0,0,0,0,0,0,0,0,0],"sum_hessian":[1.0151448E4,1.3544739E3,8.796974E3,5.669135E2,7.8756036E2,3.1754648E3,5.6215093E3,4.824787E2,8.443481E1,5.4820996E2,2.393504E2,2.2796328E3,8.95832E2,3.5639243E3,2.057585E3,3.3187216E2,1.5060654E2,5.0077477E1,3.435733E1,5.154287E1,4.9666708E2,2.3494043E1,2.1585635E2,6.8801476E1,2.2108313E3,5.453445E1,8.412975E2,9.7839545E2,2.5855288E3,1.8148013E3,2.4278383E2,3.2192465E2,9.947512E0,1.3739613E2,1.3210395E1,2.6325247E1,2.375223E1,2.969515E1,4.6621814E0,4.134202E1,1.02008505E1,4.477332E2,4.8933907E1,9.45099E0,1.4043054E1,1.7454434E2,4.1312016E1,2.0110931E1,4.869054E1,1.4299398E3,7.808915E2,4.8655865E1,5.878587E0,6.2191612E1,7.791059E2,7.0417035E2,2.7422516E2,2.2179912E3,3.6753745E2,1.6293306E2,1.6518682E3,2.3223312E2,1.05506935E1],"tree_param":{"num_deleted":"0","num_feature":"8","num_nodes":"63","size_leaf_vector":"1"}},{"base_weights":[1.0109864E-3,-3.068364E-1,4.8970964E-2,-2.564901E-1,-6.044172E-1,-7.5753294E-2,1.1999256E-1,-4.06805E-1,-1.4861092E-1,-5.471339E-1,-1.0282707E0,-2.5635663E-2,-2.022426E-1,5.3909235E-2,2.3526202E-1,-4.3336505E-1,4.6443507E-2,5.7570004E-1,-1.7055245E-1,-6.2665915E-1,-3.553893E-1,-2.748095E-1,-1.5908419E0,3.9088526E-1,-3.8553197E-2,-2.4527141E-1,-6.508123E-2,2.2352023E-1,-9.714351E-3,2.7148935E-1,-3.204848E-2,-2.2005597E-2,3.0620927E-2,-3.7562053E-3,4.196995E-2,-6.168051E-3,3.1887926E-2,-1.3113526E-2,6.8832823E-4,-7.382235E-4,-3.2979272E-2,3.599628E-2,-2.5088409E-2,-2.606689E-2,3.893414E-2,-4.8089974E-2,-1.04599975E-1,2.2428685E-3,2.6633361E-2,-4.6740016E-3,3.1319954E-3,-8.141156E-3,-2.1722417E-2,7.0102806E-3,-8.8337455E-3,7.684859E-3,2.0170685E-2,2.888116E-3,-3.3609786E-3,2.8417856E-2,1.21143265E-2,3.8768605E-3,-1.1947391E-2],"categories":[],"categories_nodes":[],"categories_segments":[],"categories_sizes":[],"default_left":[0,0,0,0,0,0,0,0,0,0,0,0,0,0,0,0,0,0,0,0,0,0,0,0,0,0,0,0,0,0,0,0,0,0,0,0,0,0,0,0,0,0,0,0,0,0,0,0,0,0,0,0,0,0,0,0,0,0,0,0,0,0,0],"id":18,"left_children":[1,3,5,7,9,11,13,15,17,19,21,23,25,27,29,31,33,35,37,39,41,43,45,47,49,51,53,55,57,59,61,-1,-1,-1,-1,-1,-1,-1,-1,-1,-1,-1,-1,-1,-1,-1,-1,-1,-1,-1,-1,-1,-1,-1,-1,-1,-1,-1,-1,-1,-1,-1,-1],"loss_changes":[1.4979787E2,2.033429E1,7.776837E1,1.8935287E1,4.2243347E0,2.0189484E1,4.2596725E1,5.905342E0,1.0961605E1,2.458313E0,9.030531E0,1.2297174E1,5.318573E0,3.8383488E1,1.974456E1,3.5286484E0,2.7588274E0,9.605007E-1,1.1232676E1,2.467743E0,8.838001E0,3.1997004E0,1.9534779E0,3.349248E0,1.2317219E1,1.0655018E1,5.000589E0,1.2125244E1,1.0043812E1,1.5422653E1,5.5537357E0,0E0,0E0,0E0,0E0,0E0,0E0,0E0,0E0,0E0,0E0,0E0,0E0,0E0,0E0,0E0,0E0,0E0,0E0,0E0,0E0,0E0,0E0,0E0,0E0,0E0,0E0,0E0,0E0,0E0,0E0,0E0,0E0],"parents":[2147483647,0,0,1,1,2,2,3,3,4,4,5,5,6,6,7,7,8,8,9,9,10,10,11,11,12,12,13,13,14,14,15,15,16,16,17,17,18,18,19,19,20,20,21,21,22,22,23,23,24,24,25,25,26,26,27,27,28,28,29,29,30,30],"right_children":[2,4,6,8,10,12,14,16,18,20,22,24,26,28,30,32,34,36,38,40,42,44,46,48,50,52,54,56,58,60,62,-1,-1,-1,-1,-1,-1,-1,-1,-1,-1,-1,-1,-1,-1,-1,-1,-1,-1,-1,-1,-1,-1,-1,-1,-1,-1,-1,-1,-1,-1,-1,-1],"split_conditions":[5E0,4E0,2E0,3E0,7E0,4E0,2.1E1,3.3E1,3E0,1.8E1,1.5E1,3E0,1.9E1,9E0,3.5E1,3.9E1,3E1,2.1E1,2.1E1,6E0,1.9E1,1.1E1,1E0,2E0,1.9E1,1.1E1,2.2E1,8E0,1.2E1,2.2E1,2.5E1,-2.2005597E-2,3.0620927E-2,-3.7562053E-3,4.196995E-2,-6.168051E-3,3.1887926E-2,-1.3113526E-2,6.8832823E-4,-7.382235E-4,-3.2979272E-2,3.599628E-2,-2.5088409E-2,-2.606689E-2,3.893414E-2,-4.8089974E-2,-1.04599975E-1,2.2428685E-3,2.6633361E-2,-4.6740016E-3,3.1319954E-3,-8.141156E-3,-2.1722417E-2,7.0102806E-3,-8.8337455E-3,7.684859E-3,2.0170685E-2,2.888116E-3,-3.3609786E-3,2.8417856E-2,1.21143265E-2,3.8768605E-3,-1.1947391E-2],"split_indices":[5,7,1,5,7,7,4,4,4,4,4,4,4,4,4,0,0,0,4,4,4,4,1,3,4,4,4,4,4,4,5,0,0,0,0,0,0,0,0,0,0,0,0,0,0,0,0,0,0,0,0,0,0,0,0,0,0,0,0,0,0,0,0],"split_type":[0,0,0,0,0,0,0,0,0,0,0,0,0,0,0,0,0,0,0,0,0,0,0,0,0,0,0,0,0,0,0,0,0,0,0,0,0,0,0,0,0,0,0,0,0,0,0,0,0,0,0,0,0,0,0,0,0,0,0,0,0,0,0],"sum_hessian":[1.0143898E4,1.3665885E3,8.77731E3,1.1704309E3,1.9615761E2,3.1846082E3,5.5927017E3,4.8787418E2,6.825567E2,1.7482155E2,2.1336063E1,2.2817393E3,9.028688E2,3.555704E3,2.0369973E3,4.609091E2,2.6965063E1,1.9326677E1,6.6323004E2,1.21967766E2,5.285378E1,9.756928E0,1.1579134E1,6.7754715E1,2.2139846E3,6.8666675E2,2.1620201E2,9.6926776E2,2.5864363E3,1.7938673E3,2.4312996E2,4.5853006E2,2.3790574E0,2.416552E1,2.799543E0,1.4952735E0,1.7831404E1,4.4257806E2,2.20652E2,6.3019543E0,1.1566581E2,5.863278E0,4.69905E1,8.316025E0,1.4409039E0,6.428886E0,5.150248E0,2.0075518E1,4.7679195E1,1.4350999E3,7.7888477E2,4.795339E2,2.0713283E2,7.604811E1,1.401539E2,6.9958734E2,2.696804E2,1.1900391E3,1.3963972E3,1.5900488E2,1.6348624E3,1.5935284E2,8.3777115E1],"tree_param":{"num_deleted":"0","num_feature":"8","num_nodes":"63","size_leaf_vector":"1"}},{"base_weights":[1.0016521E-3,-3.488624E-1,3.8943764E-2,-5.106274E-1,-2.7137303E-1,-4.996514E-2,1.3738272E-1,-4.9758062E-1,-1.423601E0,-3.5830003E-1,-1.4511967E-1,-1.2624678E-1,9.273178E-2,-1.6874371E-2,2.2088866E-1,-4.18219E-1,-5.9603757E-1,-9.032429E-2,-1.0186998E-2,4.2667937E-2,-3.8340136E-1,5.082986E-1,-1.6531658E-1,-4.3237478E-2,-2.603464E-1,5.056936E-1,5.7282984E-2,8.711028E-2,-9.749086E-2,2.4570376E-1,-9.5417455E-2,-2.8963363E-2,-1.3434403E-2,-6.779427E-3,-3.2879803E-2,2.5343362E-2,-2.1318046E-2,-2.3218166E-2,-1.2650627E-2,3.5121325E-2,7.7023744E-3,-2.2158546E-3,-1.367528E-2,-7.936118E-3,8.316194E-3,-2.2496974E-2,-8.480523E-3,-1.9063694E-2,2.9098261E-2,-4.9982565E-3,5.487956E-3,6.286975E-3,-8.963697E-3,-2.7579559E-2,-3.9303796E-3,9.41557E-3,1.6948987E-2,-2.6555895E-4,-3.0552244E-2],"categories":[],"categories_nodes":[],"categories_segments":[],"categories_sizes":[],"default_left":[0,0,0,0,0,0,0,0,0,0,0,0,0,0,0,0,0,0,0,0,0,0,0,0,0,0,0,0,0,0,0,0,0,0,0,0,0,0,0,0,0,0,0,0,0,0,0,0,0,0,0,0,0,0,0,0,0,0,0],"id":19,"left_children":[1,3,5,7,9,11,13,15,17,19,21,23,25,27,29,31,33,-1,-1,35,37,39,41,43,45,47,49,51,53,55,57,-1,-1,-1,-1,-1,-1,-1,-1,-1,-1,-1,-1,-1,-1,-1,-1,-1,-1,-1,-1,-1,-1,-1,-1,-1,-1,-1,-1],"loss_changes":[1.3458133E2,1.2295052E1,8.005657E1,3.104744E0,7.3316917E0,5.2331577E1,5.5919357E1,2.2288437E0,1.4875546E0,4.0198174E0,3.726633E0,3.4859238E1,2.449052E1,1.2796459E1,2.2129242E1,4.153923E0,3.8562393E0,0E0,0E0,5.5141315E0,3.8352242E0,4.7779584E-1,3.5027065E0,4.6881725E1,2.0524414E1,9.17094E0,1.2748897E1,6.88321E0,7.329072E0,1.3917603E1,9.548994E0,0E0,0E0,0E0,0E0,0E0,0E0,0E0,0E0,0E0,0E0,0E0,0E0,0E0,0E0,0E0,0E0,0E0,0E0,0E0,0E0,0E0,0E0,0E0,0E0,0E0,0E0,0E0,0E0],"parents":[2147483647,0,0,1,1,2,2,3,3,4,4,5,5,6,6,7,7,8,8,9,9,10,10,11,11,12,12,13,13,14,14,15,15,16,16,19,19,20,20,21,21,22,22,23,23,24,24,25,25,26,26,27,27,28,28,29,29,30,30],"right_children":[2,4,6,8,10,12,14,16,18,20,22,24,26,28,30,32,34,-1,-1,36,38,40,42,44,46,48,50,52,54,56,58,-1,-1,-1,-1,-1,-1,-1,-1,-1,-1,-1,-1,-1,-1,-1,-1,-1,-1,-1,-1,-1,-1,-1,-1,-1,-1,-1,-1],"split_conditions":[4E0,2E0,3E0,9E0,3E0,1.9E1,2E0,1.5E1,4.1E1,5E0,3E0,1.2E1,2E1,2E0,4E0,2.6E1,2.1E1,-9.032429E-2,-1.0186998E-2,5E0,2.1E1,2.8E1,2E0,1E1,1.4E1,6E0,2.3E1,3.1E1,5E0,2.1E1,6E0,-2.8963363E-2,-1.3434403E-2,-6.779427E-3,-3.2879803E-2,2.5343362E-2,-2.1318046E-2,-2.3218166E-2,-1.2650627E-2,3.5121325E-2,7.7023744E-3,-2.2158546E-3,-1.367528E-2,-7.936118E-3,8.316194E-3,-2.2496974E-2,-8.480523E-3,-1.9063694E-2,2.9098261E-2,-4.9982565E-3,5.487956E-3,6.286975E-3,-8.963697E-3,-2.7579559E-2,-3.9303796E-3,9.41557E-3,1.6948987E-2,-2.6555895E-4,-3.0552244E-2],"split_indices":[5,1,3,7,5,4,2,4,0,4,4,4,4,7,7,0,0,0,0,3,4,0,7,4,5,5,0,0,5,4,7,0,0,0,0,0,0,0,0,0,0,0,0,0,0,0,0,0,0,0,0,0,0,0,0,0,0,0,0],"split_type":[0,0,0,0,0,0,0,0,0,0,0,0,0,0,0,0,0,0,0,0,0,0,0,0,0,0,0,0,0,0,0,0,0,0,0,0,0,0,0,0,0,0,0,0,0,0,0,0,0,0,0,0,0,0,0,0,0,0,0],"sum_hessian":[1.0136251E4,9.909069E2,9.145344E3,3.1912326E2,6.717837E2,4.805534E3,4.3398096E3,3.1615036E2,2.9729004E0,3.9676688E2,2.7501678E2,3.1315913E3,1.6739427E3,1.5244865E3,2.815323E3,1.77956E2,1.3819435E2,1.8966831E0,1.0762174E0,2.3333796E1,3.7343307E2,7.521195E0,2.674956E2,1.9350773E3,1.196514E3,1.3128372E2,1.542659E3,6.657177E2,8.5876874E2,2.6107273E3,2.0459572E2,8.429474E1,9.3661255E1,1.667444E1,1.2151991E2,1.1686729E1,1.1647066E1,2.2880225E2,1.4463083E2,4.2237506E0,3.297444E0,1.26937386E2,1.405582E2,1.2477249E3,6.873525E2,3.860023E2,8.1051166E2,1.0078723E1,1.21205E2,3.8576987E2,1.1568892E3,5.818673E2,8.385045E1,3.315899E1,8.2560974E2,1.6181217E3,9.926057E2,1.7502098E2,2.9574745E1],"tree_param":{"num_deleted":"0","num_feature":"8","num_nodes":"59","size_leaf_vector":"1"}},{"base_weights":[9.788881E-4,-2.7405807E-1,4.4665843E-2,-2.279389E-1,-5.440648E-1,-7.1397856E-2,1.1145022E-1,-3.587911E-1,-1.3298464E-1,-4.9184707E-1,-9.282885E-1,-2.4994183E-2,-1.8750183E-1,4.0928666E-2,2.0608434E-1,-4.2883137E-1,-2.0195942E-1,5.5674195E-1,-1.5310739E-1,-8.09136E-1,-4.450269E-1,-2.362124E-1,-1.4352905E0,3.7871993E-1,-3.73411E-2,-4.7297227E-1,-1.681844E-1,1.2340926E-1,-1.2927581E-1,5.8924776E-1,1.8360192E-1,-2.2148287E-2,1.7425012E-3,-1.25705E-2,1.5549453E-2,-6.0753194E-3,3.0947987E-2,-1.1856819E-2,8.8376796E-4,1.8854866E-2,-4.593555E-2,-2.680002E-2,-1.18857045E-2,-2.3439383E-2,3.8603995E-2,-4.320422E-2,-9.457229E-2,-2.7220665E-2,2.1236101E-2,-3.9513605E-3,3.512242E-3,-1.7743267E-2,-8.938156E-2,-8.947039E-3,1.4143332E-2,2.2136038E-2,4.63018E-3,-8.637657E-3,1.00250505E-2,-7.2964593E-3,3.0874377E-2,-6.1546313E-3,1.0972968E-2],"categories":[],"categories_nodes":[],"categories_segments":[],"categories_sizes":[],"default_left":[0,0,0,0,0,0,0,0,0,0,0,0,0,0,0,0,0,0,0,0,0,0,0,0,0,0,0,0,0,0,0,0,0,0,0,0,0,0,0,0,0,0,0,0,0,0,0,0,0,0,0,0,0,0,0,0,0,0,0,0,0,0,0],"id":20,"left_children":[1,3,5,7,9,11,13,15,17,19,21,23,25,27,29,31,33,35,37,39,41,43,45,47,49,51,53,55,57,59,61,-1,-1,-1,-1,-1,-1,-1,-1,-1,-1,-1,-1,-1,-1,-1,-1,-1,-1,-1,-1,-1,-1,-1,-1,-1,-1,-1,-1,-1,-1,-1,-1],"loss_changes":[1.217307E2,1.7168198E1,6.7772736E1,1.4710522E1,3.5935555E0,1.7202091E1,3.702883E1,5.393463E0,9.660468E0,2.3115616E0,7.7402115E0,1.1393698E1,4.948696E0,4.4675747E1,2.0303535E1,2.2698364E0,4.0328913E0,9.09605E-1,9.635305E0,3.1934795E0,2.8701744E0,2.9257126E0,1.7770424E0,3.112012E0,9.944378E0,8.253115E0,4.201578E0,2.1042076E1,1.4930077E1,2.80719E0,2.4656555E1,0E0,0E0,0E0,0E0,0E0,0E0,0E0,0E0,0E0,0E0,0E0,0E0,0E0,0E0,0E0,0E0,0E0,0E0,0E0,0E0,0E0,0E0,0E0,0E0,0E0,0E0,0E0,0E0,0E0,0E0,0E0,0E0],"parents":[2147483647,0,0,1,1,2,2,3,3,4,4,5,5,6,6,7,7,8,8,9,9,10,10,11,11,12,12,13,13,14,14,15,15,16,16,17,17,18,18,19,19,20,20,21,21,22,22,23,23,24,24,25,25,26,26,27,27,28,28,29,29,30,30],"right_children":[2,4,6,8,10,12,14,16,18,20,22,24,26,28,30,32,34,36,38,40,42,44,46,48,50,52,54,56,58,60,62,-1,-1,-1,-1,-1,-1,-1,-1,-1,-1,-1,-1,-1,-1,-1,-1,-1,-1,-1,-1,-1,-1,-1,-1,-1,-1,-1,-1,-1,-1,-1,-1],"split_conditions":[5E0,4E0,2E0,3E0,7E0,4E0,1.9E1,4E0,3E0,2E0,1.5E1,3E0,7E0,1.2E1,2E1,3.3E1,3.3E1,2.1E1,2.1E1,7E0,1.8E1,1.1E1,1E0,2.2E1,2.1E1,3.4E1,2.8E1,3E0,3E0,6E0,2.1E1,-2.2148287E-2,1.7425012E-3,-1.25705E-2,1.5549453E-2,-6.0753194E-3,3.0947987E-2,-1.1856819E-2,8.8376796E-4,1.8854866E-2,-4.593555E-2,-2.680002E-2,-1.18857045E-2,-2.3439383E-2,3.8603995E-2,-4.320422E-2,-9.457229E-2,-2.7220665E-2,2.1236101E-2,-3.9513605E-3,3.512242E-3,-1.7743267E-2,-8.938156E-2,-8.947039E-3,1.4143332E-2,2.2136038E-2,4.63018E-3,-8.637657E-3,1.00250505E-2,-7.2964593E-3,3.0874377E-2,-6.1546313E-3,1.0972968E-2],"split_indices":[5,7,1,5,7,7,4,3,4,2,4,4,4,4,4,0,4,0,4,4,4,4,1,0,4,5,4,4,1,5,4,0,0,0,0,0,0,0,0,0,0,0,0,0,0,0,0,0,0,0,0,0,0,0,0,0,0,0,0,0,0,0,0],"split_type":[0,0,0,0,0,0,0,0,0,0,0,0,0,0,0,0,0,0,0,0,0,0,0,0,0,0,0,0,0,0,0,0,0,0,0,0,0,0,0,0,0,0,0,0,0,0,0,0,0,0,0,0,0,0,0,0,0,0,0,0,0,0,0],"sum_hessian":[1.0129097E4,1.3876556E3,8.741441E3,1.1867877E3,2.0086794E2,3.1927441E3,5.5486973E3,4.978897E2,6.88898E2,1.7884253E2,2.202541E1,2.281932E3,9.108122E2,3.1802217E3,2.3684756E3,3.4298154E2,1.5490817E2,1.8772854E1,6.701251E2,2.0903406E1,1.5793913E2,9.932748E0,1.2092663E1,6.683742E1,2.2150945E3,5.623877E1,8.545734E2,2.1423298E3,1.0378918E3,1.2987274E2,2.2386028E3,3.328791E2,1.0102429E1,1.4175246E2,1.3155718E1,1.4973226E0,1.727553E1,4.4887833E2,2.2124684E2,1.5611627E0,1.9342243E1,1.08667816E2,4.9271313E1,8.505837E0,1.4269102E0,6.6543E0,5.438362E0,2.6582978E0,6.417912E1,1.5966926E3,6.1840186E2,5.2768093E1,3.4706755E0,8.35258E2,1.9315405E1,1.8732002E2,1.9550099E3,9.1741693E2,1.2047485E2,4.650002E0,1.2522274E2,2.3407649E2,2.0045264E3],"tree_param":{"num_deleted":"0","num_feature":"8","num_nodes":"63","size_leaf_vector":"1"}},{"base_weights":[9.483849E-4,-2.5853336E-1,4.2547163E-2,-2.1514739E-1,-5.107622E-1,-3.7097163E-2,1.3156435E-1,-3.3782876E-1,-1.2572977E-1,-4.6154034E-1,-8.7182647E-1,-1.065457E-1,9.545154E-2,-1.2023261E-2,2.1012402E-1,-4.0320063E-1,-1.9075458E-1,-2.4186711E-1,-1.1245918E-2,-7.5359714E-1,-4.1804644E-1,-2.2152573E-1,-1.3399442E0,-3.3518657E-2,-2.2226693E-1,5.2332306E-1,5.950398E-2,7.5788565E-2,-7.930121E-2,2.1873024E-1,-5.587558E-1,-2.0817826E-2,1.6646095E-3,-1.1861504E-2,1.4984101E-2,-2.7136854E-3,-1.833045E-2,-5.999727E-3,6.8391236E-3,1.840884E-2,-4.2722974E-2,-2.5113111E-2,-1.1232226E-2,-2.2163428E-2,3.7934553E-2,-4.065461E-2,-8.776475E-2,-6.974794E-3,7.901494E-3,-1.492649E-2,-2.9580796E-3,-3.180836E-3,2.9629538E-2,-4.1286773E-3,5.291125E-3,5.834789E-3,-1.0026016E-2,2.4526363E-2,-4.5457105E-3,2.5592878E-2,1.0103064E-2,-1.4699962E-3,-5.8561325E-2],"categories":[],"categories_nodes":[],"categories_segments":[],"categories_sizes":[],"default_left":[0,0,0,0,0,0,0,0,0,0,0,0,0,0,0,0,0,0,0,0,0,0,0,0,0,0,0,0,0,0,0,0,0,0,0,0,0,0,0,0,0,0,0,0,0,0,0,0,0,0,0,0,0,0,0,0,0,0,0,0,0,0,0],"id":21,"left_children":[1,3,5,7,9,11,13,15,17,19,21,23,25,27,29,31,33,35,37,39,41,43,45,47,49,51,53,55,57,59,61,-1,-1,-1,-1,-1,-1,-1,-1,-1,-1,-1,-1,-1,-1,-1,-1,-1,-1,-1,-1,-1,-1,-1,-1,-1,-1,-1,-1,-1,-1,-1,-1],"loss_changes":[1.0927426E2,1.519651E1,6.186096E1,1.3068256E1,3.233017E0,4.2406063E1,4.647892E1,4.7617607E0,9.209857E0,1.9986191E0,6.8312283E0,2.5536018E1,2.4331833E1,8.619557E0,1.7744865E1,2.0094109E0,3.644136E0,8.02792E0,5.6503215E0,2.844841E0,2.5058117E0,2.7269318E0,1.508749E0,3.766471E1,1.4526848E1,5.0235443E0,9.632114E0,7.178101E0,5.5106187E0,1.2768692E1,9.614472E0,0E0,0E0,0E0,0E0,0E0,0E0,0E0,0E0,0E0,0E0,0E0,0E0,0E0,0E0,0E0,0E0,0E0,0E0,0E0,0E0,0E0,0E0,0E0,0E0,0E0,0E0,0E0,0E0,0E0,0E0,0E0,0E0],"parents":[2147483647,0,0,1,1,2,2,3,3,4,4,5,5,6,6,7,7,8,8,9,9,10,10,11,11,12,12,13,13,14,14,15,15,16,16,17,17,18,18,19,19,20,20,21,21,22,22,23,23,24,24,25,25,26,26,27,27,28,28,29,29,30,30],"right_children":[2,4,6,8,10,12,14,16,18,20,22,24,26,28,30,32,34,36,38,40,42,44,46,48,50,52,54,56,58,60,62,-1,-1,-1,-1,-1,-1,-1,-1,-1,-1,-1,-1,-1,-1,-1,-1,-1,-1,-1,-1,-1,-1,-1,-1,-1,-1,-1,-1,-1,-1,-1,-1],"split_conditions":[5E0,4E0,3E0,3E0,7E0,1.9E1,2E0,4E0,3E0,2E0,1.5E1,1.2E1,2E1,2E0,6E0,3.3E1,3.3E1,1.2E1,2.6E1,7E0,1.8E1,1.1E1,1E0,1E1,1.8E1,2E0,2.3E1,3.1E1,3E0,3E0,2.3E1,-2.0817826E-2,1.6646095E-3,-1.1861504E-2,1.4984101E-2,-2.7136854E-3,-1.833045E-2,-5.999727E-3,6.8391236E-3,1.840884E-2,-4.2722974E-2,-2.5113111E-2,-1.1232226E-2,-2.2163428E-2,3.7934553E-2,-4.065461E-2,-8.776475E-2,-6.974794E-3,7.901494E-3,-1.492649E-2,-2.9580796E-3,-3.180836E-3,2.9629538E-2,-4.1286773E-3,5.291125E-3,5.834789E-3,-1.0026016E-2,2.4526363E-2,-4.5457105E-3,2.5592878E-2,1.0103064E-2,-1.4699962E-3,-5.8561325E-2],"split_indices":[5,7,3,5,7,4,2,3,3,2,4,4,4,7,7,0,4,4,0,4,4,4,1,4,4,2,0,0,4,4,5,0,0,0,0,0,0,0,0,0,0,0,0,0,0,0,0,0,0,0,0,0,0,0,0,0,0,0,0,0,0,0,0],"split_type":[0,0,0,0,0,0,0,0,0,0,0,0,0,0,0,0,0,0,0,0,0,0,0,0,0,0,0,0,0,0,0,0,0,0,0,0,0,0,0,0,0,0,0,0,0,0,0,0,0,0,0,0,0,0,0,0,0,0,0,0,0,0,0],"sum_hessian":[1.0121478E4,1.397713E3,8.723765E3,1.1941583E3,2.035546E2,4.604589E3,4.119176E3,5.0226733E2,6.9189105E2,1.8113918E2,2.2415419E1,3.021617E3,1.5829719E3,1.4569956E3,2.6621802E3,3.465088E2,1.5575853E2,3.4291284E2,3.489782E2,2.1362934E1,1.5977625E2,9.998672E0,1.2416747E1,1.8533385E3,1.1682783E3,1.2163494E2,1.4613369E3,6.3198987E2,8.2500574E2,2.6334192E3,2.876083E1,3.3641537E2,1.0093407E1,1.4274756E2,1.3010977E1,1.3752722E2,2.0538562E2,2.0129028E2,1.4768794E2,1.5437142E0,1.9819221E1,1.10195305E2,4.9580936E1,8.6008E0,1.3978719E0,6.7774663E0,5.6392803E0,1.1933634E3,6.5997516E2,7.954983E2,3.7278003E2,1.2848101E1,1.08786835E2,3.5908774E2,1.1022493E3,5.509936E2,8.09963E1,1.565398E1,8.093518E2,1.4009592E2,2.4933232E3,1.5989324E1,1.2771506E1],"tree_param":{"num_deleted":"0","num_feature":"8","num_nodes":"63","size_leaf_vector":"1"}},{"base_weights":[9.244102E-4,-2.943625E-1,3.3887632E-2,-4.3588248E-1,-2.2602473E-1,-9.767423E-2,8.807093E-2,-4.2415023E-1,-1.2596983E0,3.0153012E-1,-2.4112591E-1,-1.8959697E-1,2.1168612E-2,-3.948939E-2,1.3399206E-1,-3.5118532E-1,-5.1476216E-1,-8.158494E-2,-6.8821684E-3,5.834594E-1,-3.4070772E-1,-2.6403773E-1,8.0230154E-2,-7.856122E-2,-4.395715E-1,-1.2232551E-1,8.162031E-2,5.348606E-2,-1.0759241E-1,7.940312E-2,2.4865352E-1,-2.5123585E-2,-1.05261905E-2,-4.8259897E-3,-2.8511425E-2,4.4292476E-2,8.560195E-3,5.261968E-3,-4.9390707E-2,-1.4994216E-2,-3.9266287E-3,1.9811854E-2,-6.4261714E-3,-1.0883785E-2,5.51232E-3,-3.5843946E-2,-1.5051444E-2,-1.1367688E-2,6.749924E-4,5.968709E-3,-6.842907E-3,-1.1656045E-2,4.491132E-3,2.1195764E-2,-5.9063225E-3,1.7382028E-2,1.8941866E-3,3.1227235E-2,1.0709439E-2],"categories":[],"categories_nodes":[],"categories_segments":[],"categories_sizes":[],"default_left":[0,0,0,0,0,0,0,0,0,0,0,0,0,0,0,0,0,0,0,0,0,0,0,0,0,0,0,0,0,0,0,0,0,0,0,0,0,0,0,0,0,0,0,0,0,0,0,0,0,0,0,0,0,0,0,0,0,0,0],"id":22,"left_children":[1,3,5,7,9,11,13,15,17,19,21,23,25,27,29,31,33,-1,-1,35,37,39,41,43,45,47,49,51,53,55,57,-1,-1,-1,-1,-1,-1,-1,-1,-1,-1,-1,-1,-1,-1,-1,-1,-1,-1,-1,-1,-1,-1,-1,-1,-1,-1,-1,-1],"loss_changes":[9.8467636E1,9.726265E0,6.487998E1,2.652645E0,5.5470276E0,2.9009441E1,3.7765457E1,1.9786148E0,1.4960742E0,3.741622E0,4.9438667E0,4.1522476E1,1.0062769E1,1.0815025E1,2.964981E1,3.8112717E0,3.2748833E0,0E0,0E0,1.5893922E0,2.0086606E0,4.1280212E0,3.0367997E0,2.7286366E1,1.7467705E1,4.9090986E0,6.7469172E0,7.5444956E0,5.5688534E0,3.5767273E1,1.9666351E1,0E0,0E0,0E0,0E0,0E0,0E0,0E0,0E0,0E0,0E0,0E0,0E0,0E0,0E0,0E0,0E0,0E0,0E0,0E0,0E0,0E0,0E0,0E0,0E0,0E0,0E0,0E0,0E0],"parents":[2147483647,0,0,1,1,2,2,3,3,4,4,5,5,6,6,7,7,8,8,9,9,10,10,11,11,12,12,13,13,14,14,15,15,16,16,19,19,20,20,21,21,22,22,23,23,24,24,25,25,26,26,27,27,28,28,29,29,30,30],"right_children":[2,4,6,8,10,12,14,16,18,20,22,24,26,28,30,32,34,-1,-1,36,38,40,42,44,46,48,50,52,54,56,58,-1,-1,-1,-1,-1,-1,-1,-1,-1,-1,-1,-1,-1,-1,-1,-1,-1,-1,-1,-1,-1,-1,-1,-1,-1,-1,-1,-1],"split_conditions":[4E0,2E0,2E0,9E0,3E0,1.8E1,2E0,1.5E1,4.1E1,5E0,3.3E1,1.2E1,1.3E1,2E0,2.1E1,2.6E1,2.1E1,-8.158494E-2,-6.8821684E-3,2.8E1,2E0,5E0,2.4E1,1E1,1.4E1,2E0,2.4E1,2E0,3E0,6E0,2.2E1,-2.5123585E-2,-1.05261905E-2,-4.8259897E-3,-2.8511425E-2,4.4292476E-2,8.560195E-3,5.261968E-3,-4.9390707E-2,-1.4994216E-2,-3.9266287E-3,1.9811854E-2,-6.4261714E-3,-1.0883785E-2,5.51232E-3,-3.5843946E-2,-1.5051444E-2,-1.1367688E-2,6.749924E-4,5.968709E-3,-6.842907E-3,-1.1656045E-2,4.491132E-3,2.1195764E-2,-5.9063225E-3,1.7382028E-2,1.8941866E-3,3.1227235E-2,1.0709439E-2],"split_indices":[5,1,3,7,4,4,2,4,0,3,4,4,5,7,4,0,0,0,0,0,4,3,0,4,5,1,4,1,4,4,4,0,0,0,0,0,0,0,0,0,0,0,0,0,0,0,0,0,0,0,0,0,0,0,0,0,0,0,0],"split_type":[0,0,0,0,0,0,0,0,0,0,0,0,0,0,0,0,0,0,0,0,0,0,0,0,0,0,0,0,0,0,0,0,0,0,0,0,0,0,0,0,0,0,0,0,0,0,0,0,0,0,0,0,0,0,0,0,0,0,0],"sum_hessian":[1.0114228E4,1.01488495E3,9.099343E3,3.287342E2,6.8615076E2,2.6541145E3,6.445228E3,3.256119E2,3.1222954E0,1.8566565E1,6.675842E2,1.4962203E3,1.1578942E3,1.7061108E3,4.739117E3,1.8307065E2,1.4254126E2,2.0037699E0,1.1185257E0,1.2966192E1,5.6003714E0,6.233215E2,4.426275E1,1.0369387E3,4.5928168E2,3.429087E2,8.149854E2,7.214243E2,9.846866E2,3.2117393E3,1.527378E3,8.696479E1,9.610586E1,1.7010944E1,1.2553031E2,6.817071E0,6.1491213E0,3.811253E0,1.7891185E0,5.218615E2,1.0145993E2,1.7250772E1,2.7011976E1,5.969499E2,4.399888E2,1.5162135E2,3.076603E2,1.9299759E2,1.4991109E2,6.9529034E2,1.1969508E2,8.0563034E1,6.4086127E2,1.8373749E1,9.6631287E2,4.295089E2,2.7822302E3,1.2684253E2,1.4005355E3],"tree_param":{"num_deleted":"0","num_feature":"8","num_nodes":"59","size_leaf_vector":"1"}},{"base_weights":[9.05326E-4,-2.3214011E-1,3.885727E-2,-2.716547E-1,1.4974693E-4,-6.6753596E-2,1.0040861E-1,-3.3206025E-1,-1.2958126E-1,-1.15964904E-1,2.7791688E-1,-2.4275193E-2,-1.7205468E-1,4.4525046E-2,2.0049556E-1,2.919349E-1,-3.5320008E-1,3.3615464E-1,-1.9046274E-1,5.730205E-2,-3.1799152E-1,6.7923546E-1,1.3473637E-1,1.24450244E-1,-5.6367557E-2,-4.437277E-1,-1.5354884E-1,2.9360566E-1,1.11816395E-2,2.3670132E-1,-6.321452E-2,-1.2393588E-2,2.4444869E-2,-1.4420763E-2,-2.5885874E-2,-6.2927525E-3,2.3983123E-2,-1.704484E-2,-3.5288266E-3,2.4832213E-2,-3.70988E-3,-3.0903101E-2,2.7627083E-3,1.6214691E-2,4.1480657E-2,1.3678273E-3,3.451359E-2,-3.6317378E-3,1.582899E-2,-6.7927428E-3,1.6462544E-3,-2.8463483E-2,2.8030207E-2,4.512912E-3,-8.652668E-3,-2.5558567E-2,1.6400065E-2,-5.700442E-3,2.2001925E-3,2.6467884E-2,1.0434966E-2,-4.82906E-3,3.165112E-2],"categories":[],"categories_nodes":[],"categories_segments":[],"categories_sizes":[],"default_left":[0,0,0,0,0,0,0,0,0,0,0,0,0,0,0,0,0,0,0,0,0,0,0,0,0,0,0,0,0,0,0,0,0,0,0,0,0,0,0,0,0,0,0,0,0,0,0,0,0,0,0,0,0,0,0,0,0,0,0,0,0,0,0],"id":23,"left_children":[1,3,5,7,9,11,13,15,17,19,21,23,25,27,29,31,33,35,37,39,41,43,45,47,49,51,53,55,57,59,61,-1,-1,-1,-1,-1,-1,-1,-1,-1,-1,-1,-1,-1,-1,-1,-1,-1,-1,-1,-1,-1,-1,-1,-1,-1,-1,-1,-1,-1,-1,-1,-1],"loss_changes":[8.941296E1,1.2995239E1,5.651946E1,1.034082E1,6.702869E0,1.4317116E1,3.0714092E1,1.1293823E1,1.0345591E1,5.1484284E0,3.4288325E0,1.0901545E1,4.5579414E0,2.9281744E1,1.8803177E1,3.1350033E0,8.601112E0,2.8637471E0,5.771E0,4.6438146E0,7.629576E0,5.7763815E-1,2.74917E0,1.5374952E1,1.3334719E1,7.651309E0,4.119461E0,1.1690025E1,1.2787589E1,1.4070572E1,5.5980763E0,0E0,0E0,0E0,0E0,0E0,0E0,0E0,0E0,0E0,0E0,0E0,0E0,0E0,0E0,0E0,0E0,0E0,0E0,0E0,0E0,0E0,0E0,0E0,0E0,0E0,0E0,0E0,0E0,0E0,0E0,0E0,0E0],"parents":[2147483647,0,0,1,1,2,2,3,3,4,4,5,5,6,6,7,7,8,8,9,9,10,10,11,11,12,12,13,13,14,14,15,15,16,16,17,17,18,18,19,19,20,20,21,21,22,22,23,23,24,24,25,25,26,26,27,27,28,28,29,29,30,30],"right_children":[2,4,6,8,10,12,14,16,18,20,22,24,26,28,30,32,34,36,38,40,42,44,46,48,50,52,54,56,58,60,62,-1,-1,-1,-1,-1,-1,-1,-1,-1,-1,-1,-1,-1,-1,-1,-1,-1,-1,-1,-1,-1,-1,-1,-1,-1,-1,-1,-1,-1,-1,-1,-1],"split_conditions":[5E0,3E0,2E0,2.1E1,4E0,4E0,2.1E1,3E0,2.2E1,2E0,9E0,9E0,7E0,6E0,3.5E1,1E0,1.5E1,1E0,3E0,2.3E1,2.8E1,2.5E1,3.3E1,8E0,1.8E1,3.9E1,9E0,2E0,2E0,2.2E1,3.7E1,-1.2393588E-2,2.4444869E-2,-1.4420763E-2,-2.5885874E-2,-6.2927525E-3,2.3983123E-2,-1.704484E-2,-3.5288266E-3,2.4832213E-2,-3.70988E-3,-3.0903101E-2,2.7627083E-3,1.6214691E-2,4.1480657E-2,1.3678273E-3,3.451359E-2,-3.6317378E-3,1.582899E-2,-6.7927428E-3,1.6462544E-3,-2.8463483E-2,2.8030207E-2,4.512912E-3,-8.652668E-3,-2.5558567E-2,1.6400065E-2,-5.700442E-3,2.2001925E-3,2.6467884E-2,1.0434966E-2,-4.82906E-3,3.165112E-2],"split_indices":[5,1,1,4,5,7,4,4,4,7,4,4,4,4,4,1,4,1,5,0,0,0,4,4,4,0,4,3,2,4,4,0,0,0,0,0,0,0,0,0,0,0,0,0,0,0,0,0,0,0,0,0,0,0,0,0,0,0,0,0,0,0,0],"split_type":[0,0,0,0,0,0,0,0,0,0,0,0,0,0,0,0,0,0,0,0,0,0,0,0,0,0,0,0,0,0,0,0,0,0,0,0,0,0,0,0,0,0,0,0,0,0,0,0,0,0,0,0,0,0,0,0,0,0,0,0,0,0,0],"sum_hessian":[1.0107391E4,1.4147773E3,8.692613E3,1.208954E3,2.058234E2,3.2007043E3,5.491909E3,8.473485E2,3.616054E2,1.4555833E2,6.026506E1,2.2815562E3,9.191482E2,3.525109E3,1.9668003E3,2.7346249E1,8.2000226E2,4.1281967E1,3.2032346E2,7.874204E1,6.6816284E1,1.48627E1,4.540236E1,4.0443018E2,1.877126E3,5.7152264E1,8.619959E2,4.1525812E2,3.1098508E3,1.7294587E3,2.3734152E2,7.2414474E0,2.0104801E1,5.90302E2,2.2970024E2,9.812992E0,3.1468975E1,1.4124487E2,1.7907858E2,1.749943E1,6.1242615E1,3.6675304E1,3.0140984E1,5.3623314E0,9.500369E0,3.8927315E1,6.475044E0,1.9994753E2,2.0448267E2,9.9281335E2,8.843126E2,5.1187046E1,5.965218E0,6.358272E1,7.984132E2,1.6452261E1,3.9880585E2,6.454607E2,2.4643901E3,1.4946419E2,1.5799945E3,2.2730917E2,1.0032353E1],"tree_param":{"num_deleted":"0","num_feature":"8","num_nodes":"63","size_leaf_vector":"1"}},{"base_weights":[9.088706E-4,-1.7917648E-1,4.5637112E-2,-3.480537E-1,-1.0859532E-1,-9.63303E-2,8.871863E-2,-2.247221E-1,-4.2231593E-1,-2.1561064E-1,6.703814E-3,-8.0802694E-2,-4.1053692E-1,2.6809145E-2,1.797277E-1,-1.3877376E0,-1.8504468E-1,-8.5479707E-1,-2.871549E-1,-2.0100011E-1,-8.566715E-1,3.583411E-1,-2.7057905E-2,-2.4431947E-1,-6.1002824E-2,-6.1753047E-1,-1.6882259E-1,1.046113E-1,-1.2220897E-1,5.600751E-1,1.568903E-1,1.2280245E-3,-8.9937985E-2,-3.2166045E-3,-2.2278402E-2,-4.5814466E-2,2.1039909E-2,-2.1346565E-2,-5.815841E-3,-1.1222257E-2,6.054049E-3,-1.9602722E-2,-5.5854924E-2,8.053363E-3,2.6648477E-2,-5.1659974E-3,5.643702E-3,-1.5410724E-2,1.10195E-2,-3.7641095E-3,1.0216049E-2,-3.9495155E-2,-8.135557E-3,-1.588854E-2,1.0537281E-2,-2.861549E-3,7.368782E-3,-7.840502E-3,1.2052803E-2,1.44838635E-2,3.2726392E-2,-4.9708304E-3,9.459635E-3],"categories":[],"categories_nodes":[],"categories_segments":[],"categories_sizes":[],"default_left":[0,0,0,0,0,0,0,0,0,0,0,0,0,0,0,0,0,0,0,0,0,0,0,0,0,0,0,0,0,0,0,0,0,0,0,0,0,0,0,0,0,0,0,0,0,0,0,0,0,0,0,0,0,0,0,0,0,0,0,0,0,0,0],"id":24,"left_children":[1,3,5,7,9,11,13,15,17,19,21,23,25,27,29,31,33,35,37,39,41,43,45,47,49,51,53,55,57,59,61,-1,-1,-1,-1,-1,-1,-1,-1,-1,-1,-1,-1,-1,-1,-1,-1,-1,-1,-1,-1,-1,-1,-1,-1,-1,-1,-1,-1,-1,-1,-1,-1],"loss_changes":[8.137711E1,2.3920807E1,4.9505295E1,5.3272324E0,1.7510374E1,9.161407E0,3.4979816E1,1.0109022E1,2.1287735E1,6.721142E0,8.130548E0,5.803297E0,4.323781E0,4.2870483E1,2.1745941E1,4.256709E0,6.838937E0,7.2260704E0,6.688246E0,5.470707E0,1.5093212E0,1.9809098E0,6.6818533E0,5.821373E0,6.093519E0,3.5796185E0,2.4529572E0,1.6820667E1,1.5981125E1,3.4367867E0,1.9662712E1,0E0,0E0,0E0,0E0,0E0,0E0,0E0,0E0,0E0,0E0,0E0,0E0,0E0,0E0,0E0,0E0,0E0,0E0,0E0,0E0,0E0,0E0,0E0,0E0,0E0,0E0,0E0,0E0,0E0,0E0,0E0,0E0],"parents":[2147483647,0,0,1,1,2,2,3,3,4,4,5,5,6,6,7,7,8,8,9,9,10,10,11,11,12,12,13,13,14,14,15,15,16,16,17,17,18,18,19,19,20,20,21,21,22,22,23,23,24,24,25,25,26,26,27,27,28,28,29,29,30,30],"right_children":[2,4,6,8,10,12,14,16,18,20,22,24,26,28,30,32,34,36,38,40,42,44,46,48,50,52,54,56,58,60,62,-1,-1,-1,-1,-1,-1,-1,-1,-1,-1,-1,-1,-1,-1,-1,-1,-1,-1,-1,-1,-1,-1,-1,-1,-1,-1,-1,-1,-1,-1,-1,-1],"split_conditions":[7E0,2E0,1E0,1.2E1,4E0,7E0,1.9E1,1.9E1,1.8E1,6E0,6E0,2E0,2.4E1,1.2E1,2E1,1.8E1,4E0,4E1,2E0,3.3E1,3.4E1,2E0,2.1E1,5E0,4E0,2E0,4.1E1,2E0,3E0,2E0,2.1E1,1.2280245E-3,-8.9937985E-2,-3.2166045E-3,-2.2278402E-2,-4.5814466E-2,2.1039909E-2,-2.1346565E-2,-5.815841E-3,-1.1222257E-2,6.054049E-3,-1.9602722E-2,-5.5854924E-2,8.053363E-3,2.6648477E-2,-5.1659974E-3,5.643702E-3,-1.5410724E-2,1.10195E-2,-3.7641095E-3,1.0216049E-2,-3.9495155E-2,-8.135557E-3,-1.588854E-2,1.0537281E-2,-2.861549E-3,7.368782E-3,-7.840502E-3,1.2052803E-2,1.44838635E-2,3.2726392E-2,-4.9708304E-3,9.459635E-3],"split_indices":[5,3,1,4,5,7,4,0,4,7,4,2,5,4,4,0,7,0,1,4,0,6,4,3,3,3,0,2,1,2,4,0,0,0,0,0,0,0,0,0,0,0,0,0,0,0,0,0,0,0,0,0,0,0,0,0,0,0,0,0,0,0,0],"split_type":[0,0,0,0,0,0,0,0,0,0,0,0,0,0,0,0,0,0,0,0,0,0,0,0,0,0,0,0,0,0,0,0,0,0,0,0,0,0,0,0,0,0,0,0,0,0,0,0,0,0,0,0,0,0,0,0,0,0,0,0,0,0,0],"sum_hessian":[1.0100792E4,2.0090254E3,8.0917666E3,5.910083E2,1.4180171E3,1.8835685E3,6.208198E3,2.2363339E2,3.6737488E2,7.349762E2,6.830409E2,1.7960668E3,8.750171E1,3.6955635E3,2.512635E3,6.2569084E0,2.173765E2,8.6207695E1,2.8116718E2,7.1988275E2,1.5093434E1,5.899355E1,6.2404736E2,1.927668E2,1.6032999E3,4.629872E1,4.1202988E1,2.4281353E3,1.2674281E3,1.4098952E2,2.3716453E3,1.6224186E0,4.6344895E0,1.4939963E2,6.797686E1,8.251175E1,3.69594E0,1.5381761E2,1.2734957E2,6.7131903E2,4.8563717E1,6.3212967E0,8.772138E0,2.860334E1,3.0390211E1,4.040851E2,2.1996225E2,1.6976218E2,2.3004616E1,1.522099E3,8.1201004E1,3.3040077E1,1.3258644E1,2.9707956E1,1.1495034E1,5.0742804E2,1.9207073E3,1.1577231E3,1.0970501E2,3.755229E1,1.03437225E2,2.6521225E2,2.106433E3],"tree_param":{"num_deleted":"0","num_feature":"8","num_nodes":"63","size_leaf_vector":"1"}},{"base_weights":[8.82216E-4,-1.694411E-1,4.347648E-2,-2.6596737E-1,-5.9375778E-2,-5.380275E-2,1.0095634E-1,-3.208461E-1,-1.1194993E-1,-2.4433243E-1,2.2037398E-2,-1.3361067E-2,-1.5402174E-1,4.947357E-2,1.9383116E-1,-2.1309648E-1,-4.529199E-1,2.9980433E-1,-1.8262738E-1,-9.71645E-2,-3.5857272E-1,-1.429708E-1,1.0512357E-1,2.570263E-1,-2.9239856E-2,-4.4055754E-1,-1.3433416E-1,1.861706E-1,7.802898E-5,2.547692E-1,3.8908504E-2,-2.1556202E-2,-5.5792844E-3,-2.529125E-2,-8.376144E-3,4.613388E-3,2.6786892E-2,-1.1331276E-2,1.2339936E-2,-1.0745202E-2,1.5746264E-2,-1.6551642E-2,-6.221166E-2,-4.0234443E-2,-4.6175024E-3,2.7480868E-3,1.9013118E-2,7.0882714E-3,3.3164587E-2,-3.231321E-2,-3.752021E-4,-2.8270692E-2,2.6873028E-2,-7.2316416E-3,1.4614776E-2,5.503427E-3,1.9056879E-2,-5.8036633E-3,1.2634357E-3,1.3682482E-2,-8.729537E-3,-1.6305035E-2,5.6158747E-3],"categories":[],"categories_nodes":[],"categories_segments":[],"categories_sizes":[],"default_left":[0,0,0,0,0,0,0,0,0,0,0,0,0,0,0,0,0,0,0,0,0,0,0,0,0,0,0,0,0,0,0,0,0,0,0,0,0,0,0,0,0,0,0,0,0,0,0,0,0,0,0,0,0,0,0,0,0,0,0,0,0,0,0],"id":25,"left_children":[1,3,5,7,9,11,13,15,17,19,21,23,25,27,29,31,33,35,37,39,41,43,45,47,49,51,53,55,57,59,61,-1,-1,-1,-1,-1,-1,-1,-1,-1,-1,-1,-1,-1,-1,-1,-1,-1,-1,-1,-1,-1,-1,-1,-1,-1,-1,-1,-1,-1,-1,-1,-1],"loss_changes":[7.324381E1,2.1441841E1,4.516432E1,9.056541E0,1.4234412E1,1.2158139E1,2.4265514E1,1.1182877E1,8.323768E0,4.822262E0,9.023197E0,9.1901E0,4.806471E0,2.2064014E1,1.7080185E1,9.654243E0,5.2786484E0,2.0073857E0,4.649723E0,6.2599764E0,3.5461044E0,7.310697E0,6.018424E0,5.465958E0,2.7100105E1,7.021761E0,3.5946302E0,1.2827322E1,7.0290117E0,1.0578445E1,1.3761582E1,0E0,0E0,0E0,0E0,0E0,0E0,0E0,0E0,0E0,0E0,0E0,0E0,0E0,0E0,